<?xml version="1.0"?>
<MethodSetup Method="BDT::BDTG_D3_M1">
  <GeneralInfo>
    <Info name="TMVA Release" value="4.2.1 [262657]"/>
    <Info name="ROOT Release" value="6.32/04 [401412]"/>
    <Info name="Creator" value="yhong"/>
    <Info name="Date" value="Wed Jul 22 18:12:41 2026"/>
    <Info name="Host" value="Linux 39c26a24bcd5 4.18.0-553.el8_10.x86_64 #1 SMP Fri May 24 08:32:12 EDT 2024 x86_64 x86_64 x86_64 GNU/Linux"/>
    <Info name="Dir" value="/gpfs/group/had/sks/Users/yhong/rootfile/beta/ml_work/balanced_pc3_pim_bdt_s7232026/bgoegg31_bgo_pc_brweighted"/>
    <Info name="Training events" value="150000"/>
    <Info name="TrainingTime" value="1.14024957e+02"/>
    <Info name="AnalysisType" value="Classification"/>
  </GeneralInfo>
  <Options>
    <Option name="V" modified="Yes">False</Option>
    <Option name="VerbosityLevel" modified="No">Default</Option>
    <Option name="VarTransform" modified="No">None</Option>
    <Option name="H" modified="Yes">False</Option>
    <Option name="CreateMVAPdfs" modified="No">False</Option>
    <Option name="IgnoreNegWeightsInTraining" modified="No">False</Option>
    <Option name="NTrees" modified="Yes">800</Option>
    <Option name="MaxDepth" modified="Yes">3</Option>
    <Option name="MinNodeSize" modified="Yes">1.0%</Option>
    <Option name="nCuts" modified="Yes">40</Option>
    <Option name="BoostType" modified="Yes">Grad</Option>
    <Option name="AdaBoostR2Loss" modified="No">quadratic</Option>
    <Option name="UseBaggedBoost" modified="Yes">True</Option>
    <Option name="Shrinkage" modified="Yes">3.000000e-02</Option>
    <Option name="AdaBoostBeta" modified="No">5.000000e-01</Option>
    <Option name="UseRandomisedTrees" modified="No">False</Option>
    <Option name="UseNvars" modified="No">5</Option>
    <Option name="UsePoissonNvars" modified="No">True</Option>
    <Option name="BaggedSampleFraction" modified="Yes">6.000000e-01</Option>
    <Option name="UseYesNoLeaf" modified="No">True</Option>
    <Option name="NegWeightTreatment" modified="No">pray</Option>
    <Option name="Css" modified="No">1.000000e+00</Option>
    <Option name="Cts_sb" modified="No">1.000000e+00</Option>
    <Option name="Ctb_ss" modified="No">1.000000e+00</Option>
    <Option name="Cbb" modified="No">1.000000e+00</Option>
    <Option name="NodePurityLimit" modified="No">5.000000e-01</Option>
    <Option name="SeparationType" modified="No">giniindex</Option>
    <Option name="RegressionLossFunctionBDTG" modified="No">huber</Option>
    <Option name="HuberQuantile" modified="No">7.000000e-01</Option>
    <Option name="DoBoostMonitor" modified="No">False</Option>
    <Option name="UseFisherCuts" modified="No">False</Option>
    <Option name="MinLinCorrForFisher" modified="No">8.000000e-01</Option>
    <Option name="UseExclusiveVars" modified="No">False</Option>
    <Option name="DoPreselection" modified="No">False</Option>
    <Option name="SigToBkgFraction" modified="No">1.000000e+00</Option>
    <Option name="PruneMethod" modified="No">nopruning</Option>
    <Option name="PruneStrength" modified="No">0.000000e+00</Option>
    <Option name="PruningValFraction" modified="No">5.000000e-01</Option>
    <Option name="SkipNormalization" modified="No">False</Option>
    <Option name="nEventsMin" modified="No">0</Option>
    <Option name="UseBaggedGrad" modified="No">False</Option>
    <Option name="GradBaggingFraction" modified="No">6.000000e-01</Option>
    <Option name="UseNTrainEvents" modified="No">0</Option>
    <Option name="NNodesMax" modified="No">0</Option>
  </Options>
  <Variables NVar="24">
    <Variable VarIndex="0" Expression="maxE" Label="maxE" Title="maxE" Unit="" Internal="maxE" Type="F" Min="0.00000000e+00" Max="1.92346130e+02"/>
    <Variable VarIndex="1" Expression="sumE" Label="sumE" Title="sumE" Unit="" Internal="sumE" Type="F" Min="0.00000000e+00" Max="2.97077301e+02"/>
    <Variable VarIndex="2" Expression="nHit" Label="nHit" Title="nHit" Unit="" Internal="nHit" Type="F" Min="0.00000000e+00" Max="2.70000000e+01"/>
    <Variable VarIndex="3" Expression="nCl4" Label="nCl4" Title="nCl4" Unit="" Internal="nCl4" Type="F" Min="0.00000000e+00" Max="1.70000000e+01"/>
    <Variable VarIndex="4" Expression="nCl8" Label="nCl8" Title="nCl8" Unit="" Internal="nCl8" Type="F" Min="0.00000000e+00" Max="1.50000000e+01"/>
    <Variable VarIndex="5" Expression="cl1Sum4" Label="cl1Sum4" Title="cl1Sum4" Unit="" Internal="cl1Sum4" Type="F" Min="0.00000000e+00" Max="2.30330643e+02"/>
    <Variable VarIndex="6" Expression="cl2Sum4" Label="cl2Sum4" Title="cl2Sum4" Unit="" Internal="cl2Sum4" Type="F" Min="0.00000000e+00" Max="9.98986282e+01"/>
    <Variable VarIndex="7" Expression="cl1Size4" Label="cl1Size4" Title="cl1Size4" Unit="" Internal="cl1Size4" Type="F" Min="0.00000000e+00" Max="1.10000000e+01"/>
    <Variable VarIndex="8" Expression="cl1MaxFrac4" Label="cl1MaxFrac4" Title="cl1MaxFrac4" Unit="" Internal="cl1MaxFrac4" Type="F" Min="0.00000000e+00" Max="1.00000000e+00"/>
    <Variable VarIndex="9" Expression="cl1RmsDeg4" Label="cl1RmsDeg4" Title="cl1RmsDeg4" Unit="" Internal="cl1RmsDeg4" Type="F" Min="0.00000000e+00" Max="1.27222404e+01"/>
    <Variable VarIndex="10" Expression="allRmsDeg" Label="allRmsDeg" Title="allRmsDeg" Unit="" Internal="allRmsDeg" Type="F" Min="0.00000000e+00" Max="1.22424004e+02"/>
    <Variable VarIndex="11" Expression="cl2OverCl1" Label="cl2OverCl1" Title="cl2OverCl1" Unit="" Internal="cl2OverCl1" Type="F" Min="0.00000000e+00" Max="9.99985516e-01"/>
    <Variable VarIndex="12" Expression="isolatedEFrac4" Label="isolatedEFrac4" Title="isolatedEFrac4" Unit="" Internal="isolatedEFrac4" Type="F" Min="0.00000000e+00" Max="1.00000000e+00"/>
    <Variable VarIndex="13" Expression="seed15NCl4" Label="seed15NCl4" Title="seed15NCl4" Unit="" Internal="seed15NCl4" Type="F" Min="0.00000000e+00" Max="1.30000000e+01"/>
    <Variable VarIndex="14" Expression="seed15Cl1Sum4" Label="seed15Cl1Sum4" Title="seed15Cl1Sum4" Unit="" Internal="seed15Cl1Sum4" Type="F" Min="0.00000000e+00" Max="2.30330643e+02"/>
    <Variable VarIndex="15" Expression="seed15Cl1Size4" Label="seed15Cl1Size4" Title="seed15Cl1Size4" Unit="" Internal="seed15Cl1Size4" Type="F" Min="0.00000000e+00" Max="1.10000000e+01"/>
    <Variable VarIndex="16" Expression="e2OverE1" Label="e2OverE1" Title="e2OverE1" Unit="" Internal="e2OverE1" Type="F" Min="0.00000000e+00" Max="9.99982476e-01"/>
    <Variable VarIndex="17" Expression="nHit2T" Label="nHit2T" Title="nHit2T" Unit="" Internal="nHit2T" Type="F" Min="0.00000000e+00" Max="1.30000000e+01"/>
    <Variable VarIndex="18" Expression="sum2T" Label="sum2T" Title="sum2T" Unit="" Internal="sum2T" Type="F" Min="0.00000000e+00" Max="2.71311707e+02"/>
    <Variable VarIndex="19" Expression="local3x3Frac" Label="local3x3Frac" Title="local3x3Frac" Unit="" Internal="local3x3Frac" Type="F" Min="0.00000000e+00" Max="1.00000000e+00"/>
    <Variable VarIndex="20" Expression="meanHitE" Label="meanHitE" Title="meanHitE" Unit="" Internal="meanHitE" Type="F" Min="0.00000000e+00" Max="1.89758423e+02"/>
    <Variable VarIndex="21" Expression="thetaSpan" Label="thetaSpan" Title="thetaSpan" Unit="" Internal="thetaSpan" Type="F" Min="0.00000000e+00" Max="3.10000000e+01"/>
    <Variable VarIndex="22" Expression="phiSpan" Label="phiSpan" Title="phiSpan" Unit="" Internal="phiSpan" Type="F" Min="0.00000000e+00" Max="5.20000000e+01"/>
    <Variable VarIndex="23" Expression="pcUpE_MeV" Label="pcUpE_MeV" Title="pcUpE_MeV" Unit="" Internal="pcUpE_MeV" Type="F" Min="0.00000000e+00" Max="3.14143600e+01"/>
  </Variables>
  <Spectators NSpec="0"/>
  <Classes NClass="2">
    <Class Name="Signal" Index="0"/>
    <Class Name="Background" Index="1"/>
  </Classes>
  <Transformations NTransformations="0"/>
  <MVAPdfs/>
  <Weights NTrees="800" AnalysisType="1">
    <BinaryTree type="DecisionTree" boostWeight="1.0000000000000000e+00" itree="0">
      <Node pos="s" depth="0" NCoef="0" IVar="10" Cut="3.2845462799072266e+01" cType="1" res="-2.4885041639208794e-03" rms="4.9999380111694336e-01" purity="4.9751150608062744e-01" nType="0">
        <Node pos="l" depth="1" NCoef="0" IVar="10" Cut="1.5218196868896484e+01" cType="1" res="4.7538447380065918e-01" rms="1.5495029091835022e-01" purity="9.7538447380065918e-01" nType="0">
          <Node pos="l" depth="2" NCoef="0" IVar="20" Cut="4.6282543182373047e+01" cType="1" res="4.8014524579048157e-01" rms="1.3950105011463165e-01" purity="9.8014521598815918e-01" nType="0">
            <Node pos="l" depth="3" NCoef="0" IVar="-1" Cut="0.0000000000000000e+00" cType="1" res="2.8890468180179596e-02" rms="1.3472276926040649e-01" purity="9.8150783777236938e-01" nType="-99"/>
            <Node pos="r" depth="3" NCoef="0" IVar="-1" Cut="0.0000000000000000e+00" cType="1" res="2.6636302471160889e-02" rms="2.3004069924354553e-01" purity="9.4393837451934814e-01" nType="-99"/>
          </Node>
          <Node pos="r" depth="2" NCoef="0" IVar="-1" Cut="0.0000000000000000e+00" cType="1" res="1.5856876969337463e-02" rms="4.2444717884063721e-01" purity="7.6428127288818359e-01" nType="-99"/>
        </Node>
        <Node pos="r" depth="1" NCoef="0" IVar="6" Cut="2.1370620727539062e+01" cType="1" res="-4.9434199929237366e-01" rms="7.5006581842899323e-02" purity="5.6579997763037682e-03" nType="0">
          <Node pos="l" depth="2" NCoef="0" IVar="-1" Cut="0.0000000000000000e+00" cType="1" res="-1.4078760519623756e-02" rms="4.4152152538299561e-01" purity="2.6535400748252869e-01" nType="-99"/>
          <Node pos="r" depth="2" NCoef="0" IVar="18" Cut="1.2578968811035156e+02" cType="1" res="-4.9996519088745117e-01" rms="5.9009445831179619e-03" purity="3.4822362067643553e-05" nType="0">
            <Node pos="l" depth="3" NCoef="0" IVar="-1" Cut="0.0000000000000000e+00" cType="1" res="-2.9900066554546356e-02" rms="4.0777251124382019e-02" purity="1.6655583167448640e-03" nType="-99"/>
            <Node pos="r" depth="3" NCoef="0" IVar="-1" Cut="0.0000000000000000e+00" cType="1" res="-2.9999999329447746e-02" rms="0.0000000000000000e+00" purity="0.0000000000000000e+00" nType="-99"/>
          </Node>
        </Node>
      </Node>
    </BinaryTree>
    <BinaryTree type="DecisionTree" boostWeight="1.0000000000000000e+00" itree="1">
      <Node pos="s" depth="0" NCoef="0" IVar="10" Cut="3.8614929199218750e+01" cType="1" res="-9.5598195912316442e-04" rms="4.8583969473838806e-01" purity="4.9899089336395264e-01" nType="0">
        <Node pos="l" depth="1" NCoef="0" IVar="10" Cut="1.8833059310913086e+01" cType="1" res="4.5991688966751099e-01" rms="1.5841747820377350e-01" purity="9.7407817840576172e-01" nType="0">
          <Node pos="l" depth="2" NCoef="0" IVar="10" Cut="9.6459102630615234e+00" cType="1" res="4.6557277441024780e-01" rms="1.4018663763999939e-01" purity="9.7993659973144531e-01" nType="0">
            <Node pos="l" depth="3" NCoef="0" IVar="-1" Cut="0.0000000000000000e+00" cType="1" res="2.8036678209900856e-02" rms="1.3548943400382996e-01" purity="9.8129081726074219e-01" nType="-99"/>
            <Node pos="r" depth="3" NCoef="0" IVar="-1" Cut="0.0000000000000000e+00" cType="1" res="2.4277655407786369e-02" rms="2.7566617727279663e-01" purity="9.1701066493988037e-01" nType="-99"/>
          </Node>
          <Node pos="r" depth="2" NCoef="0" IVar="-1" Cut="0.0000000000000000e+00" cType="1" res="1.1212850920855999e-02" rms="4.6024042367935181e-01" purity="6.9121640920639038e-01" nType="-99"/>
        </Node>
        <Node pos="r" depth="1" NCoef="0" IVar="1" Cut="1.3390872192382812e+02" cType="1" res="-4.8068985342979431e-01" rms="6.6152781248092651e-02" purity="4.4608977623283863e-03" nType="0">
          <Node pos="l" depth="2" NCoef="0" IVar="-1" Cut="0.0000000000000000e+00" cType="1" res="-1.6870405524969101e-02" rms="4.0315103530883789e-01" purity="2.0724669098854065e-01" nType="-99"/>
          <Node pos="r" depth="2" NCoef="0" IVar="11" Cut="2.3177248239517212e-01" cType="1" res="-4.8508259654045105e-01" rms="7.8182027209550142e-04" purity="0.0000000000000000e+00" nType="0">
            <Node pos="l" depth="3" NCoef="0" IVar="-1" Cut="0.0000000000000000e+00" cType="1" res="-2.9263358563184738e-02" rms="3.6435360088944435e-03" purity="0.0000000000000000e+00" nType="-99"/>
            <Node pos="r" depth="3" NCoef="0" IVar="-1" Cut="0.0000000000000000e+00" cType="1" res="-2.9126547276973724e-02" rms="8.3241553511470556e-05" purity="0.0000000000000000e+00" nType="-99"/>
          </Node>
        </Node>
      </Node>
    </BinaryTree>
    <BinaryTree type="DecisionTree" boostWeight="1.0000000000000000e+00" itree="2">
      <Node pos="s" depth="0" NCoef="0" IVar="10" Cut="3.5718040466308594e+01" cType="1" res="9.7476731752976775e-04" rms="4.7216758131980896e-01" purity="5.0102818012237549e-01" nType="0">
        <Node pos="l" depth="1" NCoef="0" IVar="10" Cut="1.7423427581787109e+01" cType="1" res="4.4648855924606323e-01" rms="1.5710230171680450e-01" purity="9.7448766231536865e-01" nType="0">
          <Node pos="l" depth="2" NCoef="0" IVar="10" Cut="9.3464508056640625e+00" cType="1" res="4.5124134421348572e-01" rms="1.4141374826431274e-01" purity="9.7957462072372437e-01" nType="0">
            <Node pos="l" depth="3" NCoef="0" IVar="-1" Cut="0.0000000000000000e+00" cType="1" res="2.7224572375416756e-02" rms="1.3766708970069885e-01" purity="9.8067158460617065e-01" nType="-99"/>
            <Node pos="r" depth="3" NCoef="0" IVar="-1" Cut="0.0000000000000000e+00" cType="1" res="2.4326797574758530e-02" rms="2.5485774874687195e-01" purity="9.3005710840225220e-01" nType="-99"/>
          </Node>
          <Node pos="r" depth="2" NCoef="0" IVar="-1" Cut="0.0000000000000000e+00" cType="1" res="1.3816921971738338e-02" rms="4.3594712018966675e-01" purity="7.4289166927337646e-01" nType="-99"/>
        </Node>
        <Node pos="r" depth="1" NCoef="0" IVar="18" Cut="1.1965974426269531e+02" cType="1" res="-4.6534487605094910e-01" rms="7.2501070797443390e-02" purity="5.4577928967773914e-03" nType="0">
          <Node pos="l" depth="2" NCoef="0" IVar="-1" Cut="0.0000000000000000e+00" cType="1" res="-1.2871726416051388e-02" rms="4.3870300054550171e-01" purity="2.6676318049430847e-01" nType="-99"/>
          <Node pos="r" depth="2" NCoef="0" IVar="6" Cut="2.6618412017822266e+01" cType="1" res="-4.7059097886085510e-01" rms="1.0724973399192095e-03" purity="0.0000000000000000e+00" nType="0">
            <Node pos="l" depth="3" NCoef="0" IVar="-1" Cut="0.0000000000000000e+00" cType="1" res="-2.8487451374530792e-02" rms="4.6520195901393890e-03" purity="0.0000000000000000e+00" nType="-99"/>
            <Node pos="r" depth="3" NCoef="0" IVar="-1" Cut="0.0000000000000000e+00" cType="1" res="-2.8329102322459221e-02" rms="5.5774213979020715e-04" purity="0.0000000000000000e+00" nType="-99"/>
          </Node>
        </Node>
      </Node>
    </BinaryTree>
    <BinaryTree type="DecisionTree" boostWeight="1.0000000000000000e+00" itree="3">
      <Node pos="s" depth="0" NCoef="0" IVar="10" Cut="3.8614929199218750e+01" cType="1" res="-1.7251877579838037e-03" rms="4.5883789658546448e-01" purity="4.9808436632156372e-01" nType="0">
        <Node pos="l" depth="1" NCoef="0" IVar="10" Cut="1.8833173751831055e+01" cType="1" res="4.3306905031204224e-01" rms="1.5694399178028107e-01" purity="9.7432845830917358e-01" nType="0">
          <Node pos="l" depth="2" NCoef="0" IVar="6" Cut="1.6342344284057617e+01" cType="1" res="4.3862706422805786e-01" rms="1.3841241598129272e-01" purity="9.8043990135192871e-01" nType="0">
            <Node pos="l" depth="3" NCoef="0" IVar="-1" Cut="0.0000000000000000e+00" cType="1" res="2.6571359485387802e-02" rms="1.3443943858146667e-01" purity="9.8157525062561035e-01" nType="-99"/>
            <Node pos="r" depth="3" NCoef="0" IVar="-1" Cut="0.0000000000000000e+00" cType="1" res="2.3610010743141174e-02" rms="2.5049394369125366e-01" purity="9.3233096599578857e-01" nType="-99"/>
          </Node>
          <Node pos="r" depth="2" NCoef="0" IVar="-1" Cut="0.0000000000000000e+00" cType="1" res="9.9097900092601776e-03" rms="4.6400293707847595e-01" purity="6.7949342727661133e-01" nType="-99"/>
        </Node>
        <Node pos="r" depth="1" NCoef="0" IVar="14" Cut="6.6864791870117188e+01" cType="1" res="-4.5300322771072388e-01" rms="6.0131989419460297e-02" purity="3.7850900553166866e-03" nType="0">
          <Node pos="l" depth="2" NCoef="0" IVar="-1" Cut="0.0000000000000000e+00" cType="1" res="-1.7554668709635735e-02" rms="3.7448576092720032e-01" purity="1.7494210600852966e-01" nType="-99"/>
          <Node pos="r" depth="2" NCoef="0" IVar="19" Cut="7.8176075220108032e-01" cType="1" res="-4.5641836524009705e-01" rms="1.2998186983168125e-02" purity="1.7409666907042265e-04" nType="0">
            <Node pos="l" depth="3" NCoef="0" IVar="-1" Cut="0.0000000000000000e+00" cType="1" res="-2.7601517736911774e-02" rms="1.3495273888111115e-03" purity="0.0000000000000000e+00" nType="-99"/>
            <Node pos="r" depth="3" NCoef="0" IVar="-1" Cut="0.0000000000000000e+00" cType="1" res="-2.7419680729508400e-02" rms="6.0887437313795090e-02" purity="3.8680853322148323e-03" nType="-99"/>
          </Node>
        </Node>
      </Node>
    </BinaryTree>
    <BinaryTree type="DecisionTree" boostWeight="1.0000000000000000e+00" itree="4">
      <Node pos="s" depth="0" NCoef="0" IVar="10" Cut="3.5486560821533203e+01" cType="1" res="-1.0675890371203423e-03" rms="4.4605594873428345e-01" purity="4.9887049198150635e-01" nType="0">
        <Node pos="l" depth="1" NCoef="0" IVar="10" Cut="1.5577075958251953e+01" cType="1" res="4.2024672031402588e-01" rms="1.5629641711711884e-01" purity="9.7461944818496704e-01" nType="0">
          <Node pos="l" depth="2" NCoef="0" IVar="20" Cut="2.7769525527954102e+01" cType="1" res="4.2498603463172913e-01" rms="1.3999436795711517e-01" purity="9.7999292612075806e-01" nType="0">
            <Node pos="l" depth="3" NCoef="0" IVar="-1" Cut="0.0000000000000000e+00" cType="1" res="2.6003271341323853e-02" rms="1.2862730026245117e-01" purity="9.8316442966461182e-01" nType="-99"/>
            <Node pos="r" depth="3" NCoef="0" IVar="-1" Cut="0.0000000000000000e+00" cType="1" res="2.5245655328035355e-02" rms="1.6881424188613892e-01" purity="9.7062897682189941e-01" nType="-99"/>
          </Node>
          <Node pos="r" depth="2" NCoef="0" IVar="-1" Cut="0.0000000000000000e+00" cType="1" res="1.3208285905420780e-02" rms="4.3339660763740540e-01" purity="7.4689757823944092e-01" nType="-99"/>
        </Node>
        <Node pos="r" depth="1" NCoef="0" IVar="1" Cut="1.3410075378417969e+02" cType="1" res="-4.3897908926010132e-01" rms="6.4141318202018738e-02" purity="4.3800063431262970e-03" nType="0">
          <Node pos="l" depth="2" NCoef="0" IVar="-1" Cut="0.0000000000000000e+00" cType="1" res="-1.6990693286061287e-02" rms="3.7949851155281067e-01" purity="1.8051835894584656e-01" nType="-99"/>
          <Node pos="r" depth="2" NCoef="0" IVar="6" Cut="2.7047323226928711e+01" cType="1" res="-4.4289788603782654e-01" rms="1.4767929678782821e-03" purity="0.0000000000000000e+00" nType="0">
            <Node pos="l" depth="3" NCoef="0" IVar="-1" Cut="0.0000000000000000e+00" cType="1" res="-2.7055284008383751e-02" rms="5.5941529572010040e-03" purity="0.0000000000000000e+00" nType="-99"/>
            <Node pos="r" depth="3" NCoef="0" IVar="-1" Cut="0.0000000000000000e+00" cType="1" res="-2.6920678094029427e-02" rms="9.4898347742855549e-04" purity="0.0000000000000000e+00" nType="-99"/>
          </Node>
        </Node>
      </Node>
    </BinaryTree>
    <BinaryTree type="DecisionTree" boostWeight="1.0000000000000000e+00" itree="5">
      <Node pos="s" depth="0" NCoef="0" IVar="10" Cut="3.2845462799072266e+01" cType="1" res="-3.5513943294063210e-04" rms="4.3362864851951599e-01" purity="4.9950245022773743e-01" nType="0">
        <Node pos="l" depth="1" NCoef="0" IVar="10" Cut="1.6020708084106445e+01" cType="1" res="4.0919762849807739e-01" rms="1.5156772732734680e-01" purity="9.7617620229721069e-01" nType="0">
          <Node pos="l" depth="2" NCoef="0" IVar="12" Cut="3.9024388790130615e-01" cType="1" res="4.1300356388092041e-01" rms="1.3753229379653931e-01" purity="9.8070132732391357e-01" nType="0">
            <Node pos="l" depth="3" NCoef="0" IVar="-1" Cut="0.0000000000000000e+00" cType="1" res="2.5373868644237518e-02" rms="1.2972608208656311e-01" purity="9.8287451267242432e-01" nType="-99"/>
            <Node pos="r" depth="3" NCoef="0" IVar="-1" Cut="0.0000000000000000e+00" cType="1" res="2.4376319721341133e-02" rms="1.8029926717281342e-01" purity="9.6630376577377319e-01" nType="-99"/>
          </Node>
          <Node pos="r" depth="2" NCoef="0" IVar="-1" Cut="0.0000000000000000e+00" cType="1" res="1.4613898470997810e-02" rms="4.1523954272270203e-01" purity="7.7773195505142212e-01" nType="-99"/>
        </Node>
        <Node pos="r" depth="1" NCoef="0" IVar="18" Cut="1.1911245727539062e+02" cType="1" res="-4.2439028620719910e-01" rms="7.3898725211620331e-02" purity="5.9728142805397511e-03" nType="0">
          <Node pos="l" depth="2" NCoef="0" IVar="-1" Cut="0.0000000000000000e+00" cType="1" res="-1.0620463639497757e-02" rms="4.4422087073326111e-01" purity="2.8513753414154053e-01" nType="-99"/>
          <Node pos="r" depth="2" NCoef="0" IVar="1" Cut="1.4323887634277344e+02" cType="1" res="-4.2971220612525940e-01" rms="1.9443677738308907e-03" purity="0.0000000000000000e+00" nType="0">
            <Node pos="l" depth="3" NCoef="0" IVar="-1" Cut="0.0000000000000000e+00" cType="1" res="-2.6423308998346329e-02" rms="6.6487225703895092e-03" purity="0.0000000000000000e+00" nType="-99"/>
            <Node pos="r" depth="3" NCoef="0" IVar="-1" Cut="0.0000000000000000e+00" cType="1" res="-2.6296917349100113e-02" rms="1.2008113553747535e-03" purity="0.0000000000000000e+00" nType="-99"/>
          </Node>
        </Node>
      </Node>
    </BinaryTree>
    <BinaryTree type="DecisionTree" boostWeight="1.0000000000000000e+00" itree="6">
      <Node pos="s" depth="0" NCoef="0" IVar="10" Cut="3.8614929199218750e+01" cType="1" res="7.3068344499915838e-04" rms="4.2152261734008789e-01" purity="5.0073409080505371e-01" nType="0">
        <Node pos="l" depth="1" NCoef="0" IVar="10" Cut="1.9775590896606445e+01" cType="1" res="3.9587667584419250e-01" rms="1.5472124516963959e-01" purity="9.7472876310348511e-01" nType="0">
          <Node pos="l" depth="2" NCoef="0" IVar="10" Cut="1.0127387046813965e+01" cType="1" res="4.0078467130661011e-01" rms="1.3745075464248657e-01" purity="9.8068660497665405e-01" nType="0">
            <Node pos="l" depth="3" NCoef="0" IVar="-1" Cut="0.0000000000000000e+00" cType="1" res="2.4746313691139221e-02" rms="1.3306318223476410e-01" purity="9.8196268081665039e-01" nType="-99"/>
            <Node pos="r" depth="3" NCoef="0" IVar="-1" Cut="0.0000000000000000e+00" cType="1" res="2.1533187478780746e-02" rms="2.6678225398063660e-01" purity="9.2182624340057373e-01" nType="-99"/>
          </Node>
          <Node pos="r" depth="2" NCoef="0" IVar="-1" Cut="0.0000000000000000e+00" cType="1" res="9.3697234988212585e-03" rms="4.6062555909156799e-01" purity="6.8278801441192627e-01" nType="-99"/>
        </Node>
        <Node pos="r" depth="1" NCoef="0" IVar="6" Cut="2.3666656494140625e+01" cType="1" res="-4.1341906785964966e-01" rms="6.0401380062103271e-02" purity="3.9435075595974922e-03" nType="0">
          <Node pos="l" depth="2" NCoef="0" IVar="-1" Cut="0.0000000000000000e+00" cType="1" res="-1.5920784324407578e-02" rms="3.6789301037788391e-01" purity="1.7259964346885681e-01" nType="-99"/>
          <Node pos="r" depth="2" NCoef="0" IVar="18" Cut="1.2745436096191406e+02" cType="1" res="-4.1696751117706299e-01" rms="6.3450923189520836e-03" purity="3.4783628507284448e-05" nType="0">
            <Node pos="l" depth="3" NCoef="0" IVar="-1" Cut="0.0000000000000000e+00" cType="1" res="-2.6106707751750946e-02" rms="3.5640291869640350e-02" purity="1.1743375798687339e-03" nType="-99"/>
            <Node pos="r" depth="3" NCoef="0" IVar="-1" Cut="0.0000000000000000e+00" cType="1" res="-2.5716114789247513e-02" rms="6.5404752967879176e-04" purity="0.0000000000000000e+00" nType="-99"/>
          </Node>
        </Node>
      </Node>
    </BinaryTree>
    <BinaryTree type="DecisionTree" boostWeight="1.0000000000000000e+00" itree="7">
      <Node pos="s" depth="0" NCoef="0" IVar="10" Cut="3.5486560821533203e+01" cType="1" res="-8.0518680624663830e-04" rms="4.0999838709831238e-01" purity="4.9916180968284607e-01" nType="0">
        <Node pos="l" depth="1" NCoef="0" IVar="10" Cut="1.4712209701538086e+01" cType="1" res="3.8336315751075745e-01" rms="1.5654093027114868e-01" purity="9.7437107563018799e-01" nType="0">
          <Node pos="l" depth="2" NCoef="0" IVar="20" Cut="3.4278602600097656e+01" cType="1" res="3.8761094212532043e-01" rms="1.4107730984687805e-01" purity="9.7967135906219482e-01" nType="0">
            <Node pos="l" depth="3" NCoef="0" IVar="-1" Cut="0.0000000000000000e+00" cType="1" res="2.4246482178568840e-02" rms="1.3101905584335327e-01" purity="9.8252046108245850e-01" nType="-99"/>
            <Node pos="r" depth="3" NCoef="0" IVar="-1" Cut="0.0000000000000000e+00" cType="1" res="2.2840116173028946e-02" rms="1.9720710813999176e-01" purity="9.5944333076477051e-01" nType="-99"/>
          </Node>
          <Node pos="r" depth="2" NCoef="0" IVar="-1" Cut="0.0000000000000000e+00" cType="1" res="1.3040712103247643e-02" rms="4.2172026634216309e-01" purity="7.6430666446685791e-01" nType="-99"/>
        </Node>
        <Node pos="r" depth="1" NCoef="0" IVar="1" Cut="1.3390872192382812e+02" cType="1" res="-4.0081864595413208e-01" rms="6.2702372670173645e-02" purity="4.3524340726435184e-03" nType="0">
          <Node pos="l" depth="2" NCoef="0" IVar="-1" Cut="0.0000000000000000e+00" cType="1" res="-1.4496392570436001e-02" rms="3.9155843853950500e-01" purity="2.0009584724903107e-01" nType="-99"/>
          <Node pos="r" depth="2" NCoef="0" IVar="6" Cut="2.6650466918945312e+01" cType="1" res="-4.0445035696029663e-01" rms="1.8875021487474442e-03" purity="0.0000000000000000e+00" nType="0">
            <Node pos="l" depth="3" NCoef="0" IVar="-1" Cut="0.0000000000000000e+00" cType="1" res="-2.5410151109099388e-02" rms="6.9214575923979282e-03" purity="0.0000000000000000e+00" nType="-99"/>
            <Node pos="r" depth="3" NCoef="0" IVar="-1" Cut="0.0000000000000000e+00" cType="1" res="-2.5180302560329437e-02" rms="1.1694456916302443e-03" purity="0.0000000000000000e+00" nType="-99"/>
          </Node>
        </Node>
      </Node>
    </BinaryTree>
    <BinaryTree type="DecisionTree" boostWeight="1.0000000000000000e+00" itree="8">
      <Node pos="s" depth="0" NCoef="0" IVar="10" Cut="3.5831417083740234e+01" cType="1" res="7.4208178557455540e-04" rms="3.9853122830390930e-01" purity="5.0060617923736572e-01" nType="0">
        <Node pos="l" depth="1" NCoef="0" IVar="10" Cut="1.6602712631225586e+01" cType="1" res="3.7465864419937134e-01" rms="1.4785091578960419e-01" purity="9.7708475589752197e-01" nType="0">
          <Node pos="l" depth="2" NCoef="0" IVar="10" Cut="8.0988454818725586e+00" cType="1" res="3.7861028313636780e-01" rms="1.3225488364696503e-01" purity="9.8217004537582397e-01" nType="0">
            <Node pos="l" depth="3" NCoef="0" IVar="-1" Cut="0.0000000000000000e+00" cType="1" res="2.3799749091267586e-02" rms="1.2811398506164551e-01" purity="9.8330157995223999e-01" nType="-99"/>
            <Node pos="r" depth="3" NCoef="0" IVar="-1" Cut="0.0000000000000000e+00" cType="1" res="2.1673932671546936e-02" rms="2.2567808628082275e-01" purity="9.4599479436874390e-01" nType="-99"/>
          </Node>
          <Node pos="r" depth="2" NCoef="0" IVar="-1" Cut="0.0000000000000000e+00" cType="1" res="1.1865983717143536e-02" rms="4.3252164125442505e-01" purity="7.4659413099288940e-01" nType="-99"/>
        </Node>
        <Node pos="r" depth="1" NCoef="0" IVar="6" Cut="2.2143524169921875e+01" cType="1" res="-3.8780790567398071e-01" rms="6.9987915456295013e-02" purity="5.4803234525024891e-03" nType="0">
          <Node pos="l" depth="2" NCoef="0" IVar="-1" Cut="0.0000000000000000e+00" cType="1" res="-1.1357033625245094e-02" rms="4.1251355409622192e-01" purity="2.3865607380867004e-01" nType="-99"/>
          <Node pos="r" depth="2" NCoef="0" IVar="1" Cut="1.3877865600585938e+02" cType="1" res="-3.9246764779090881e-01" rms="1.1960728093981743e-02" purity="1.3927588588558137e-04" nType="0">
            <Node pos="l" depth="3" NCoef="0" IVar="-1" Cut="0.0000000000000000e+00" cType="1" res="-2.5008922442793846e-02" rms="7.3999024927616119e-02" purity="5.4706335067749023e-03" nType="-99"/>
            <Node pos="r" depth="3" NCoef="0" IVar="-1" Cut="0.0000000000000000e+00" cType="1" res="-2.4679878726601601e-02" rms="1.1065860744565725e-03" purity="0.0000000000000000e+00" nType="-99"/>
          </Node>
        </Node>
      </Node>
    </BinaryTree>
    <BinaryTree type="DecisionTree" boostWeight="1.0000000000000000e+00" itree="9">
      <Node pos="s" depth="0" NCoef="0" IVar="10" Cut="3.3098510742187500e+01" cType="1" res="-1.2219041818752885e-03" rms="3.8789618015289307e-01" purity="4.9847882986068726e-01" nType="0">
        <Node pos="l" depth="1" NCoef="0" IVar="10" Cut="1.5336962699890137e+01" cType="1" res="3.6186808347702026e-01" rms="1.5280798077583313e-01" purity="9.7565072774887085e-01" nType="0">
          <Node pos="l" depth="2" NCoef="0" IVar="8" Cut="8.2926827669143677e-01" cType="1" res="3.6489337682723999e-01" rms="1.4061444997787476e-01" purity="9.7980415821075439e-01" nType="0">
            <Node pos="l" depth="3" NCoef="0" IVar="-1" Cut="0.0000000000000000e+00" cType="1" res="2.3333571851253510e-02" rms="1.2787176668643951e-01" purity="9.8336678743362427e-01" nType="-99"/>
            <Node pos="r" depth="3" NCoef="0" IVar="-1" Cut="0.0000000000000000e+00" cType="1" res="2.2495232522487640e-02" rms="1.7125254869461060e-01" purity="9.6972370147705078e-01" nType="-99"/>
          </Node>
          <Node pos="r" depth="2" NCoef="0" IVar="-1" Cut="0.0000000000000000e+00" cType="1" res="1.3751194812357426e-02" rms="4.0704604983329773e-01" purity="7.8832876682281494e-01" nType="-99"/>
        </Node>
        <Node pos="r" depth="1" NCoef="0" IVar="6" Cut="2.1370620727539062e+01" cType="1" res="-3.7597069144248962e-01" rms="7.1791514754295349e-02" purity="5.9850150719285011e-03" nType="0">
          <Node pos="l" depth="2" NCoef="0" IVar="-1" Cut="0.0000000000000000e+00" cType="1" res="-8.6462683975696564e-03" rms="4.3635007739067078e-01" purity="2.8791382908821106e-01" nType="-99"/>
          <Node pos="r" depth="2" NCoef="0" IVar="1" Cut="1.3870996093750000e+02" cType="1" res="-3.8094413280487061e-01" rms="6.8954909220337868e-03" purity="3.4723485441645607e-05" nType="0">
            <Node pos="l" depth="3" NCoef="0" IVar="-1" Cut="0.0000000000000000e+00" cType="1" res="-2.4829598143696785e-02" rms="3.7928931415081024e-02" purity="1.2631447752937675e-03" nType="-99"/>
            <Node pos="r" depth="3" NCoef="0" IVar="-1" Cut="0.0000000000000000e+00" cType="1" res="-2.4214476346969604e-02" rms="1.4162502484396100e-03" purity="0.0000000000000000e+00" nType="-99"/>
          </Node>
        </Node>
      </Node>
    </BinaryTree>
    <BinaryTree type="DecisionTree" boostWeight="1.0000000000000000e+00" itree="10">
      <Node pos="s" depth="0" NCoef="0" IVar="10" Cut="3.7840850830078125e+01" cType="1" res="1.1858860671054572e-04" rms="3.7758970260620117e-01" purity="5.0014996528625488e-01" nType="0">
        <Node pos="l" depth="1" NCoef="0" IVar="21" Cut="7.3170733451843262e+00" cType="1" res="3.4984192252159119e-01" rms="1.5694291889667511e-01" purity="9.7387480735778809e-01" nType="0">
          <Node pos="l" depth="2" NCoef="0" IVar="20" Cut="3.7026035308837891e+01" cType="1" res="3.5376533865928650e-01" rms="1.4340719580650330e-01" purity="9.7887927293777466e-01" nType="0">
            <Node pos="l" depth="3" NCoef="0" IVar="-1" Cut="0.0000000000000000e+00" cType="1" res="2.2785369306802750e-02" rms="1.3596364855766296e-01" purity="9.8104876279830933e-01" nType="-99"/>
            <Node pos="r" depth="3" NCoef="0" IVar="-1" Cut="0.0000000000000000e+00" cType="1" res="2.1303366869688034e-02" rms="2.0155304670333862e-01" purity="9.5746022462844849e-01" nType="-99"/>
          </Node>
          <Node pos="r" depth="2" NCoef="0" IVar="-1" Cut="0.0000000000000000e+00" cType="1" res="1.0643313638865948e-02" rms="4.2004010081291199e-01" purity="7.4732041358947754e-01" nType="-99"/>
        </Node>
        <Node pos="r" depth="1" NCoef="0" IVar="5" Cut="6.6807411193847656e+01" cType="1" res="-3.6544421315193176e-01" rms="6.6156521439552307e-02" purity="4.9694236367940903e-03" nType="0">
          <Node pos="l" depth="2" NCoef="0" IVar="-1" Cut="0.0000000000000000e+00" cType="1" res="-1.1503818444907665e-02" rms="3.9613303542137146e-01" purity="2.1783384680747986e-01" nType="-99"/>
          <Node pos="r" depth="2" NCoef="0" IVar="19" Cut="7.9024296998977661e-01" cType="1" res="-3.6924049258232117e-01" rms="2.2020563483238220e-02" purity="5.2122626220807433e-04" nType="0">
            <Node pos="l" depth="3" NCoef="0" IVar="-1" Cut="0.0000000000000000e+00" cType="1" res="-2.3795012384653091e-02" rms="3.8311153184622526e-03" purity="0.0000000000000000e+00" nType="-99"/>
            <Node pos="r" depth="3" NCoef="0" IVar="-1" Cut="0.0000000000000000e+00" cType="1" res="-2.2942680865526199e-02" rms="1.2468989193439484e-01" purity="1.7351701855659485e-02" nType="-99"/>
          </Node>
        </Node>
      </Node>
    </BinaryTree>
    <BinaryTree type="DecisionTree" boostWeight="1.0000000000000000e+00" itree="11">
      <Node pos="s" depth="0" NCoef="0" IVar="10" Cut="3.8465583801269531e+01" cType="1" res="1.7941086553037167e-03" rms="3.6725646257400513e-01" purity="5.0239330530166626e-01" nType="0">
        <Node pos="l" depth="1" NCoef="0" IVar="21" Cut="7.3170733451843262e+00" cType="1" res="3.3980256319046021e-01" rms="1.5529458224773407e-01" purity="9.7414749860763550e-01" nType="0">
          <Node pos="l" depth="2" NCoef="0" IVar="6" Cut="1.6006723403930664e+01" cType="1" res="3.4427085518836975e-01" rms="1.3985499739646912e-01" purity="9.7982162237167358e-01" nType="0">
            <Node pos="l" depth="3" NCoef="0" IVar="-1" Cut="0.0000000000000000e+00" cType="1" res="2.2380907088518143e-02" rms="1.3577796518802643e-01" purity="9.8114168643951416e-01" nType="-99"/>
            <Node pos="r" depth="3" NCoef="0" IVar="-1" Cut="0.0000000000000000e+00" cType="1" res="1.8881995230913162e-02" rms="2.5607994198799133e-01" purity="9.2255884408950806e-01" nType="-99"/>
          </Node>
          <Node pos="r" depth="2" NCoef="0" IVar="-1" Cut="0.0000000000000000e+00" cType="1" res="7.8307986259460449e-03" rms="4.4179901480674744e-01" purity="7.0331394672393799e-01" nType="-99"/>
        </Node>
        <Node pos="r" depth="1" NCoef="0" IVar="6" Cut="2.2621080398559570e+01" cType="1" res="-3.5498863458633423e-01" rms="6.2456544488668442e-02" purity="4.4361376203596592e-03" nType="0">
          <Node pos="l" depth="2" NCoef="0" IVar="-1" Cut="0.0000000000000000e+00" cType="1" res="-1.2398439459502697e-02" rms="3.8583204150199890e-01" purity="1.9892576336860657e-01" nType="-99"/>
          <Node pos="r" depth="2" NCoef="0" IVar="1" Cut="1.3902453613281250e+02" cType="1" res="-3.5855516791343689e-01" rms="6.7552127875387669e-03" purity="3.5166820453014225e-05" nType="0">
            <Node pos="l" depth="3" NCoef="0" IVar="-1" Cut="0.0000000000000000e+00" cType="1" res="-2.3876110091805458e-02" rms="3.9176754653453827e-02" purity="1.3665056321769953e-03" nType="-99"/>
            <Node pos="r" depth="3" NCoef="0" IVar="-1" Cut="0.0000000000000000e+00" cType="1" res="-2.3371854797005653e-02" rms="1.1648010695353150e-03" purity="0.0000000000000000e+00" nType="-99"/>
          </Node>
        </Node>
      </Node>
    </BinaryTree>
    <BinaryTree type="DecisionTree" boostWeight="1.0000000000000000e+00" itree="12">
      <Node pos="s" depth="0" NCoef="0" IVar="10" Cut="3.2687133789062500e+01" cType="1" res="6.0029537416994572e-04" rms="3.5755282640457153e-01" purity="5.0097864866256714e-01" nType="0">
        <Node pos="l" depth="1" NCoef="0" IVar="21" Cut="6.5853657722473145e+00" cType="1" res="3.3038157224655151e-01" rms="1.5305039286613464e-01" purity="9.7549140453338623e-01" nType="0">
          <Node pos="l" depth="2" NCoef="0" IVar="20" Cut="4.0983890533447266e+01" cType="1" res="3.3313727378845215e-01" rms="1.4231485128402710e-01" purity="9.7925531864166260e-01" nType="0">
            <Node pos="l" depth="3" NCoef="0" IVar="-1" Cut="0.0000000000000000e+00" cType="1" res="2.1964957937598228e-02" rms="1.3649861514568329e-01" purity="9.8095262050628662e-01" nType="-99"/>
            <Node pos="r" depth="3" NCoef="0" IVar="-1" Cut="0.0000000000000000e+00" cType="1" res="2.0218614488840103e-02" rms="2.1079142391681671e-01" purity="9.5329010486602783e-01" nType="-99"/>
          </Node>
          <Node pos="r" depth="2" NCoef="0" IVar="-1" Cut="0.0000000000000000e+00" cType="1" res="1.3581205159425735e-02" rms="3.7645554542541504e-01" purity="8.1914740800857544e-01" nType="-99"/>
        </Node>
        <Node pos="r" depth="1" NCoef="0" IVar="6" Cut="2.2143524169921875e+01" cType="1" res="-3.4323179721832275e-01" rms="7.1432992815971375e-02" purity="6.2486007809638977e-03" nType="0">
          <Node pos="l" depth="2" NCoef="0" IVar="-1" Cut="0.0000000000000000e+00" cType="1" res="-9.2473691329360008e-03" rms="4.1856819391250610e-01" purity="2.6400536298751831e-01" nType="-99"/>
          <Node pos="r" depth="2" NCoef="0" IVar="18" Cut="1.2692488098144531e+02" cType="1" res="-3.4791511297225952e-01" rms="9.3997502699494362e-03" purity="6.9927707954775542e-05" nType="0">
            <Node pos="l" depth="3" NCoef="0" IVar="-1" Cut="0.0000000000000000e+00" cType="1" res="-2.3447396233677864e-02" rms="5.4664645344018936e-02" purity="2.5964854285120964e-03" nType="-99"/>
            <Node pos="r" depth="3" NCoef="0" IVar="-1" Cut="0.0000000000000000e+00" cType="1" res="-2.2990893572568893e-02" rms="1.8336222274228930e-03" purity="0.0000000000000000e+00" nType="-99"/>
          </Node>
        </Node>
      </Node>
    </BinaryTree>
    <BinaryTree type="DecisionTree" boostWeight="1.0000000000000000e+00" itree="13">
      <Node pos="s" depth="0" NCoef="0" IVar="10" Cut="3.3098510742187500e+01" cType="1" res="2.1643191576004028e-03" rms="3.4790039062500000e-01" purity="5.0316566228866577e-01" nType="0">
        <Node pos="l" depth="1" NCoef="0" IVar="10" Cut="1.6951555252075195e+01" cType="1" res="3.2129126787185669e-01" rms="1.5042197704315186e-01" purity="9.7624611854553223e-01" nType="0">
          <Node pos="l" depth="2" NCoef="0" IVar="8" Cut="8.7804877758026123e-01" cType="1" res="3.2408338785171509e-01" rms="1.3846170902252197e-01" purity="9.8040401935577393e-01" nType="0">
            <Node pos="l" depth="3" NCoef="0" IVar="-1" Cut="0.0000000000000000e+00" cType="1" res="2.1749587729573250e-02" rms="1.2732230126857758e-01" purity="9.8350524902343750e-01" nType="-99"/>
            <Node pos="r" depth="3" NCoef="0" IVar="-1" Cut="0.0000000000000000e+00" cType="1" res="2.0770594477653503e-02" rms="1.7539598047733307e-01" purity="9.6809309720993042e-01" nType="-99"/>
          </Node>
          <Node pos="r" depth="2" NCoef="0" IVar="-1" Cut="0.0000000000000000e+00" cType="1" res="1.1506992392241955e-02" rms="4.1440135240554810e-01" purity="7.7421540021896362e-01" nType="-99"/>
        </Node>
        <Node pos="r" depth="1" NCoef="0" IVar="18" Cut="1.1911245727539062e+02" cType="1" res="-3.3322823047637939e-01" rms="7.0266470313072205e-02" purity="5.9727258048951626e-03" nType="0">
          <Node pos="l" depth="2" NCoef="0" IVar="-1" Cut="0.0000000000000000e+00" cType="1" res="-7.6051331125199795e-03" rms="4.3246915936470032e-01" purity="2.8383880853652954e-01" nType="-99"/>
          <Node pos="r" depth="2" NCoef="0" IVar="6" Cut="2.5820089340209961e+01" cType="1" res="-3.3773401379585266e-01" rms="9.6551654860377312e-03" purity="7.0110378146637231e-05" nType="0">
            <Node pos="l" depth="3" NCoef="0" IVar="-1" Cut="0.0000000000000000e+00" cType="1" res="-2.3204140365123749e-02" rms="5.4560933262109756e-02" purity="2.6272246614098549e-03" nType="-99"/>
            <Node pos="r" depth="3" NCoef="0" IVar="-1" Cut="0.0000000000000000e+00" cType="1" res="-2.2634720429778099e-02" rms="2.5500052142888308e-03" purity="0.0000000000000000e+00" nType="-99"/>
          </Node>
        </Node>
      </Node>
    </BinaryTree>
    <BinaryTree type="DecisionTree" boostWeight="1.0000000000000000e+00" itree="14">
      <Node pos="s" depth="0" NCoef="0" IVar="10" Cut="3.5831417083740234e+01" cType="1" res="1.4709598617628217e-03" rms="3.3870863914489746e-01" purity="5.0230956077575684e-01" nType="0">
        <Node pos="l" depth="1" NCoef="0" IVar="10" Cut="1.6601818084716797e+01" cType="1" res="3.1078088283538818e-01" rms="1.5316700935363770e-01" purity="9.7516155242919922e-01" nType="0">
          <Node pos="l" depth="2" NCoef="0" IVar="4" Cut="2.1463415622711182e+00" cType="1" res="3.1411433219909668e-01" rms="1.3941816985607147e-01" purity="9.8012965917587280e-01" nType="0">
            <Node pos="l" depth="3" NCoef="0" IVar="-1" Cut="0.0000000000000000e+00" cType="1" res="2.1235674619674683e-02" rms="1.3661199808120728e-01" purity="9.8095643520355225e-01" nType="-99"/>
            <Node pos="r" depth="3" NCoef="0" IVar="-1" Cut="0.0000000000000000e+00" cType="1" res="1.8836244940757751e-02" rms="2.2966146469116211e-01" purity="9.4335311651229858e-01" nType="-99"/>
          </Node>
          <Node pos="r" depth="2" NCoef="0" IVar="-1" Cut="0.0000000000000000e+00" cType="1" res="9.7934594377875328e-03" rms="4.2928746342658997e-01" purity="7.4694842100143433e-01" nType="-99"/>
        </Node>
        <Node pos="r" depth="1" NCoef="0" IVar="6" Cut="2.2172067642211914e+01" cType="1" res="-3.2366907596588135e-01" rms="6.6125854849815369e-02" purity="5.2576400339603424e-03" nType="0">
          <Node pos="l" depth="2" NCoef="0" IVar="-1" Cut="0.0000000000000000e+00" cType="1" res="-9.7296303138136864e-03" rms="4.0414026379585266e-01" purity="2.3310320079326630e-01" nType="-99"/>
          <Node pos="r" depth="2" NCoef="0" IVar="18" Cut="1.2665068054199219e+02" cType="1" res="-3.2755389809608459e-01" rms="8.6853699758648872e-03" purity="6.9835732574574649e-05" nType="0">
            <Node pos="l" depth="3" NCoef="0" IVar="-1" Cut="0.0000000000000000e+00" cType="1" res="-2.2781232371926308e-02" rms="5.1682729274034500e-02" purity="2.8098227921873331e-03" nType="-99"/>
            <Node pos="r" depth="3" NCoef="0" IVar="-1" Cut="0.0000000000000000e+00" cType="1" res="-2.2294124588370323e-02" rms="1.8044149037450552e-03" purity="0.0000000000000000e+00" nType="-99"/>
          </Node>
        </Node>
      </Node>
    </BinaryTree>
    <BinaryTree type="DecisionTree" boostWeight="1.0000000000000000e+00" itree="15">
      <Node pos="s" depth="0" NCoef="0" IVar="10" Cut="3.2756828308105469e+01" cType="1" res="-3.8092074100859463e-04" rms="3.2985207438468933e-01" purity="4.9950233101844788e-01" nType="0">
        <Node pos="l" depth="1" NCoef="0" IVar="10" Cut="1.2782582283020020e+01" cType="1" res="3.0195826292037964e-01" rms="1.5186628699302673e-01" purity="9.7581720352172852e-01" nType="0">
          <Node pos="l" depth="2" NCoef="0" IVar="20" Cut="3.6430126190185547e+01" cType="1" res="3.0469292402267456e-01" rms="1.3926248252391815e-01" purity="9.8019129037857056e-01" nType="0">
            <Node pos="l" depth="3" NCoef="0" IVar="-1" Cut="0.0000000000000000e+00" cType="1" res="2.0999440923333168e-02" rms="1.3112133741378784e-01" purity="9.8249030113220215e-01" nType="-99"/>
            <Node pos="r" depth="3" NCoef="0" IVar="-1" Cut="0.0000000000000000e+00" cType="1" res="1.9494818523526192e-02" rms="1.9780535995960236e-01" purity="9.5917183160781860e-01" nType="-99"/>
          </Node>
          <Node pos="r" depth="2" NCoef="0" IVar="-1" Cut="0.0000000000000000e+00" cType="1" res="1.2872045859694481e-02" rms="3.8223972916603088e-01" purity="8.1707721948623657e-01" nType="-99"/>
        </Node>
        <Node pos="r" depth="1" NCoef="0" IVar="14" Cut="6.6864791870117188e+01" cType="1" res="-3.1359755992889404e-01" rms="6.9453299045562744e-02" purity="6.0507804155349731e-03" nType="0">
          <Node pos="l" depth="2" NCoef="0" IVar="-1" Cut="0.0000000000000000e+00" cType="1" res="-9.7047109156847000e-03" rms="3.8912379741668701e-01" purity="2.2262427210807800e-01" nType="-99"/>
          <Node pos="r" depth="2" NCoef="0" IVar="19" Cut="7.7905845642089844e-01" cType="1" res="-3.1738826632499695e-01" rms="2.8315169736742973e-02" purity="1.0492401197552681e-03" nType="0">
            <Node pos="l" depth="3" NCoef="0" IVar="-1" Cut="0.0000000000000000e+00" cType="1" res="-2.1994190290570259e-02" rms="5.8402428403496742e-03" purity="0.0000000000000000e+00" nType="-99"/>
            <Node pos="r" depth="3" NCoef="0" IVar="-1" Cut="0.0000000000000000e+00" cType="1" res="-2.1028231829404831e-02" rms="1.2462767958641052e-01" purity="2.1320668980479240e-02" nType="-99"/>
          </Node>
        </Node>
      </Node>
    </BinaryTree>
    <BinaryTree type="DecisionTree" boostWeight="1.0000000000000000e+00" itree="16">
      <Node pos="s" depth="0" NCoef="0" IVar="10" Cut="3.0340301513671875e+01" cType="1" res="8.8612566469237208e-04" rms="3.2119840383529663e-01" purity="5.0134152173995972e-01" nType="0">
        <Node pos="l" depth="1" NCoef="0" IVar="10" Cut="1.4799759864807129e+01" cType="1" res="2.9426583647727966e-01" rms="1.4726231992244720e-01" purity="9.7729682922363281e-01" nType="0">
          <Node pos="l" depth="2" NCoef="0" IVar="20" Cut="5.1417903900146484e+01" cType="1" res="2.9653432965278625e-01" rms="1.3630749285221100e-01" purity="9.8103314638137817e-01" nType="0">
            <Node pos="l" depth="3" NCoef="0" IVar="-1" Cut="0.0000000000000000e+00" cType="1" res="2.0654847845435143e-02" rms="1.3320100307464600e-01" purity="9.8190933465957642e-01" nType="-99"/>
            <Node pos="r" depth="3" NCoef="0" IVar="-1" Cut="0.0000000000000000e+00" cType="1" res="1.7896229401230812e-02" rms="2.3757600784301758e-01" purity="9.3993258476257324e-01" nType="-99"/>
          </Node>
          <Node pos="r" depth="2" NCoef="0" IVar="-1" Cut="0.0000000000000000e+00" cType="1" res="1.1897398158907890e-02" rms="3.9505755901336670e-01" purity="8.0170339345932007e-01" nType="-99"/>
        </Node>
        <Node pos="r" depth="1" NCoef="0" IVar="1" Cut="1.2702898406982422e+02" cType="1" res="-3.0321127176284790e-01" rms="7.7045962214469910e-02" purity="7.9986946657299995e-03" nType="0">
          <Node pos="l" depth="2" NCoef="0" IVar="-1" Cut="0.0000000000000000e+00" cType="1" res="-2.2929697297513485e-03" rms="4.6207034587860107e-01" purity="3.8879814743995667e-01" nType="-99"/>
          <Node pos="r" depth="2" NCoef="0" IVar="6" Cut="2.5679920196533203e+01" cType="1" res="-3.0879431962966919e-01" rms="8.5586160421371460e-03" purity="3.4455628338037059e-05" nType="0">
            <Node pos="l" depth="3" NCoef="0" IVar="-1" Cut="0.0000000000000000e+00" cType="1" res="-2.2468401119112968e-02" rms="4.1041206568479538e-02" purity="1.3552473392337561e-03" nType="-99"/>
            <Node pos="r" depth="3" NCoef="0" IVar="-1" Cut="0.0000000000000000e+00" cType="1" res="-2.1685227751731873e-02" rms="4.2976704426109791e-03" purity="0.0000000000000000e+00" nType="-99"/>
          </Node>
        </Node>
      </Node>
    </BinaryTree>
    <BinaryTree type="DecisionTree" boostWeight="1.0000000000000000e+00" itree="17">
      <Node pos="s" depth="0" NCoef="0" IVar="10" Cut="3.8614929199218750e+01" cType="1" res="-1.8039208371192217e-03" rms="3.1329524517059326e-01" purity="4.9734395742416382e-01" nType="0">
        <Node pos="l" depth="1" NCoef="0" IVar="10" Cut="1.9775590896606445e+01" cType="1" res="2.8223988413810730e-01" rms="1.5842628479003906e-01" purity="9.7280722856521606e-01" nType="0">
          <Node pos="l" depth="2" NCoef="0" IVar="20" Cut="3.6430126190185547e+01" cType="1" res="2.8539237380027771e-01" rms="1.4546987414360046e-01" purity="9.7824871540069580e-01" nType="0">
            <Node pos="l" depth="3" NCoef="0" IVar="-1" Cut="0.0000000000000000e+00" cType="1" res="2.0284842699766159e-02" rms="1.3711978495121002e-01" purity="9.8072081804275513e-01" nType="-99"/>
            <Node pos="r" depth="3" NCoef="0" IVar="-1" Cut="0.0000000000000000e+00" cType="1" res="1.8618520349264145e-02" rms="2.0550234615802765e-01" purity="9.5570552349090576e-01" nType="-99"/>
          </Node>
          <Node pos="r" depth="2" NCoef="0" IVar="-1" Cut="0.0000000000000000e+00" cType="1" res="7.9285334795713425e-03" rms="4.4090542197227478e-01" purity="7.0486021041870117e-01" nType="-99"/>
        </Node>
        <Node pos="r" depth="1" NCoef="0" IVar="6" Cut="2.3670856475830078e+01" cType="1" res="-2.9644122719764709e-01" rms="5.8587472885847092e-02" purity="4.1481493972241879e-03" nType="0">
          <Node pos="l" depth="2" NCoef="0" IVar="-1" Cut="0.0000000000000000e+00" cType="1" res="-1.1931812390685081e-02" rms="3.5593676567077637e-01" purity="1.7096039652824402e-01" nType="-99"/>
          <Node pos="r" depth="2" NCoef="0" IVar="5" Cut="6.9675018310546875e+01" cType="1" res="-2.9932847619056702e-01" rms="4.8825279809534550e-03" purity="0.0000000000000000e+00" nType="0">
            <Node pos="l" depth="3" NCoef="0" IVar="-1" Cut="0.0000000000000000e+00" cType="1" res="-2.2088935598731041e-02" rms="2.0574653521180153e-02" purity="0.0000000000000000e+00" nType="-99"/>
            <Node pos="r" depth="3" NCoef="0" IVar="-1" Cut="0.0000000000000000e+00" cType="1" res="-2.1394746378064156e-02" rms="2.3452253080904484e-03" purity="0.0000000000000000e+00" nType="-99"/>
          </Node>
        </Node>
      </Node>
    </BinaryTree>
    <BinaryTree type="DecisionTree" boostWeight="1.0000000000000000e+00" itree="18">
      <Node pos="s" depth="0" NCoef="0" IVar="10" Cut="3.8465583801269531e+01" cType="1" res="-1.6400467138737440e-03" rms="3.0478143692016602e-01" purity="4.9697479605674744e-01" nType="0">
        <Node pos="l" depth="1" NCoef="0" IVar="21" Cut="7.3170733451843262e+00" cType="1" res="2.7535846829414368e-01" rms="1.5379273891448975e-01" purity="9.7428339719772339e-01" nType="0">
          <Node pos="l" depth="2" NCoef="0" IVar="6" Cut="1.5944511413574219e+01" cType="1" res="2.7895647287368774e-01" rms="1.4027418196201324e-01" purity="9.7971802949905396e-01" nType="0">
            <Node pos="l" depth="3" NCoef="0" IVar="-1" Cut="0.0000000000000000e+00" cType="1" res="2.0043393597006798e-02" rms="1.3682430982589722e-01" purity="9.8089545965194702e-01" nType="-99"/>
            <Node pos="r" depth="3" NCoef="0" IVar="-1" Cut="0.0000000000000000e+00" cType="1" res="1.6629941761493683e-02" rms="2.4518044292926788e-01" purity="9.2744618654251099e-01" nType="-99"/>
          </Node>
          <Node pos="r" depth="2" NCoef="0" IVar="-1" Cut="0.0000000000000000e+00" cType="1" res="6.9526387378573418e-03" rms="4.2435947060585022e-01" purity="7.2124159336090088e-01" nType="-99"/>
        </Node>
        <Node pos="r" depth="1" NCoef="0" IVar="1" Cut="1.3411433410644531e+02" cType="1" res="-2.8772497177124023e-01" rms="5.7557255029678345e-02" purity="4.0089357644319534e-03" nType="0">
          <Node pos="l" depth="2" NCoef="0" IVar="-1" Cut="0.0000000000000000e+00" cType="1" res="-1.1265273205935955e-02" rms="3.6411249637603760e-01" purity="1.7881533503532410e-01" nType="-99"/>
          <Node pos="r" depth="2" NCoef="0" IVar="6" Cut="2.6511669158935547e+01" cType="1" res="-2.9043415188789368e-01" rms="4.5764422975480556e-03" purity="0.0000000000000000e+00" nType="0">
            <Node pos="l" depth="3" NCoef="0" IVar="-1" Cut="0.0000000000000000e+00" cType="1" res="-2.1691299974918365e-02" rms="1.9520048052072525e-02" purity="0.0000000000000000e+00" nType="-99"/>
            <Node pos="r" depth="3" NCoef="0" IVar="-1" Cut="0.0000000000000000e+00" cType="1" res="-2.1126050502061844e-02" rms="1.6849027015268803e-03" purity="0.0000000000000000e+00" nType="-99"/>
          </Node>
        </Node>
      </Node>
    </BinaryTree>
    <BinaryTree type="DecisionTree" boostWeight="1.0000000000000000e+00" itree="19">
      <Node pos="s" depth="0" NCoef="0" IVar="10" Cut="3.3098510742187500e+01" cType="1" res="1.4140101848170161e-04" rms="2.9694938659667969e-01" purity="5.0021517276763916e-01" nType="0">
        <Node pos="l" depth="1" NCoef="0" IVar="21" Cut="6.5853657722473145e+00" cType="1" res="2.6836854219436646e-01" rms="1.4925463497638702e-01" purity="9.7651773691177368e-01" nType="0">
          <Node pos="l" depth="2" NCoef="0" IVar="20" Cut="2.5392160415649414e+01" cType="1" res="2.7077955007553101e-01" rms="1.3845857977867126e-01" purity="9.8036152124404907e-01" nType="0">
            <Node pos="l" depth="3" NCoef="0" IVar="-1" Cut="0.0000000000000000e+00" cType="1" res="1.9998297095298767e-02" rms="1.2395623326301575e-01" purity="9.8433989286422729e-01" nType="-99"/>
            <Node pos="r" depth="3" NCoef="0" IVar="-1" Cut="0.0000000000000000e+00" cType="1" res="1.9137786701321602e-02" rms="1.6380475461483002e-01" purity="9.7226184606552124e-01" nType="-99"/>
          </Node>
          <Node pos="r" depth="2" NCoef="0" IVar="-1" Cut="0.0000000000000000e+00" cType="1" res="1.1075713671743870e-02" rms="3.7706044316291809e-01" purity="8.1516885757446289e-01" nType="-99"/>
        </Node>
        <Node pos="r" depth="1" NCoef="0" IVar="6" Cut="2.1370620727539062e+01" cType="1" res="-2.7844178676605225e-01" rms="6.5522551536560059e-02" purity="5.5228658020496368e-03" nType="0">
          <Node pos="l" depth="2" NCoef="0" IVar="-1" Cut="0.0000000000000000e+00" cType="1" res="-7.1126515977084637e-03" rms="4.1430601477622986e-01" purity="2.6282924413681030e-01" nType="-99"/>
          <Node pos="r" depth="2" NCoef="0" IVar="1" Cut="1.3725607299804688e+02" cType="1" res="-2.8196460008621216e-01" rms="1.4271422289311886e-02" purity="1.7188170750159770e-04" nType="0">
            <Node pos="l" depth="3" NCoef="0" IVar="-1" Cut="0.0000000000000000e+00" cType="1" res="-2.1379448473453522e-02" rms="8.7643675506114960e-02" purity="7.1607241407036781e-03" nType="-99"/>
            <Node pos="r" depth="3" NCoef="0" IVar="-1" Cut="0.0000000000000000e+00" cType="1" res="-2.0875213667750359e-02" rms="2.7089079376310110e-03" purity="0.0000000000000000e+00" nType="-99"/>
          </Node>
        </Node>
      </Node>
    </BinaryTree>
    <BinaryTree type="DecisionTree" boostWeight="1.0000000000000000e+00" itree="20">
      <Node pos="s" depth="0" NCoef="0" IVar="10" Cut="3.8817367553710938e+01" cType="1" res="2.5264028226956725e-04" rms="2.8994256258010864e-01" purity="5.0061863660812378e-01" nType="0">
        <Node pos="l" depth="1" NCoef="0" IVar="21" Cut="7.3170733451843262e+00" cType="1" res="2.5795468688011169e-01" rms="1.5657600760459900e-01" purity="9.7301751375198364e-01" nType="0">
          <Node pos="l" depth="2" NCoef="0" IVar="6" Cut="1.5926176071166992e+01" cType="1" res="2.6130384206771851e-01" rms="1.4397288858890533e-01" purity="9.7846972942352295e-01" nType="0">
            <Node pos="l" depth="3" NCoef="0" IVar="-1" Cut="0.0000000000000000e+00" cType="1" res="1.9427990540862083e-02" rms="1.4028532803058624e-01" purity="9.7986835241317749e-01" nType="-99"/>
            <Node pos="r" depth="3" NCoef="0" IVar="-1" Cut="0.0000000000000000e+00" cType="1" res="1.5569756738841534e-02" rms="2.5188717246055603e-01" purity="9.1831451654434204e-01" nType="-99"/>
          </Node>
          <Node pos="r" depth="2" NCoef="0" IVar="-1" Cut="0.0000000000000000e+00" cType="1" res="6.1281286180019379e-03" rms="4.2674133181571960e-01" purity="7.0694106817245483e-01" nType="-99"/>
        </Node>
        <Node pos="r" depth="1" NCoef="0" IVar="1" Cut="1.3390872192382812e+02" cType="1" res="-2.7041867375373840e-01" rms="5.9990011155605316e-02" purity="4.4454997405409813e-03" nType="0">
          <Node pos="l" depth="2" NCoef="0" IVar="-1" Cut="0.0000000000000000e+00" cType="1" res="-8.5395528003573418e-03" rms="3.8548266887664795e-01" purity="2.1116946637630463e-01" nType="-99"/>
          <Node pos="r" depth="2" NCoef="0" IVar="6" Cut="2.7021356582641602e+01" cType="1" res="-2.7351313829421997e-01" rms="5.0819716416299343e-03" purity="0.0000000000000000e+00" nType="0">
            <Node pos="l" depth="3" NCoef="0" IVar="-1" Cut="0.0000000000000000e+00" cType="1" res="-2.1181080490350723e-02" rms="2.1583061665296555e-02" purity="0.0000000000000000e+00" nType="-99"/>
            <Node pos="r" depth="3" NCoef="0" IVar="-1" Cut="0.0000000000000000e+00" cType="1" res="-2.0632533356547356e-02" rms="1.6490420093759894e-03" purity="0.0000000000000000e+00" nType="-99"/>
          </Node>
        </Node>
      </Node>
    </BinaryTree>
    <BinaryTree type="DecisionTree" boostWeight="1.0000000000000000e+00" itree="21">
      <Node pos="s" depth="0" NCoef="0" IVar="10" Cut="3.2845462799072266e+01" cType="1" res="1.1377132032066584e-03" rms="2.8250733017921448e-01" purity="5.0156790018081665e-01" nType="0">
        <Node pos="l" depth="1" NCoef="0" IVar="10" Cut="1.3618812561035156e+01" cType="1" res="2.5297078490257263e-01" rms="1.4806635677814484e-01" purity="9.7688329219818115e-01" nType="0">
          <Node pos="l" depth="2" NCoef="0" IVar="20" Cut="3.2397781372070312e+01" cType="1" res="2.5537714362144470e-01" rms="1.3557304441928864e-01" purity="9.8123902082443237e-01" nType="0">
            <Node pos="l" depth="3" NCoef="0" IVar="-1" Cut="0.0000000000000000e+00" cType="1" res="1.9428031519055367e-02" rms="1.2636679410934448e-01" purity="9.8375451564788818e-01" nType="-99"/>
            <Node pos="r" depth="3" NCoef="0" IVar="-1" Cut="0.0000000000000000e+00" cType="1" res="1.8299642950296402e-02" rms="1.7698346078395844e-01" purity="9.6757769584655762e-01" nType="-99"/>
          </Node>
          <Node pos="r" depth="2" NCoef="0" IVar="-1" Cut="0.0000000000000000e+00" cType="1" res="1.0291645303368568e-02" rms="3.9327800273895264e-01" purity="8.0195009708404541e-01" nType="-99"/>
        </Node>
        <Node pos="r" depth="1" NCoef="0" IVar="6" Cut="2.1370620727539062e+01" cType="1" res="-2.6069208979606628e-01" rms="7.4180454015731812e-02" purity="7.3844129219651222e-03" nType="0">
          <Node pos="l" depth="2" NCoef="0" IVar="-1" Cut="0.0000000000000000e+00" cType="1" res="-3.4853101242333651e-03" rms="4.3479019403457642e-01" purity="3.1622093915939331e-01" nType="-99"/>
          <Node pos="r" depth="2" NCoef="0" IVar="1" Cut="1.3765298461914062e+02" cType="1" res="-2.6561111211776733e-01" rms="1.0472461581230164e-02" purity="6.9351546699181199e-05" nType="0">
            <Node pos="l" depth="3" NCoef="0" IVar="-1" Cut="0.0000000000000000e+00" cType="1" res="-2.1210372447967529e-02" rms="5.9550147503614426e-02" purity="2.9673699755221605e-03" nType="-99"/>
            <Node pos="r" depth="3" NCoef="0" IVar="-1" Cut="0.0000000000000000e+00" cType="1" res="-2.0407892763614655e-02" rms="3.0116036068648100e-03" purity="0.0000000000000000e+00" nType="-99"/>
          </Node>
        </Node>
      </Node>
    </BinaryTree>
    <BinaryTree type="DecisionTree" boostWeight="1.0000000000000000e+00" itree="22">
      <Node pos="s" depth="0" NCoef="0" IVar="10" Cut="3.8614929199218750e+01" cType="1" res="1.4463678235188127e-03" rms="2.7515858411788940e-01" purity="5.0221675634384155e-01" nType="0">
        <Node pos="l" depth="1" NCoef="0" IVar="21" Cut="7.3170733451843262e+00" cType="1" res="2.4483017623424530e-01" rms="1.5112249553203583e-01" purity="9.7502356767654419e-01" nType="0">
          <Node pos="l" depth="2" NCoef="0" IVar="10" Cut="9.4110479354858398e+00" cType="1" res="2.4734973907470703e-01" rms="1.3985069096088409e-01" purity="9.7978585958480835e-01" nType="0">
            <Node pos="l" depth="3" NCoef="0" IVar="-1" Cut="0.0000000000000000e+00" cType="1" res="1.9059045240283012e-02" rms="1.3305266201496124e-01" purity="9.8194944858551025e-01" nType="-99"/>
            <Node pos="r" depth="3" NCoef="0" IVar="-1" Cut="0.0000000000000000e+00" cType="1" res="1.5151573345065117e-02" rms="2.9349571466445923e-01" purity="9.0082705020904541e-01" nType="-99"/>
          </Node>
          <Node pos="r" depth="2" NCoef="0" IVar="-1" Cut="0.0000000000000000e+00" cType="1" res="8.0850319936871529e-03" rms="4.0738371014595032e-01" purity="7.4531632661819458e-01" nType="-99"/>
        </Node>
        <Node pos="r" depth="1" NCoef="0" IVar="14" Cut="6.9134483337402344e+01" cType="1" res="-2.5497555732727051e-01" rms="5.7077270001173019e-02" purity="4.0815835818648338e-03" nType="0">
          <Node pos="l" depth="2" NCoef="0" IVar="-1" Cut="0.0000000000000000e+00" cType="1" res="-1.0362924076616764e-02" rms="3.3484828472137451e-01" purity="1.5905149281024933e-01" nType="-99"/>
          <Node pos="r" depth="2" NCoef="0" IVar="6" Cut="2.5126821517944336e+01" cType="1" res="-2.5775861740112305e-01" rms="1.4105618000030518e-02" purity="1.7581736028660089e-04" nType="0">
            <Node pos="l" depth="3" NCoef="0" IVar="-1" Cut="0.0000000000000000e+00" cType="1" res="-2.0713094621896744e-02" rms="8.1968881189823151e-02" purity="6.7861271090805531e-03" nType="-99"/>
            <Node pos="r" depth="3" NCoef="0" IVar="-1" Cut="0.0000000000000000e+00" cType="1" res="-2.0191807299852371e-02" rms="2.8970346320420504e-03" purity="0.0000000000000000e+00" nType="-99"/>
          </Node>
        </Node>
      </Node>
    </BinaryTree>
    <BinaryTree type="DecisionTree" boostWeight="1.0000000000000000e+00" itree="23">
      <Node pos="s" depth="0" NCoef="0" IVar="10" Cut="3.2845462799072266e+01" cType="1" res="3.3232342684641480e-04" rms="2.6915332674980164e-01" purity="5.0127005577087402e-01" nType="0">
        <Node pos="l" depth="1" NCoef="0" IVar="21" Cut="6.5853657722473145e+00" cType="1" res="2.3672048747539520e-01" rms="1.5245954692363739e-01" purity="9.7530639171600342e-01" nType="0">
          <Node pos="l" depth="2" NCoef="0" IVar="20" Cut="3.8563426971435547e+01" cType="1" res="2.3954436182975769e-01" rms="1.4019708335399628e-01" purity="9.7985708713531494e-01" nType="0">
            <Node pos="l" depth="3" NCoef="0" IVar="-1" Cut="0.0000000000000000e+00" cType="1" res="1.8823971971869469e-02" rms="1.3405573368072510e-01" purity="9.8162603378295898e-01" nType="-99"/>
            <Node pos="r" depth="3" NCoef="0" IVar="-1" Cut="0.0000000000000000e+00" cType="1" res="1.7260551452636719e-02" rms="1.9574828445911407e-01" purity="9.5994949340820312e-01" nType="-99"/>
          </Node>
          <Node pos="r" depth="2" NCoef="0" IVar="-1" Cut="0.0000000000000000e+00" cType="1" res="7.9004522413015366e-03" rms="4.0167754888534546e-01" purity="7.8139460086822510e-01" nType="-99"/>
        </Node>
        <Node pos="r" depth="1" NCoef="0" IVar="18" Cut="1.1911245727539062e+02" cType="1" res="-2.4662166833877563e-01" rms="6.6924668848514557e-02" purity="6.0457671061158180e-03" nType="0">
          <Node pos="l" depth="2" NCoef="0" IVar="-1" Cut="0.0000000000000000e+00" cType="1" res="-5.0292718224227428e-03" rms="4.2171612381935120e-01" purity="2.8558892011642456e-01" nType="-99"/>
          <Node pos="r" depth="2" NCoef="0" IVar="6" Cut="2.5985952377319336e+01" cType="1" res="-2.5028190016746521e-01" rms="1.1517782695591450e-02" purity="6.9774141593370587e-05" nType="0">
            <Node pos="l" depth="3" NCoef="0" IVar="-1" Cut="0.0000000000000000e+00" cType="1" res="-2.0722223445773125e-02" rms="6.0244396328926086e-02" purity="2.4733329191803932e-03" nType="-99"/>
            <Node pos="r" depth="3" NCoef="0" IVar="-1" Cut="0.0000000000000000e+00" cType="1" res="-1.9989693537354469e-02" rms="3.5754151176661253e-03" purity="0.0000000000000000e+00" nType="-99"/>
          </Node>
        </Node>
      </Node>
    </BinaryTree>
    <BinaryTree type="DecisionTree" boostWeight="1.0000000000000000e+00" itree="24">
      <Node pos="s" depth="0" NCoef="0" IVar="10" Cut="3.2970500946044922e+01" cType="1" res="-2.9167642351239920e-03" rms="2.6215961575508118e-01" purity="4.9451082944869995e-01" nType="0">
        <Node pos="l" depth="1" NCoef="0" IVar="10" Cut="1.5278646469116211e+01" cType="1" res="2.2977319359779358e-01" rms="1.5197479724884033e-01" purity="9.7558313608169556e-01" nType="0">
          <Node pos="l" depth="2" NCoef="0" IVar="20" Cut="3.7026035308837891e+01" cType="1" res="2.3195803165435791e-01" rms="1.4051625132560730e-01" purity="9.7979438304901123e-01" nType="0">
            <Node pos="l" depth="3" NCoef="0" IVar="-1" Cut="0.0000000000000000e+00" cType="1" res="1.8617495894432068e-02" rms="1.3270606100559235e-01" purity="9.8203188180923462e-01" nType="-99"/>
            <Node pos="r" depth="3" NCoef="0" IVar="-1" Cut="0.0000000000000000e+00" cType="1" res="1.6824420541524887e-02" rms="2.0152190327644348e-01" purity="9.5753216743469238e-01" nType="-99"/>
          </Node>
          <Node pos="r" depth="2" NCoef="0" IVar="-1" Cut="0.0000000000000000e+00" cType="1" res="8.8691413402557373e-03" rms="4.0246227383613586e-01" purity="7.8904420137405396e-01" nType="-99"/>
        </Node>
        <Node pos="r" depth="1" NCoef="0" IVar="6" Cut="2.1372863769531250e+01" cType="1" res="-2.3927548527717590e-01" rms="6.4920641481876373e-02" purity="5.8536035940051079e-03" nType="0">
          <Node pos="l" depth="2" NCoef="0" IVar="-1" Cut="0.0000000000000000e+00" cType="1" res="-4.9650161527097225e-03" rms="4.1369187831878662e-01" purity="2.8029379248619080e-01" nType="-99"/>
          <Node pos="r" depth="2" NCoef="0" IVar="1" Cut="1.3765298461914062e+02" cType="1" res="-2.4280485510826111e-01" rms="7.6034795492887497e-03" purity="0.0000000000000000e+00" nType="0">
            <Node pos="l" depth="3" NCoef="0" IVar="-1" Cut="0.0000000000000000e+00" cType="1" res="-2.0772343501448631e-02" rms="3.3938765525817871e-02" purity="0.0000000000000000e+00" nType="-99"/>
            <Node pos="r" depth="3" NCoef="0" IVar="-1" Cut="0.0000000000000000e+00" cType="1" res="-1.9793314859271049e-02" rms="3.4471435938030481e-03" purity="0.0000000000000000e+00" nType="-99"/>
          </Node>
        </Node>
      </Node>
    </BinaryTree>
    <BinaryTree type="DecisionTree" boostWeight="1.0000000000000000e+00" itree="25">
      <Node pos="s" depth="0" NCoef="0" IVar="10" Cut="3.0340301513671875e+01" cType="1" res="-4.0757855458650738e-05" rms="2.5632420182228088e-01" purity="4.9997851252555847e-01" nType="0">
        <Node pos="l" depth="1" NCoef="0" IVar="21" Cut="6.5853657722473145e+00" cType="1" res="2.2398121654987335e-01" rms="1.4852996170520782e-01" purity="9.7678548097610474e-01" nType="0">
          <Node pos="l" depth="2" NCoef="0" IVar="20" Cut="1.7139301300048828e+01" cType="1" res="2.2581589221954346e-01" rms="1.3932639360427856e-01" purity="9.8013818264007568e-01" nType="0">
            <Node pos="l" depth="3" NCoef="0" IVar="-1" Cut="0.0000000000000000e+00" cType="1" res="1.8851760774850845e-02" rms="1.1240573227405548e-01" purity="9.8713105916976929e-01" nType="-99"/>
            <Node pos="r" depth="3" NCoef="0" IVar="-1" Cut="0.0000000000000000e+00" cType="1" res="1.8016738817095757e-02" rms="1.5016897022724152e-01" purity="9.7686493396759033e-01" nType="-99"/>
          </Node>
          <Node pos="r" depth="2" NCoef="0" IVar="-1" Cut="0.0000000000000000e+00" cType="1" res="9.8371384665369987e-03" rms="3.6799901723861694e-01" purity="8.2432013750076294e-01" nType="-99"/>
        </Node>
        <Node pos="r" depth="1" NCoef="0" IVar="1" Cut="1.2681443786621094e+02" cType="1" res="-2.3109765350818634e-01" rms="7.4594795703887939e-02" purity="8.1984382122755051e-03" nType="0">
          <Node pos="l" depth="2" NCoef="0" IVar="-1" Cut="0.0000000000000000e+00" cType="1" res="-3.3239761251024902e-04" rms="4.5229509472846985e-01" purity="3.8534063100814819e-01" nType="-99"/>
          <Node pos="r" depth="2" NCoef="0" IVar="6" Cut="2.4744686126708984e+01" cType="1" res="-2.3592934012413025e-01" rms="1.3987356796860695e-02" purity="1.3840742758475244e-04" nType="0">
            <Node pos="l" depth="3" NCoef="0" IVar="-1" Cut="0.0000000000000000e+00" cType="1" res="-2.0718371495604515e-02" rms="7.8701302409172058e-02" purity="6.2264776788651943e-03" nType="-99"/>
            <Node pos="r" depth="3" NCoef="0" IVar="-1" Cut="0.0000000000000000e+00" cType="1" res="-1.9612520933151245e-02" rms="5.1141018047928810e-03" purity="0.0000000000000000e+00" nType="-99"/>
          </Node>
        </Node>
      </Node>
    </BinaryTree>
    <BinaryTree type="DecisionTree" boostWeight="1.0000000000000000e+00" itree="26">
      <Node pos="s" depth="0" NCoef="0" IVar="10" Cut="2.9859512329101562e+01" cType="1" res="6.4705620752647519e-04" rms="2.4976480007171631e-01" purity="5.0166600942611694e-01" nType="0">
        <Node pos="l" depth="1" NCoef="0" IVar="4" Cut="2.1463415622711182e+00" cType="1" res="2.1761241555213928e-01" rms="1.4746211469173431e-01" purity="9.7719180583953857e-01" nType="0">
          <Node pos="l" depth="2" NCoef="0" IVar="20" Cut="2.5649892807006836e+01" cType="1" res="2.1946954727172852e-01" rms="1.4024913311004639e-01" purity="9.7975450754165649e-01" nType="0">
            <Node pos="l" depth="3" NCoef="0" IVar="-1" Cut="0.0000000000000000e+00" cType="1" res="1.8418332561850548e-02" rms="1.2511052191257477e-01" purity="9.8398756980895996e-01" nType="-99"/>
            <Node pos="r" depth="3" NCoef="0" IVar="-1" Cut="0.0000000000000000e+00" cType="1" res="1.7359709367156029e-02" rms="1.6739630699157715e-01" purity="9.7084921598434448e-01" nType="-99"/>
          </Node>
          <Node pos="r" depth="2" NCoef="0" IVar="-1" Cut="0.0000000000000000e+00" cType="1" res="1.1969462037086487e-02" rms="2.9797628521919250e-01" purity="8.8923746347427368e-01" nType="-99"/>
        </Node>
        <Node pos="r" depth="1" NCoef="0" IVar="18" Cut="1.1911245727539062e+02" cType="1" res="-2.2477972507476807e-01" rms="6.9839969277381897e-02" purity="7.5951758772134781e-03" nType="0">
          <Node pos="l" depth="2" NCoef="0" IVar="-1" Cut="0.0000000000000000e+00" cType="1" res="-3.4723086282610893e-03" rms="4.2423895001411438e-01" purity="3.3434605598449707e-01" nType="-99"/>
          <Node pos="r" depth="2" NCoef="0" IVar="6" Cut="2.6520019531250000e+01" cType="1" res="-2.2879081964492798e-01" rms="1.0710233822464943e-02" purity="3.4847140341298655e-05" nType="0">
            <Node pos="l" depth="3" NCoef="0" IVar="-1" Cut="0.0000000000000000e+00" cType="1" res="-2.0233508199453354e-02" rms="4.8246353864669800e-02" purity="1.1326122330501676e-03" nType="-99"/>
            <Node pos="r" depth="3" NCoef="0" IVar="-1" Cut="0.0000000000000000e+00" cType="1" res="-1.9433427602052689e-02" rms="5.0303735770285130e-03" purity="0.0000000000000000e+00" nType="-99"/>
          </Node>
        </Node>
      </Node>
    </BinaryTree>
    <BinaryTree type="DecisionTree" boostWeight="1.0000000000000000e+00" itree="27">
      <Node pos="s" depth="0" NCoef="0" IVar="10" Cut="2.9859512329101562e+01" cType="1" res="4.5603646867675707e-05" rms="2.4417129158973694e-01" purity="5.0061279535293579e-01" nType="0">
        <Node pos="l" depth="1" NCoef="0" IVar="4" Cut="2.2195122241973877e+00" cType="1" res="2.1082934737205505e-01" rms="1.4825321733951569e-01" purity="9.7684556245803833e-01" nType="0">
          <Node pos="l" depth="2" NCoef="0" IVar="20" Cut="3.6430126190185547e+01" cType="1" res="2.1293698251247406e-01" rms="1.3991765677928925e-01" purity="9.7982990741729736e-01" nType="0">
            <Node pos="l" depth="3" NCoef="0" IVar="-1" Cut="0.0000000000000000e+00" cType="1" res="1.8128285184502602e-02" rms="1.2892538309097290e-01" purity="9.8294854164123535e-01" nType="-99"/>
            <Node pos="r" depth="3" NCoef="0" IVar="-1" Cut="0.0000000000000000e+00" cType="1" res="1.5691189095377922e-02" rms="2.1273128688335419e-01" purity="9.5206904411315918e-01" nType="-99"/>
          </Node>
          <Node pos="r" depth="2" NCoef="0" IVar="-1" Cut="0.0000000000000000e+00" cType="1" res="1.0792507790029049e-02" rms="3.1481975317001343e-01" purity="8.7431007623672485e-01" nType="-99"/>
        </Node>
        <Node pos="r" depth="1" NCoef="0" IVar="1" Cut="1.2810992431640625e+02" cType="1" res="-2.1811850368976593e-01" rms="7.0690512657165527e-02" purity="7.7052325941622257e-03" nType="0">
          <Node pos="l" depth="2" NCoef="0" IVar="-1" Cut="0.0000000000000000e+00" cType="1" res="-2.7477070689201355e-03" rms="4.3610990047454834e-01" purity="3.4864813089370728e-01" nType="-99"/>
          <Node pos="r" depth="2" NCoef="0" IVar="6" Cut="2.4550451278686523e+01" cType="1" res="-2.2208207845687866e-01" rms="1.1503268033266068e-02" purity="6.9407935370691121e-05" nType="0">
            <Node pos="l" depth="3" NCoef="0" IVar="-1" Cut="0.0000000000000000e+00" cType="1" res="-2.0270949229598045e-02" rms="6.0985781252384186e-02" purity="3.2220163848251104e-03" nType="-99"/>
            <Node pos="r" depth="3" NCoef="0" IVar="-1" Cut="0.0000000000000000e+00" cType="1" res="-1.9266257062554359e-02" rms="5.1243216730654240e-03" purity="0.0000000000000000e+00" nType="-99"/>
          </Node>
        </Node>
      </Node>
    </BinaryTree>
    <BinaryTree type="DecisionTree" boostWeight="1.0000000000000000e+00" itree="28">
      <Node pos="s" depth="0" NCoef="0" IVar="10" Cut="3.8134986877441406e+01" cType="1" res="1.4842135133221745e-03" rms="2.3822882771492004e-01" purity="5.0296437740325928e-01" nType="0">
        <Node pos="l" depth="1" NCoef="0" IVar="21" Cut="7.3170733451843262e+00" cType="1" res="2.0408405363559723e-01" rms="1.5171800553798676e-01" purity="9.7476536035537720e-01" nType="0">
          <Node pos="l" depth="2" NCoef="0" IVar="6" Cut="1.5693677902221680e+01" cType="1" res="2.0664507150650024e-01" rms="1.3990513980388641e-01" purity="9.7981321811676025e-01" nType="0">
            <Node pos="l" depth="3" NCoef="0" IVar="-1" Cut="0.0000000000000000e+00" cType="1" res="1.7781518399715424e-02" rms="1.3641756772994995e-01" purity="9.8097282648086548e-01" nType="-99"/>
            <Node pos="r" depth="3" NCoef="0" IVar="-1" Cut="0.0000000000000000e+00" cType="1" res="1.4014051295816898e-02" rms="2.4061235785484314e-01" purity="9.3179845809936523e-01" nType="-99"/>
          </Node>
          <Node pos="r" depth="2" NCoef="0" IVar="-1" Cut="0.0000000000000000e+00" cType="1" res="5.3395917639136314e-03" rms="4.1902878880500793e-01" purity="7.2771579027175903e-01" nType="-99"/>
        </Node>
        <Node pos="r" depth="1" NCoef="0" IVar="1" Cut="1.3534428405761719e+02" cType="1" res="-2.1271894872188568e-01" rms="5.6027907878160477e-02" purity="4.1424995288252831e-03" nType="0">
          <Node pos="l" depth="2" NCoef="0" IVar="-1" Cut="0.0000000000000000e+00" cType="1" res="-8.3760423585772514e-03" rms="3.5559785366058350e-01" purity="1.8146006762981415e-01" nType="-99"/>
          <Node pos="r" depth="2" NCoef="0" IVar="11" Cut="2.3667412996292114e-01" cType="1" res="-2.1501070261001587e-01" rms="5.3168744780123234e-03" purity="0.0000000000000000e+00" nType="0">
            <Node pos="l" depth="3" NCoef="0" IVar="-1" Cut="0.0000000000000000e+00" cType="1" res="-1.9477296620607376e-02" rms="2.1908886730670929e-02" purity="0.0000000000000000e+00" nType="-99"/>
            <Node pos="r" depth="3" NCoef="0" IVar="-1" Cut="0.0000000000000000e+00" cType="1" res="-1.9097153097391129e-02" rms="2.1155243739485741e-03" purity="0.0000000000000000e+00" nType="-99"/>
          </Node>
        </Node>
      </Node>
    </BinaryTree>
    <BinaryTree type="DecisionTree" boostWeight="1.0000000000000000e+00" itree="29">
      <Node pos="s" depth="0" NCoef="0" IVar="10" Cut="3.8614929199218750e+01" cType="1" res="7.7086786041036248e-04" rms="2.3312999308109283e-01" purity="5.0148814916610718e-01" nType="0">
        <Node pos="l" depth="1" NCoef="0" IVar="21" Cut="7.3170733451843262e+00" cType="1" res="1.9753420352935791e-01" rms="1.5297117829322815e-01" purity="9.7406691312789917e-01" nType="0">
          <Node pos="l" depth="2" NCoef="0" IVar="8" Cut="8.0487805604934692e-01" cType="1" res="2.0043927431106567e-01" rms="1.4076122641563416e-01" purity="9.7957873344421387e-01" nType="0">
            <Node pos="l" depth="3" NCoef="0" IVar="-1" Cut="0.0000000000000000e+00" cType="1" res="1.7862515524029732e-02" rms="1.2501306831836700e-01" purity="9.8410922288894653e-01" nType="-99"/>
            <Node pos="r" depth="3" NCoef="0" IVar="-1" Cut="0.0000000000000000e+00" cType="1" res="1.6623454168438911e-02" rms="1.7233438789844513e-01" purity="9.6875756978988647e-01" nType="-99"/>
          </Node>
          <Node pos="r" depth="2" NCoef="0" IVar="-1" Cut="0.0000000000000000e+00" cType="1" res="3.9170300588011742e-03" rms="4.2008766531944275e-01" purity="7.0796334743499756e-01" nType="-99"/>
        </Node>
        <Node pos="r" depth="1" NCoef="0" IVar="6" Cut="2.2606443405151367e+01" cType="1" res="-2.0617718994617462e-01" rms="5.7911086827516556e-02" purity="4.4480860233306885e-03" nType="0">
          <Node pos="l" depth="2" NCoef="0" IVar="-1" Cut="0.0000000000000000e+00" cType="1" res="-6.2364409677684307e-03" rms="3.7247842550277710e-01" purity="2.0792074501514435e-01" nType="-99"/>
          <Node pos="r" depth="2" NCoef="0" IVar="1" Cut="1.3902453613281250e+02" cType="1" res="-2.0874594151973724e-01" rms="1.2967741116881371e-02" purity="1.3869596295990050e-04" nType="0">
            <Node pos="l" depth="3" NCoef="0" IVar="-1" Cut="0.0000000000000000e+00" cType="1" res="-1.9341960549354553e-02" rms="7.5417302548885345e-02" purity="5.2172760479152203e-03" nType="-99"/>
            <Node pos="r" depth="3" NCoef="0" IVar="-1" Cut="0.0000000000000000e+00" cType="1" res="-1.8942607566714287e-02" rms="1.6556982882320881e-03" purity="0.0000000000000000e+00" nType="-99"/>
          </Node>
        </Node>
      </Node>
    </BinaryTree>
    <BinaryTree type="DecisionTree" boostWeight="1.0000000000000000e+00" itree="30">
      <Node pos="s" depth="0" NCoef="0" IVar="10" Cut="3.0340301513671875e+01" cType="1" res="3.3300733775831759e-04" rms="2.2736848890781403e-01" purity="5.0060331821441650e-01" nType="0">
        <Node pos="l" depth="1" NCoef="0" IVar="10" Cut="1.4799759864807129e+01" cType="1" res="1.9347515702247620e-01" rms="1.4568677544593811e-01" purity="9.7767460346221924e-01" nType="0">
          <Node pos="l" depth="2" NCoef="0" IVar="8" Cut="8.0487805604934692e-01" cType="1" res="1.9491828978061676e-01" rms="1.3609513640403748e-01" purity="9.8106884956359863e-01" nType="0">
            <Node pos="l" depth="3" NCoef="0" IVar="-1" Cut="0.0000000000000000e+00" cType="1" res="1.7728634178638458e-02" rms="1.2134617567062378e-01" purity="9.8504281044006348e-01" nType="-99"/>
            <Node pos="r" depth="3" NCoef="0" IVar="-1" Cut="0.0000000000000000e+00" cType="1" res="1.6585197299718857e-02" rms="1.6628926992416382e-01" purity="9.7141748666763306e-01" nType="-99"/>
          </Node>
          <Node pos="r" depth="2" NCoef="0" IVar="-1" Cut="0.0000000000000000e+00" cType="1" res="8.9838607236742973e-03" rms="3.7680479884147644e-01" purity="8.2027566432952881e-01" nType="-99"/>
        </Node>
        <Node pos="r" depth="1" NCoef="0" IVar="6" Cut="2.0428003311157227e+01" cType="1" res="-1.9931674003601074e-01" rms="6.9095008075237274e-02" purity="7.4579180218279362e-03" nType="0">
          <Node pos="l" depth="2" NCoef="0" IVar="-1" Cut="0.0000000000000000e+00" cType="1" res="-1.4086648589000106e-03" rms="4.3132534623146057e-01" purity="3.5125100612640381e-01" nType="-99"/>
          <Node pos="r" depth="2" NCoef="0" IVar="18" Cut="1.2737073516845703e+02" cType="1" res="-2.0308738946914673e-01" rms="1.6216617077589035e-02" purity="2.0768720423802733e-04" nType="0">
            <Node pos="l" depth="3" NCoef="0" IVar="-1" Cut="0.0000000000000000e+00" cType="1" res="-1.9521253183484077e-02" rms="8.3930991590023041e-02" purity="6.8220151588320732e-03" nType="-99"/>
            <Node pos="r" depth="3" NCoef="0" IVar="-1" Cut="0.0000000000000000e+00" cType="1" res="-1.8803983926773071e-02" rms="4.8097614198923111e-03" purity="0.0000000000000000e+00" nType="-99"/>
          </Node>
        </Node>
      </Node>
    </BinaryTree>
    <BinaryTree type="DecisionTree" boostWeight="1.0000000000000000e+00" itree="31">
      <Node pos="s" depth="0" NCoef="0" IVar="10" Cut="3.8614929199218750e+01" cType="1" res="-3.9528831257484853e-04" rms="2.2279763221740723e-01" purity="4.9874848127365112e-01" nType="0">
        <Node pos="l" depth="1" NCoef="0" IVar="21" Cut="7.3170733451843262e+00" cType="1" res="1.8595997989177704e-01" rms="1.5319262444972992e-01" purity="9.7389459609985352e-01" nType="0">
          <Node pos="l" depth="2" NCoef="0" IVar="6" Cut="1.6824222564697266e+01" cType="1" res="1.8876017630100250e-01" rms="1.4060141146183014e-01" purity="9.7963064908981323e-01" nType="0">
            <Node pos="l" depth="3" NCoef="0" IVar="-1" Cut="0.0000000000000000e+00" cType="1" res="1.7232850193977356e-02" rms="1.3736130297183990e-01" purity="9.8077225685119629e-01" nType="-99"/>
            <Node pos="r" depth="3" NCoef="0" IVar="-1" Cut="0.0000000000000000e+00" cType="1" res="1.2984291650354862e-02" rms="2.4408957362174988e-01" purity="9.2695140838623047e-01" nType="-99"/>
          </Node>
          <Node pos="r" depth="2" NCoef="0" IVar="-1" Cut="0.0000000000000000e+00" cType="1" res="3.8396345917135477e-03" rms="4.2204812169075012e-01" purity="7.0724254846572876e-01" nType="-99"/>
        </Node>
        <Node pos="r" depth="1" NCoef="0" IVar="14" Cut="6.6864791870117188e+01" cType="1" res="-1.9436396658420563e-01" rms="5.5748123675584793e-02" purity="4.1906004771590233e-03" nType="0">
          <Node pos="l" depth="2" NCoef="0" IVar="-1" Cut="0.0000000000000000e+00" cType="1" res="-6.2255193479359150e-03" rms="3.5144239664077759e-01" purity="1.8945902585983276e-01" nType="-99"/>
          <Node pos="r" depth="2" NCoef="0" IVar="6" Cut="2.4479143142700195e+01" cType="1" res="-1.9675734639167786e-01" rms="1.7562719061970711e-02" purity="3.1304688309319317e-04" nType="0">
            <Node pos="l" depth="3" NCoef="0" IVar="-1" Cut="0.0000000000000000e+00" cType="1" res="-1.8646424636244774e-02" rms="1.1363265663385391e-01" purity="1.4670738950371742e-02" nType="-99"/>
            <Node pos="r" depth="3" NCoef="0" IVar="-1" Cut="0.0000000000000000e+00" cType="1" res="-1.8662484362721443e-02" rms="4.1248672641813755e-03" purity="0.0000000000000000e+00" nType="-99"/>
          </Node>
        </Node>
      </Node>
    </BinaryTree>
    <BinaryTree type="DecisionTree" boostWeight="1.0000000000000000e+00" itree="32">
      <Node pos="s" depth="0" NCoef="0" IVar="10" Cut="3.2845462799072266e+01" cType="1" res="1.0835797293111682e-03" rms="2.1835869550704956e-01" purity="5.0268429517745972e-01" nType="0">
        <Node pos="l" depth="1" NCoef="0" IVar="10" Cut="1.6823238372802734e+01" cType="1" res="1.8107387423515320e-01" rms="1.5007902681827545e-01" purity="9.7603344917297363e-01" nType="0">
          <Node pos="l" depth="2" NCoef="0" IVar="8" Cut="7.8048777580261230e-01" cType="1" res="1.8288670480251312e-01" rms="1.3918973505496979e-01" purity="9.8016047477722168e-01" nType="0">
            <Node pos="l" depth="3" NCoef="0" IVar="-1" Cut="0.0000000000000000e+00" cType="1" res="1.7354412004351616e-02" rms="1.2355015426874161e-01" purity="9.8447591066360474e-01" nType="-99"/>
            <Node pos="r" depth="3" NCoef="0" IVar="-1" Cut="0.0000000000000000e+00" cType="1" res="1.6204362735152245e-02" rms="1.6667890548706055e-01" purity="9.7124779224395752e-01" nType="-99"/>
          </Node>
          <Node pos="r" depth="2" NCoef="0" IVar="-1" Cut="0.0000000000000000e+00" cType="1" res="6.7659174092113972e-03" rms="4.0272992849349976e-01" purity="7.8346407413482666e-01" nType="-99"/>
        </Node>
        <Node pos="r" depth="1" NCoef="0" IVar="18" Cut="1.1911245727539062e+02" cType="1" res="-1.8754288554191589e-01" rms="6.7182652652263641e-02" purity="6.6232606768608093e-03" nType="0">
          <Node pos="l" depth="2" NCoef="0" IVar="-1" Cut="0.0000000000000000e+00" cType="1" res="-1.7898187506943941e-03" rms="4.2253321409225464e-01" purity="3.0606862902641296e-01" nType="-99"/>
          <Node pos="r" depth="2" NCoef="0" IVar="6" Cut="2.6222888946533203e+01" cType="1" res="-1.9110876321792603e-01" rms="9.7039910033345222e-03" purity="3.5072444006800652e-05" nType="0">
            <Node pos="l" depth="3" NCoef="0" IVar="-1" Cut="0.0000000000000000e+00" cType="1" res="-1.9214004278182983e-02" rms="4.4189158827066422e-02" purity="1.2676178012043238e-03" nType="-99"/>
            <Node pos="r" depth="3" NCoef="0" IVar="-1" Cut="0.0000000000000000e+00" cType="1" res="-1.8530480563640594e-02" rms="4.8148036003112793e-03" purity="0.0000000000000000e+00" nType="-99"/>
          </Node>
        </Node>
      </Node>
    </BinaryTree>
    <BinaryTree type="DecisionTree" boostWeight="1.0000000000000000e+00" itree="33">
      <Node pos="s" depth="0" NCoef="0" IVar="10" Cut="3.0340301513671875e+01" cType="1" res="3.5427496186457574e-04" rms="2.1358267962932587e-01" purity="5.0120592117309570e-01" nType="0">
        <Node pos="l" depth="1" NCoef="0" IVar="6" Cut="1.6701196670532227e+01" cType="1" res="1.7602999508380890e-01" rms="1.4808847010135651e-01" purity="9.7694063186645508e-01" nType="0">
          <Node pos="l" depth="2" NCoef="0" IVar="20" Cut="3.2397781372070312e+01" cType="1" res="1.7742253839969635e-01" rms="1.4342923462390900e-01" purity="9.7864621877670288e-01" nType="0">
            <Node pos="l" depth="3" NCoef="0" IVar="-1" Cut="0.0000000000000000e+00" cType="1" res="1.7005372792482376e-02" rms="1.3324414193630219e-01" purity="9.8161685466766357e-01" nType="-99"/>
            <Node pos="r" depth="3" NCoef="0" IVar="-1" Cut="0.0000000000000000e+00" cType="1" res="1.5210051089525223e-02" rms="1.9059503078460693e-01" purity="9.6177148818969727e-01" nType="-99"/>
          </Node>
          <Node pos="r" depth="2" NCoef="0" IVar="-1" Cut="0.0000000000000000e+00" cType="1" res="9.8957680165767670e-03" rms="2.8573212027549744e-01" purity="8.9641106128692627e-01" nType="-99"/>
        </Node>
        <Node pos="r" depth="1" NCoef="0" IVar="1" Cut="1.2830195617675781e+02" cType="1" res="-1.8187846243381500e-01" rms="7.0472724735736847e-02" purity="7.7147311531007290e-03" nType="0">
          <Node pos="l" depth="2" NCoef="0" IVar="-1" Cut="0.0000000000000000e+00" cType="1" res="-6.8554969038814306e-04" rms="4.4141745567321777e-01" purity="3.5748589038848877e-01" nType="-99"/>
          <Node pos="r" depth="2" NCoef="0" IVar="6" Cut="2.6862600326538086e+01" cType="1" res="-1.8565408885478973e-01" rms="1.1556168086826801e-02" purity="3.4579512430354953e-05" nType="0">
            <Node pos="l" depth="3" NCoef="0" IVar="-1" Cut="0.0000000000000000e+00" cType="1" res="-1.9161587581038475e-02" rms="5.0575837492942810e-02" purity="1.0367196518927813e-03" nType="-99"/>
            <Node pos="r" depth="3" NCoef="0" IVar="-1" Cut="0.0000000000000000e+00" cType="1" res="-1.8404329195618629e-02" rms="5.3782039321959019e-03" purity="0.0000000000000000e+00" nType="-99"/>
          </Node>
        </Node>
      </Node>
    </BinaryTree>
    <BinaryTree type="DecisionTree" boostWeight="1.0000000000000000e+00" itree="34">
      <Node pos="s" depth="0" NCoef="0" IVar="10" Cut="3.8614929199218750e+01" cType="1" res="-8.9702487457543612e-04" rms="2.0918539166450500e-01" purity="4.9772956967353821e-01" nType="0">
        <Node pos="l" depth="1" NCoef="0" IVar="21" Cut="7.3170733451843262e+00" cType="1" res="1.6952110826969147e-01" rms="1.5413373708724976e-01" purity="9.7354668378829956e-01" nType="0">
          <Node pos="l" depth="2" NCoef="0" IVar="6" Cut="1.5171725273132324e+01" cType="1" res="1.7201368510723114e-01" rms="1.4183270931243896e-01" purity="9.7916364669799805e-01" nType="0">
            <Node pos="l" depth="3" NCoef="0" IVar="-1" Cut="0.0000000000000000e+00" cType="1" res="1.6708197072148323e-02" rms="1.3829374313354492e-01" purity="9.8047143220901489e-01" nType="-99"/>
            <Node pos="r" depth="3" NCoef="0" IVar="-1" Cut="0.0000000000000000e+00" cType="1" res="1.2349446304142475e-02" rms="2.4221846461296082e-01" purity="9.2628687620162964e-01" nType="-99"/>
          </Node>
          <Node pos="r" depth="2" NCoef="0" IVar="-1" Cut="0.0000000000000000e+00" cType="1" res="4.0031983517110348e-03" rms="4.1845059394836426e-01" purity="7.2009962797164917e-01" nType="-99"/>
        </Node>
        <Node pos="r" depth="1" NCoef="0" IVar="5" Cut="6.7105506896972656e+01" cType="1" res="-1.7762182652950287e-01" rms="5.6136198341846466e-02" purity="4.3039117008447647e-03" nType="0">
          <Node pos="l" depth="2" NCoef="0" IVar="-1" Cut="0.0000000000000000e+00" cType="1" res="-5.4959594272077084e-03" rms="3.5218799114227295e-01" purity="1.9191761314868927e-01" nType="-99"/>
          <Node pos="r" depth="2" NCoef="0" IVar="6" Cut="2.5001285552978516e+01" cType="1" res="-1.7993384599685669e-01" rms="1.7992496490478516e-02" purity="3.1396019039675593e-04" nType="0">
            <Node pos="l" depth="3" NCoef="0" IVar="-1" Cut="0.0000000000000000e+00" cType="1" res="-1.8317269161343575e-02" rms="1.0678406059741974e-01" purity="1.2527486309409142e-02" nType="-99"/>
            <Node pos="r" depth="3" NCoef="0" IVar="-1" Cut="0.0000000000000000e+00" cType="1" res="-1.8278166651725769e-02" rms="4.4349096715450287e-03" purity="0.0000000000000000e+00" nType="-99"/>
          </Node>
        </Node>
      </Node>
    </BinaryTree>
    <BinaryTree type="DecisionTree" boostWeight="1.0000000000000000e+00" itree="35">
      <Node pos="s" depth="0" NCoef="0" IVar="10" Cut="3.8817367553710938e+01" cType="1" res="5.1825941773131490e-04" rms="2.0358288288116455e-01" purity="5.0015282630920410e-01" nType="0">
        <Node pos="l" depth="1" NCoef="0" IVar="13" Cut="2.1463415622711182e+00" cType="1" res="1.6619046032428741e-01" rms="1.4907710254192352e-01" purity="9.7528874874114990e-01" nType="0">
          <Node pos="l" depth="2" NCoef="0" IVar="16" Cut="1.2193490564823151e-01" cType="1" res="1.6854816675186157e-01" rms="1.4176167547702789e-01" purity="9.7869157791137695e-01" nType="0">
            <Node pos="l" depth="3" NCoef="0" IVar="-1" Cut="0.0000000000000000e+00" cType="1" res="1.5190731734037399e-02" rms="1.8085236847400665e-01" purity="9.6534746885299683e-01" nType="-99"/>
            <Node pos="r" depth="3" NCoef="0" IVar="-1" Cut="0.0000000000000000e+00" cType="1" res="1.6809813678264618e-02" rms="1.3077206909656525e-01" purity="9.8181098699569702e-01" nType="-99"/>
          </Node>
          <Node pos="r" depth="2" NCoef="0" IVar="-1" Cut="0.0000000000000000e+00" cType="1" res="5.9635317884385586e-03" rms="3.1813883781433105e-01" purity="8.3304953575134277e-01" nType="-99"/>
        </Node>
        <Node pos="r" depth="1" NCoef="0" IVar="6" Cut="2.2602243423461914e+01" cType="1" res="-1.7247621715068817e-01" rms="5.4130293428897858e-02" purity="4.0171984583139420e-03" nType="0">
          <Node pos="l" depth="2" NCoef="0" IVar="-1" Cut="0.0000000000000000e+00" cType="1" res="-6.1956276185810566e-03" rms="3.4992948174476624e-01" purity="1.8517194688320160e-01" nType="-99"/>
          <Node pos="r" depth="2" NCoef="0" IVar="1" Cut="1.3907962036132812e+02" cType="1" res="-1.7448584735393524e-01" rms="1.3369242660701275e-02" purity="1.3909145491197705e-04" nType="0">
            <Node pos="l" depth="3" NCoef="0" IVar="-1" Cut="0.0000000000000000e+00" cType="1" res="-1.8563384190201759e-02" rms="7.7106148004531860e-02" purity="5.3113526664674282e-03" nType="-99"/>
            <Node pos="r" depth="3" NCoef="0" IVar="-1" Cut="0.0000000000000000e+00" cType="1" res="-1.8155571073293686e-02" rms="2.1594238933175802e-03" purity="0.0000000000000000e+00" nType="-99"/>
          </Node>
        </Node>
      </Node>
    </BinaryTree>
    <BinaryTree type="DecisionTree" boostWeight="1.0000000000000000e+00" itree="36">
      <Node pos="s" depth="0" NCoef="0" IVar="10" Cut="3.0340301513671875e+01" cType="1" res="2.7681581559590995e-04" rms="2.0051309466362000e-01" purity="5.0100332498550415e-01" nType="0">
        <Node pos="l" depth="1" NCoef="0" IVar="10" Cut="1.4797660827636719e+01" cType="1" res="1.6094361245632172e-01" rms="1.4775171875953674e-01" purity="9.7698658704757690e-01" nType="0">
          <Node pos="l" depth="2" NCoef="0" IVar="8" Cut="8.7804877758026123e-01" cType="1" res="1.6244161128997803e-01" rms="1.3797689974308014e-01" purity="9.8052555322647095e-01" nType="0">
            <Node pos="l" depth="3" NCoef="0" IVar="-1" Cut="0.0000000000000000e+00" cType="1" res="1.6688145697116852e-02" rms="1.2608666718006134e-01" purity="9.8382860422134399e-01" nType="-99"/>
            <Node pos="r" depth="3" NCoef="0" IVar="-1" Cut="0.0000000000000000e+00" cType="1" res="1.5164861455559731e-02" rms="1.7676742374897003e-01" purity="9.6754169464111328e-01" nType="-99"/>
          </Node>
          <Node pos="r" depth="2" NCoef="0" IVar="-1" Cut="0.0000000000000000e+00" cType="1" res="6.8297153338789940e-03" rms="3.8368737697601318e-01" purity="8.1178128719329834e-01" nType="-99"/>
        </Node>
        <Node pos="r" depth="1" NCoef="0" IVar="1" Cut="1.2748922729492188e+02" cType="1" res="-1.6624042391777039e-01" rms="6.9048888981342316e-02" purity="7.6878587715327740e-03" nType="0">
          <Node pos="l" depth="2" NCoef="0" IVar="-1" Cut="0.0000000000000000e+00" cType="1" res="-8.1096470239572227e-05" rms="4.4422462582588196e-01" purity="3.6969879269599915e-01" nType="-99"/>
          <Node pos="r" depth="2" NCoef="0" IVar="6" Cut="2.5190334320068359e+01" cType="1" res="-1.6969871520996094e-01" rms="1.2272769585251808e-02" purity="1.0373020631959662e-04" nType="0">
            <Node pos="l" depth="3" NCoef="0" IVar="-1" Cut="0.0000000000000000e+00" cType="1" res="-1.8824620172381401e-02" rms="6.2768362462520599e-02" purity="4.3678339570760727e-03" nType="-99"/>
            <Node pos="r" depth="3" NCoef="0" IVar="-1" Cut="0.0000000000000000e+00" cType="1" res="-1.8053449690341949e-02" rms="5.8141220360994339e-03" purity="0.0000000000000000e+00" nType="-99"/>
          </Node>
        </Node>
      </Node>
    </BinaryTree>
    <BinaryTree type="DecisionTree" boostWeight="1.0000000000000000e+00" itree="37">
      <Node pos="s" depth="0" NCoef="0" IVar="10" Cut="3.0340301513671875e+01" cType="1" res="-1.1983127478742972e-04" rms="1.9684761762619019e-01" purity="5.0084608793258667e-01" nType="0">
        <Node pos="l" depth="1" NCoef="0" IVar="10" Cut="1.4797729492187500e+01" cType="1" res="1.5560221672058105e-01" rms="1.4960137009620667e-01" purity="9.7639870643615723e-01" nType="0">
          <Node pos="l" depth="2" NCoef="0" IVar="20" Cut="1.8513017654418945e+01" cType="1" res="1.5705847740173340e-01" rms="1.4003521203994751e-01" purity="9.7994762659072876e-01" nType="0">
            <Node pos="l" depth="3" NCoef="0" IVar="-1" Cut="0.0000000000000000e+00" cType="1" res="1.6786944121122360e-02" rms="1.1673665046691895e-01" purity="9.8615264892578125e-01" nType="-99"/>
            <Node pos="r" depth="3" NCoef="0" IVar="-1" Cut="0.0000000000000000e+00" cType="1" res="1.5772603452205658e-02" rms="1.5300944447517395e-01" purity="9.7597092390060425e-01" nType="-99"/>
          </Node>
          <Node pos="r" depth="2" NCoef="0" IVar="-1" Cut="0.0000000000000000e+00" cType="1" res="6.5679079852998257e-03" rms="3.8434818387031555e-01" purity="8.0973345041275024e-01" nType="-99"/>
        </Node>
        <Node pos="r" depth="1" NCoef="0" IVar="17" Cut="2.2195122241973877e+00" cType="1" res="-1.6178449988365173e-01" rms="6.6571980714797974e-02" purity="7.1455701254308224e-03" nType="0">
          <Node pos="l" depth="2" NCoef="0" IVar="-1" Cut="0.0000000000000000e+00" cType="1" res="-1.7767151584848762e-03" rms="3.3364731073379517e-01" purity="2.2820407152175903e-01" nType="-99"/>
          <Node pos="r" depth="2" NCoef="0" IVar="4" Cut="3.2682926654815674e+00" cType="1" res="-1.6473779082298279e-01" rms="4.2189240455627441e-02" purity="2.5461041368544102e-03" nType="0">
            <Node pos="l" depth="3" NCoef="0" IVar="-1" Cut="0.0000000000000000e+00" cType="1" res="-1.7798000946640968e-02" rms="4.0734041482210159e-02" purity="2.6664554607123137e-03" nType="-99"/>
            <Node pos="r" depth="3" NCoef="0" IVar="-1" Cut="0.0000000000000000e+00" cType="1" res="-1.8370540812611580e-02" rms="5.4438807070255280e-02" purity="1.2310717720538378e-03" nType="-99"/>
          </Node>
        </Node>
      </Node>
    </BinaryTree>
    <BinaryTree type="DecisionTree" boostWeight="1.0000000000000000e+00" itree="38">
      <Node pos="s" depth="0" NCoef="0" IVar="10" Cut="3.0027091979980469e+01" cType="1" res="-4.2209788807667792e-04" rms="1.9297836720943451e-01" purity="5.0057250261306763e-01" nType="0">
        <Node pos="l" depth="1" NCoef="0" IVar="10" Cut="1.5378873825073242e+01" cType="1" res="1.5091413259506226e-01" rms="1.4958086609840393e-01" purity="9.7635442018508911e-01" nType="0">
          <Node pos="l" depth="2" NCoef="0" IVar="20" Cut="5.0910797119140625e+01" cType="1" res="1.5239028632640839e-01" rms="1.3996672630310059e-01" purity="9.7993856668472290e-01" nType="0">
            <Node pos="l" depth="3" NCoef="0" IVar="-1" Cut="0.0000000000000000e+00" cType="1" res="1.6121895983815193e-02" rms="1.3648416101932526e-01" purity="9.8095589876174927e-01" nType="-99"/>
            <Node pos="r" depth="3" NCoef="0" IVar="-1" Cut="0.0000000000000000e+00" cType="1" res="1.1760628782212734e-02" rms="2.4452880024909973e-01" purity="9.3598318099975586e-01" nType="-99"/>
          </Node>
          <Node pos="r" depth="2" NCoef="0" IVar="-1" Cut="0.0000000000000000e+00" cType="1" res="5.9350249357521534e-03" rms="3.9106139540672302e-01" purity="8.0144256353378296e-01" nType="-99"/>
        </Node>
        <Node pos="r" depth="1" NCoef="0" IVar="17" Cut="2.2195122241973877e+00" cType="1" res="-1.5738379955291748e-01" rms="6.5333746373653412e-02" purity="7.1047474630177021e-03" nType="0">
          <Node pos="l" depth="2" NCoef="0" IVar="-1" Cut="0.0000000000000000e+00" cType="1" res="-3.7144052330404520e-03" rms="3.1812807917594910e-01" purity="2.0371113717556000e-01" nType="-99"/>
          <Node pos="r" depth="2" NCoef="0" IVar="4" Cut="3.2682926654815674e+00" cType="1" res="-1.5988840162754059e-01" rms="4.3453130871057510e-02" purity="2.8821018058806658e-03" nType="0">
            <Node pos="l" depth="3" NCoef="0" IVar="-1" Cut="0.0000000000000000e+00" cType="1" res="-1.7675224691629410e-02" rms="4.1510161012411118e-02" purity="2.9483719263225794e-03" nType="-99"/>
            <Node pos="r" depth="3" NCoef="0" IVar="-1" Cut="0.0000000000000000e+00" cType="1" res="-1.8228309229016304e-02" rms="6.0098022222518921e-02" purity="2.1338812075555325e-03" nType="-99"/>
          </Node>
        </Node>
      </Node>
    </BinaryTree>
    <BinaryTree type="DecisionTree" boostWeight="1.0000000000000000e+00" itree="39">
      <Node pos="s" depth="0" NCoef="0" IVar="10" Cut="2.9859512329101562e+01" cType="1" res="1.4687395887449384e-03" rms="1.8789042532444000e-01" purity="5.0454455614089966e-01" nType="0">
        <Node pos="l" depth="1" NCoef="0" IVar="21" Cut="5.1219511032104492e+00" cType="1" res="1.4804558455944061e-01" rms="1.4405146241188049e-01" purity="9.7807896137237549e-01" nType="0">
          <Node pos="l" depth="2" NCoef="0" IVar="20" Cut="3.2397781372070312e+01" cType="1" res="1.4982375502586365e-01" rms="1.3332429528236389e-01" purity="9.8182749748229980e-01" nType="0">
            <Node pos="l" depth="3" NCoef="0" IVar="-1" Cut="0.0000000000000000e+00" cType="1" res="1.6342537477612495e-02" rms="1.2367177009582520e-01" purity="9.8442488908767700e-01" nType="-99"/>
