<?xml version="1.0"?>
<MethodSetup Method="BDT::BDTG_D3_M1">
  <GeneralInfo>
    <Info name="TMVA Release" value="4.2.1 [262657]"/>
    <Info name="ROOT Release" value="6.32/04 [401412]"/>
    <Info name="Creator" value="yhong"/>
    <Info name="Date" value="Wed Jul 22 21:33:27 2026"/>
    <Info name="Host" value="Linux 39c26a24bcd5 4.18.0-553.el8_10.x86_64 #1 SMP Fri May 24 08:32:12 EDT 2024 x86_64 x86_64 x86_64 GNU/Linux"/>
    <Info name="Dir" value="/gpfs/group/had/sks/Users/yhong/rootfile/beta/balanced_pc3_circle_bdt_work_20260722/c60/bgoc_bgo_pc_brweighted"/>
    <Info name="Training events" value="150000"/>
    <Info name="TrainingTime" value="1.21898865e+02"/>
    <Info name="AnalysisType" value="Classification"/>
  </GeneralInfo>
  <Options>
    <Option name="V" modified="Yes">False</Option>
    <Option name="VerbosityLevel" modified="No">Default</Option>
    <Option name="VarTransform" modified="No">None</Option>
    <Option name="H" modified="Yes">False</Option>
    <Option name="CreateMVAPdfs" modified="No">False</Option>
    <Option name="IgnoreNegWeightsInTraining" modified="No">False</Option>
    <Option name="NTrees" modified="Yes">800</Option>
    <Option name="MaxDepth" modified="Yes">3</Option>
    <Option name="MinNodeSize" modified="Yes">1.0%</Option>
    <Option name="nCuts" modified="Yes">40</Option>
    <Option name="BoostType" modified="Yes">Grad</Option>
    <Option name="AdaBoostR2Loss" modified="No">quadratic</Option>
    <Option name="UseBaggedBoost" modified="Yes">True</Option>
    <Option name="Shrinkage" modified="Yes">3.000000e-02</Option>
    <Option name="AdaBoostBeta" modified="No">5.000000e-01</Option>
    <Option name="UseRandomisedTrees" modified="No">False</Option>
    <Option name="UseNvars" modified="No">5</Option>
    <Option name="UsePoissonNvars" modified="No">True</Option>
    <Option name="BaggedSampleFraction" modified="Yes">6.000000e-01</Option>
    <Option name="UseYesNoLeaf" modified="No">True</Option>
    <Option name="NegWeightTreatment" modified="No">pray</Option>
    <Option name="Css" modified="No">1.000000e+00</Option>
    <Option name="Cts_sb" modified="No">1.000000e+00</Option>
    <Option name="Ctb_ss" modified="No">1.000000e+00</Option>
    <Option name="Cbb" modified="No">1.000000e+00</Option>
    <Option name="NodePurityLimit" modified="No">5.000000e-01</Option>
    <Option name="SeparationType" modified="No">giniindex</Option>
    <Option name="RegressionLossFunctionBDTG" modified="No">huber</Option>
    <Option name="HuberQuantile" modified="No">7.000000e-01</Option>
    <Option name="DoBoostMonitor" modified="No">False</Option>
    <Option name="UseFisherCuts" modified="No">False</Option>
    <Option name="MinLinCorrForFisher" modified="No">8.000000e-01</Option>
    <Option name="UseExclusiveVars" modified="No">False</Option>
    <Option name="DoPreselection" modified="No">False</Option>
    <Option name="SigToBkgFraction" modified="No">1.000000e+00</Option>
    <Option name="PruneMethod" modified="No">nopruning</Option>
    <Option name="PruneStrength" modified="No">0.000000e+00</Option>
    <Option name="PruningValFraction" modified="No">5.000000e-01</Option>
    <Option name="SkipNormalization" modified="No">False</Option>
    <Option name="nEventsMin" modified="No">0</Option>
    <Option name="UseBaggedGrad" modified="No">False</Option>
    <Option name="GradBaggingFraction" modified="No">6.000000e-01</Option>
    <Option name="UseNTrainEvents" modified="No">0</Option>
    <Option name="NNodesMax" modified="No">0</Option>
  </Options>
  <Variables NVar="24">
    <Variable VarIndex="0" Expression="maxE" Label="maxE" Title="maxE" Unit="" Internal="maxE" Type="F" Min="0.00000000e+00" Max="2.28421585e+02"/>
    <Variable VarIndex="1" Expression="sumE" Label="sumE" Title="sumE" Unit="" Internal="sumE" Type="F" Min="0.00000000e+00" Max="3.78685486e+02"/>
    <Variable VarIndex="2" Expression="nHit" Label="nHit" Title="nHit" Unit="" Internal="nHit" Type="F" Min="0.00000000e+00" Max="2.20000000e+01"/>
    <Variable VarIndex="3" Expression="nCl4" Label="nCl4" Title="nCl4" Unit="" Internal="nCl4" Type="F" Min="0.00000000e+00" Max="1.20000000e+01"/>
    <Variable VarIndex="4" Expression="nCl8" Label="nCl8" Title="nCl8" Unit="" Internal="nCl8" Type="F" Min="0.00000000e+00" Max="1.00000000e+01"/>
    <Variable VarIndex="5" Expression="cl1Sum4" Label="cl1Sum4" Title="cl1Sum4" Unit="" Internal="cl1Sum4" Type="F" Min="0.00000000e+00" Max="3.07495239e+02"/>
    <Variable VarIndex="6" Expression="cl2Sum4" Label="cl2Sum4" Title="cl2Sum4" Unit="" Internal="cl2Sum4" Type="F" Min="0.00000000e+00" Max="1.15391327e+02"/>
    <Variable VarIndex="7" Expression="cl1Size4" Label="cl1Size4" Title="cl1Size4" Unit="" Internal="cl1Size4" Type="F" Min="0.00000000e+00" Max="1.30000000e+01"/>
    <Variable VarIndex="8" Expression="cl1MaxFrac4" Label="cl1MaxFrac4" Title="cl1MaxFrac4" Unit="" Internal="cl1MaxFrac4" Type="F" Min="0.00000000e+00" Max="1.00000000e+00"/>
    <Variable VarIndex="9" Expression="cl1RmsDeg4" Label="cl1RmsDeg4" Title="cl1RmsDeg4" Unit="" Internal="cl1RmsDeg4" Type="F" Min="0.00000000e+00" Max="3.91303520e+01"/>
    <Variable VarIndex="10" Expression="allRmsDeg" Label="allRmsDeg" Title="allRmsDeg" Unit="" Internal="allRmsDeg" Type="F" Min="0.00000000e+00" Max="1.14636612e+02"/>
    <Variable VarIndex="11" Expression="cl2OverCl1" Label="cl2OverCl1" Title="cl2OverCl1" Unit="" Internal="cl2OverCl1" Type="F" Min="0.00000000e+00" Max="1.00000000e+00"/>
    <Variable VarIndex="12" Expression="isolatedEFrac4" Label="isolatedEFrac4" Title="isolatedEFrac4" Unit="" Internal="isolatedEFrac4" Type="F" Min="0.00000000e+00" Max="1.00000000e+00"/>
    <Variable VarIndex="13" Expression="seed15NCl4" Label="seed15NCl4" Title="seed15NCl4" Unit="" Internal="seed15NCl4" Type="F" Min="0.00000000e+00" Max="1.10000000e+01"/>
    <Variable VarIndex="14" Expression="seed15Cl1Sum4" Label="seed15Cl1Sum4" Title="seed15Cl1Sum4" Unit="" Internal="seed15Cl1Sum4" Type="F" Min="0.00000000e+00" Max="3.07495239e+02"/>
    <Variable VarIndex="15" Expression="seed15Cl1Size4" Label="seed15Cl1Size4" Title="seed15Cl1Size4" Unit="" Internal="seed15Cl1Size4" Type="F" Min="0.00000000e+00" Max="1.30000000e+01"/>
    <Variable VarIndex="16" Expression="e2OverE1" Label="e2OverE1" Title="e2OverE1" Unit="" Internal="e2OverE1" Type="F" Min="0.00000000e+00" Max="1.00000000e+00"/>
    <Variable VarIndex="17" Expression="nHit2T" Label="nHit2T" Title="nHit2T" Unit="" Internal="nHit2T" Type="F" Min="0.00000000e+00" Max="1.30000000e+01"/>
    <Variable VarIndex="18" Expression="sum2T" Label="sum2T" Title="sum2T" Unit="" Internal="sum2T" Type="F" Min="0.00000000e+00" Max="3.72863586e+02"/>
    <Variable VarIndex="19" Expression="local3x3Frac" Label="local3x3Frac" Title="local3x3Frac" Unit="" Internal="local3x3Frac" Type="F" Min="0.00000000e+00" Max="1.00000000e+00"/>
    <Variable VarIndex="20" Expression="meanHitE" Label="meanHitE" Title="meanHitE" Unit="" Internal="meanHitE" Type="F" Min="0.00000000e+00" Max="2.11621155e+02"/>
    <Variable VarIndex="21" Expression="thetaSpan" Label="thetaSpan" Title="thetaSpan" Unit="" Internal="thetaSpan" Type="F" Min="0.00000000e+00" Max="1.50000000e+01"/>
    <Variable VarIndex="22" Expression="phiSpan" Label="phiSpan" Title="phiSpan" Unit="" Internal="phiSpan" Type="F" Min="0.00000000e+00" Max="1.40000000e+01"/>
    <Variable VarIndex="23" Expression="pcUpE_MeV" Label="pcUpE_MeV" Title="pcUpE_MeV" Unit="" Internal="pcUpE_MeV" Type="F" Min="0.00000000e+00" Max="3.64920349e+01"/>
  </Variables>
  <Spectators NSpec="0"/>
  <Classes NClass="2">
    <Class Name="Signal" Index="0"/>
    <Class Name="Background" Index="1"/>
  </Classes>
  <Transformations NTransformations="0"/>
  <MVAPdfs/>
  <Weights NTrees="800" AnalysisType="1">
    <BinaryTree type="DecisionTree" boostWeight="1.0000000000000000e+00" itree="0">
      <Node pos="s" depth="0" NCoef="0" IVar="10" Cut="4.1773391723632812e+01" cType="1" res="-2.4885041639208794e-03" rms="4.9999380111694336e-01" purity="4.9751150608062744e-01" nType="0">
        <Node pos="l" depth="1" NCoef="0" IVar="10" Cut="1.9356647491455078e+01" cType="1" res="4.7090211510658264e-01" rms="1.6808089613914490e-01" purity="9.7090214490890503e-01" nType="0">
          <Node pos="l" depth="2" NCoef="0" IVar="10" Cut="1.1799450874328613e+01" cType="1" res="4.7647988796234131e-01" rms="1.5154835581779480e-01" purity="9.7647988796234131e-01" nType="0">
            <Node pos="l" depth="3" NCoef="0" IVar="-1" Cut="0.0000000000000000e+00" cType="1" res="2.8634004294872284e-02" rms="1.4915856719017029e-01" purity="9.7723340988159180e-01" nType="-99"/>
            <Node pos="r" depth="3" NCoef="0" IVar="-1" Cut="0.0000000000000000e+00" cType="1" res="2.6587704196572304e-02" rms="2.3159711062908173e-01" purity="9.4312840700149536e-01" nType="-99"/>
          </Node>
          <Node pos="r" depth="2" NCoef="0" IVar="-1" Cut="0.0000000000000000e+00" cType="1" res="1.4399399980902672e-02" rms="4.3863970041275024e-01" purity="7.3998993635177612e-01" nType="-99"/>
        </Node>
        <Node pos="r" depth="1" NCoef="0" IVar="6" Cut="3.0422349929809570e+01" cType="1" res="-4.9721765518188477e-01" rms="5.2674598991870880e-02" purity="2.7823548298329115e-03" nType="0">
          <Node pos="l" depth="2" NCoef="0" IVar="-1" Cut="0.0000000000000000e+00" cType="1" res="-2.3176515474915504e-02" rms="3.1747666001319885e-01" purity="1.1372474581003189e-01" nType="-99"/>
          <Node pos="r" depth="2" NCoef="0" IVar="1" Cut="1.4901751708984375e+02" cType="1" res="-4.9989446997642517e-01" rms="1.0272557847201824e-02" purity="1.0553657193668187e-04" nType="0">
            <Node pos="l" depth="3" NCoef="0" IVar="-1" Cut="0.0000000000000000e+00" cType="1" res="-2.9757877811789513e-02" rms="6.3396200537681580e-02" purity="4.0353625081479549e-03" nType="-99"/>
            <Node pos="r" depth="3" NCoef="0" IVar="-1" Cut="0.0000000000000000e+00" cType="1" res="-2.9999999329447746e-02" rms="0.0000000000000000e+00" purity="0.0000000000000000e+00" nType="-99"/>
          </Node>
        </Node>
      </Node>
    </BinaryTree>
    <BinaryTree type="DecisionTree" boostWeight="1.0000000000000000e+00" itree="1">
      <Node pos="s" depth="0" NCoef="0" IVar="10" Cut="3.8988498687744141e+01" cType="1" res="-9.5712655456736684e-04" rms="4.8588055372238159e-01" purity="4.9899089336395264e-01" nType="0">
        <Node pos="l" depth="1" NCoef="0" IVar="10" Cut="1.7114852905273438e+01" cType="1" res="4.5946714282035828e-01" rms="1.6007459163665771e-01" purity="9.7361433506011963e-01" nType="0">
          <Node pos="l" depth="2" NCoef="0" IVar="0" Cut="2.1319227218627930e+01" cType="1" res="4.6437984704971313e-01" rms="1.4446589350700378e-01" purity="9.7867393493652344e-01" nType="0">
            <Node pos="l" depth="3" NCoef="0" IVar="-1" Cut="0.0000000000000000e+00" cType="1" res="2.8668964281678200e-02" rms="9.0718358755111694e-02" purity="9.9170088768005371e-01" nType="-99"/>
            <Node pos="r" depth="3" NCoef="0" IVar="-1" Cut="0.0000000000000000e+00" cType="1" res="2.7821639552712440e-02" rms="1.4794316887855530e-01" purity="9.7761052846908569e-01" nType="-99"/>
          </Node>
          <Node pos="r" depth="2" NCoef="0" IVar="-1" Cut="0.0000000000000000e+00" cType="1" res="1.5266616828739643e-02" rms="4.2543941736221313e-01" purity="7.6238888502120972e-01" nType="-99"/>
        </Node>
        <Node pos="r" depth="1" NCoef="0" IVar="1" Cut="1.4374008178710938e+02" cType="1" res="-4.8140913248062134e-01" rms="6.0370024293661118e-02" purity="3.7221033126115799e-03" nType="0">
          <Node pos="l" depth="2" NCoef="0" IVar="-1" Cut="0.0000000000000000e+00" cType="1" res="-1.9360478967428207e-02" rms="3.6990901827812195e-01" purity="1.6614918410778046e-01" nType="-99"/>
          <Node pos="r" depth="2" NCoef="0" IVar="11" Cut="2.7112713456153870e-01" cType="1" res="-4.8505175113677979e-01" rms="4.1911515290848911e-04" purity="0.0000000000000000e+00" nType="0">
            <Node pos="l" depth="3" NCoef="0" IVar="-1" Cut="0.0000000000000000e+00" cType="1" res="-2.9171349480748177e-02" rms="1.4870137674733996e-03" purity="0.0000000000000000e+00" nType="-99"/>
            <Node pos="r" depth="3" NCoef="0" IVar="-1" Cut="0.0000000000000000e+00" cType="1" res="-2.9126636683940887e-02" rms="1.3832241529598832e-04" purity="0.0000000000000000e+00" nType="-99"/>
          </Node>
        </Node>
      </Node>
    </BinaryTree>
    <BinaryTree type="DecisionTree" boostWeight="1.0000000000000000e+00" itree="2">
      <Node pos="s" depth="0" NCoef="0" IVar="10" Cut="4.1773391723632812e+01" cType="1" res="9.8105298820883036e-04" rms="4.7226998209953308e-01" purity="5.0102818012237549e-01" nType="0">
        <Node pos="l" depth="1" NCoef="0" IVar="10" Cut="2.2413837432861328e+01" cType="1" res="4.4383680820465088e-01" rms="1.6549035906791687e-01" purity="9.7165513038635254e-01" nType="0">
          <Node pos="l" depth="2" NCoef="0" IVar="10" Cut="1.2572036743164062e+01" cType="1" res="4.4785809516906738e-01" rms="1.5306773781776428e-01" purity="9.7597414255142212e-01" nType="0">
            <Node pos="l" depth="3" NCoef="0" IVar="-1" Cut="0.0000000000000000e+00" cType="1" res="2.7028027921915054e-02" rms="1.4908908307552338e-01" purity="9.7725391387939453e-01" nType="-99"/>
            <Node pos="r" depth="3" NCoef="0" IVar="-1" Cut="0.0000000000000000e+00" cType="1" res="2.3435702547430992e-02" rms="2.8197187185287476e-01" purity="9.1260564327239990e-01" nType="-99"/>
          </Node>
          <Node pos="r" depth="2" NCoef="0" IVar="-1" Cut="0.0000000000000000e+00" cType="1" res="1.4534315094351768e-02" rms="4.2946067452430725e-01" purity="7.5492554903030396e-01" nType="-99"/>
        </Node>
        <Node pos="r" depth="1" NCoef="0" IVar="6" Cut="3.0414323806762695e+01" cType="1" res="-4.6791508793830872e-01" rms="5.1753547042608261e-02" purity="2.7279797941446304e-03" nType="0">
          <Node pos="l" depth="2" NCoef="0" IVar="-1" Cut="0.0000000000000000e+00" cType="1" res="-2.1741230040788651e-02" rms="3.1690144538879395e-01" purity="1.1416083574295044e-01" nType="-99"/>
          <Node pos="r" depth="2" NCoef="0" IVar="0" Cut="5.9031841278076172e+01" cType="1" res="-4.7035399079322815e-01" rms="1.3150476850569248e-02" purity="1.7440586816519499e-04" nType="0">
            <Node pos="l" depth="3" NCoef="0" IVar="-1" Cut="0.0000000000000000e+00" cType="1" res="-2.7975777164101601e-02" rms="7.8612960875034332e-02" purity="6.2736519612371922e-03" nType="-99"/>
            <Node pos="r" depth="3" NCoef="0" IVar="-1" Cut="0.0000000000000000e+00" cType="1" res="-2.8329495340585709e-02" rms="4.6929548261687160e-04" purity="0.0000000000000000e+00" nType="-99"/>
          </Node>
        </Node>
      </Node>
    </BinaryTree>
    <BinaryTree type="DecisionTree" boostWeight="1.0000000000000000e+00" itree="3">
      <Node pos="s" depth="0" NCoef="0" IVar="6" Cut="1.5924798965454102e+01" cType="1" res="-1.8903051968663931e-03" rms="4.5920550823211670e-01" purity="4.9808436632156372e-01" nType="0">
        <Node pos="l" depth="1" NCoef="0" IVar="10" Cut="2.2763008117675781e+01" cType="1" res="4.2719984054565430e-01" rms="1.7456914484500885e-01" purity="9.6802771091461182e-01" nType="0">
          <Node pos="l" depth="2" NCoef="0" IVar="10" Cut="1.2208890914916992e+01" cType="1" res="4.3220502138137817e-01" rms="1.5983588993549347e-01" purity="9.7374409437179565e-01" nType="0">
            <Node pos="l" depth="3" NCoef="0" IVar="-1" Cut="0.0000000000000000e+00" cType="1" res="2.6178514584898949e-02" rms="1.5627144277095795e-01" purity="9.7495049238204956e-01" nType="-99"/>
            <Node pos="r" depth="3" NCoef="0" IVar="-1" Cut="0.0000000000000000e+00" cType="1" res="2.2960515692830086e-02" rms="2.7730965614318848e-01" purity="9.1586196422576904e-01" nType="-99"/>
          </Node>
          <Node pos="r" depth="2" NCoef="0" IVar="-1" Cut="0.0000000000000000e+00" cType="1" res="1.1672332882881165e-02" rms="4.5215037465095520e-01" purity="7.0177584886550903e-01" nType="-99"/>
        </Node>
        <Node pos="r" depth="1" NCoef="0" IVar="18" Cut="1.4146595764160156e+02" cType="1" res="-4.5344540476799011e-01" rms="5.5224467068910599e-02" purity="3.5371826961636543e-03" nType="0">
          <Node pos="l" depth="2" NCoef="0" IVar="-1" Cut="0.0000000000000000e+00" cType="1" res="-2.0642422139644623e-02" rms="3.1860393285751343e-01" purity="1.3259720802307129e-01" nType="-99"/>
          <Node pos="r" depth="2" NCoef="0" IVar="11" Cut="2.6253029704093933e-01" cType="1" res="-4.5649802684783936e-01" rms="1.3921081554144621e-03" purity="0.0000000000000000e+00" nType="0">
            <Node pos="l" depth="3" NCoef="0" IVar="-1" Cut="0.0000000000000000e+00" cType="1" res="-2.7707554399967194e-02" rms="4.5044603757560253e-03" purity="0.0000000000000000e+00" nType="-99"/>
            <Node pos="r" depth="3" NCoef="0" IVar="-1" Cut="0.0000000000000000e+00" cType="1" res="-2.7594642713665962e-02" rms="1.0086146648973227e-03" purity="0.0000000000000000e+00" nType="-99"/>
          </Node>
        </Node>
      </Node>
    </BinaryTree>
    <BinaryTree type="DecisionTree" boostWeight="1.0000000000000000e+00" itree="4">
      <Node pos="s" depth="0" NCoef="0" IVar="10" Cut="3.9607139587402344e+01" cType="1" res="-9.3662907602265477e-04" rms="4.4627326726913452e-01" purity="4.9887049198150635e-01" nType="0">
        <Node pos="l" depth="1" NCoef="0" IVar="10" Cut="1.9320323944091797e+01" cType="1" res="4.1903170943260193e-01" rms="1.6130818426609039e-01" purity="9.7296619415283203e-01" nType="0">
          <Node pos="l" depth="2" NCoef="0" IVar="10" Cut="1.1778921127319336e+01" cType="1" res="4.2297485470771790e-01" rms="1.4834773540496826e-01" purity="9.7746264934539795e-01" nType="0">
            <Node pos="l" depth="3" NCoef="0" IVar="-1" Cut="0.0000000000000000e+00" cType="1" res="2.5732824578881264e-02" rms="1.4546902477741241e-01" purity="9.7836744785308838e-01" nType="-99"/>
            <Node pos="r" depth="3" NCoef="0" IVar="-1" Cut="0.0000000000000000e+00" cType="1" res="2.3502903059124947e-02" rms="2.4164155125617981e-01" purity="9.3719238042831421e-01" nType="-99"/>
          </Node>
          <Node pos="r" depth="2" NCoef="0" IVar="-1" Cut="0.0000000000000000e+00" cType="1" res="1.4298358932137489e-02" rms="4.2085474729537964e-01" purity="7.6594787836074829e-01" nType="-99"/>
        </Node>
        <Node pos="r" depth="1" NCoef="0" IVar="1" Cut="1.4492869567871094e+02" cType="1" res="-4.3999350070953369e-01" rms="5.4845463484525681e-02" purity="3.2261230517178774e-03" nType="0">
          <Node pos="l" depth="2" NCoef="0" IVar="-1" Cut="0.0000000000000000e+00" cType="1" res="-1.9224720075726509e-02" rms="3.4023642539978027e-01" purity="1.4056925475597382e-01" nType="-99"/>
          <Node pos="r" depth="2" NCoef="0" IVar="11" Cut="2.5486832857131958e-01" cType="1" res="-4.4286039471626282e-01" rms="1.1793966405093670e-03" purity="0.0000000000000000e+00" nType="0">
            <Node pos="l" depth="3" NCoef="0" IVar="-1" Cut="0.0000000000000000e+00" cType="1" res="-2.7104644104838371e-02" rms="5.2001406438648701e-03" purity="0.0000000000000000e+00" nType="-99"/>
            <Node pos="r" depth="3" NCoef="0" IVar="-1" Cut="0.0000000000000000e+00" cType="1" res="-2.6918334886431694e-02" rms="5.4077809909358621e-04" purity="0.0000000000000000e+00" nType="-99"/>
          </Node>
        </Node>
      </Node>
    </BinaryTree>
    <BinaryTree type="DecisionTree" boostWeight="1.0000000000000000e+00" itree="5">
      <Node pos="s" depth="0" NCoef="0" IVar="10" Cut="4.1940223693847656e+01" cType="1" res="-3.8999156095087528e-04" rms="4.3396198749542236e-01" purity="4.9950245022773743e-01" nType="0">
        <Node pos="l" depth="1" NCoef="0" IVar="10" Cut="2.1479393005371094e+01" cType="1" res="4.0541586279869080e-01" rms="1.6439554095268250e-01" purity="9.7171950340270996e-01" nType="0">
          <Node pos="l" depth="2" NCoef="0" IVar="10" Cut="1.2047957420349121e+01" cType="1" res="4.0992715954780579e-01" rms="1.4983431994915009e-01" purity="9.7697442770004272e-01" nType="0">
            <Node pos="l" depth="3" NCoef="0" IVar="-1" Cut="0.0000000000000000e+00" cType="1" res="2.5109432637691498e-02" rms="1.4607742428779602e-01" purity="9.7817641496658325e-01" nType="-99"/>
            <Node pos="r" depth="3" NCoef="0" IVar="-1" Cut="0.0000000000000000e+00" cType="1" res="2.2183749824762344e-02" rms="2.6672416925430298e-01" purity="9.2207950353622437e-01" nType="-99"/>
          </Node>
          <Node pos="r" depth="2" NCoef="0" IVar="-1" Cut="0.0000000000000000e+00" cType="1" res="1.1606375686824322e-02" rms="4.4344386458396912e-01" purity="7.2378176450729370e-01" nType="-99"/>
        </Node>
        <Node pos="r" depth="1" NCoef="0" IVar="18" Cut="1.3917343139648438e+02" cType="1" res="-4.2749708890914917e-01" rms="4.8412553966045380e-02" purity="2.4982101749628782e-03" nType="0">
          <Node pos="l" depth="2" NCoef="0" IVar="-1" Cut="0.0000000000000000e+00" cType="1" res="-1.9921060651540756e-02" rms="3.1706127524375916e-01" purity="1.1800119280815125e-01" nType="-99"/>
          <Node pos="r" depth="2" NCoef="0" IVar="6" Cut="3.2785137176513672e+01" cType="1" res="-4.2964872717857361e-01" rms="1.2190854176878929e-03" purity="0.0000000000000000e+00" nType="0">
            <Node pos="l" depth="3" NCoef="0" IVar="-1" Cut="0.0000000000000000e+00" cType="1" res="-2.6472112163901329e-02" rms="4.8725190572440624e-03" purity="0.0000000000000000e+00" nType="-99"/>
            <Node pos="r" depth="3" NCoef="0" IVar="-1" Cut="0.0000000000000000e+00" cType="1" res="-2.6294477283954620e-02" rms="6.2201078981161118e-04" purity="0.0000000000000000e+00" nType="-99"/>
          </Node>
        </Node>
      </Node>
    </BinaryTree>
    <BinaryTree type="DecisionTree" boostWeight="1.0000000000000000e+00" itree="6">
      <Node pos="s" depth="0" NCoef="0" IVar="6" Cut="1.5118382453918457e+01" cType="1" res="7.8153848880901933e-04" rms="4.2199331521987915e-01" purity="5.0073409080505371e-01" nType="0">
        <Node pos="l" depth="1" NCoef="0" IVar="10" Cut="2.2393714904785156e+01" cType="1" res="3.9454472064971924e-01" rms="1.6110834479331970e-01" purity="9.7256219387054443e-01" nType="0">
          <Node pos="l" depth="2" NCoef="0" IVar="10" Cut="1.2007950782775879e+01" cType="1" res="3.9836302399635315e-01" rms="1.4752982556819916e-01" purity="9.7771048545837402e-01" nType="0">
            <Node pos="l" depth="3" NCoef="0" IVar="-1" Cut="0.0000000000000000e+00" cType="1" res="2.4569554254412651e-02" rms="1.4434473216533661e-01" purity="9.7871065139770508e-01" nType="-99"/>
            <Node pos="r" depth="3" NCoef="0" IVar="-1" Cut="0.0000000000000000e+00" cType="1" res="2.2380912676453590e-02" rms="2.4659731984138489e-01" purity="9.3454438447952271e-01" nType="-99"/>
          </Node>
          <Node pos="r" depth="2" NCoef="0" IVar="-1" Cut="0.0000000000000000e+00" cType="1" res="1.3329388573765755e-02" rms="4.3120667338371277e-01" purity="7.3804932832717896e-01" nType="-99"/>
        </Node>
        <Node pos="r" depth="1" NCoef="0" IVar="1" Cut="1.4454936218261719e+02" cType="1" res="-4.1400456428527832e-01" rms="5.4291505366563797e-02" purity="3.7151204887777567e-03" nType="0">
          <Node pos="l" depth="2" NCoef="0" IVar="-1" Cut="0.0000000000000000e+00" cType="1" res="-1.8242552876472473e-02" rms="3.3141949772834778e-01" purity="1.5574702620506287e-01" nType="-99"/>
          <Node pos="r" depth="2" NCoef="0" IVar="6" Cut="3.2466850280761719e+01" cType="1" res="-4.1681340336799622e-01" rms="2.1846485324203968e-03" purity="0.0000000000000000e+00" nType="0">
            <Node pos="l" depth="3" NCoef="0" IVar="-1" Cut="0.0000000000000000e+00" cType="1" res="-2.5909008458256721e-02" rms="8.2791978493332863e-03" purity="0.0000000000000000e+00" nType="-99"/>
            <Node pos="r" depth="3" NCoef="0" IVar="-1" Cut="0.0000000000000000e+00" cType="1" res="-2.5716682896018028e-02" rms="1.6757039120420814e-03" purity="0.0000000000000000e+00" nType="-99"/>
          </Node>
        </Node>
      </Node>
    </BinaryTree>
    <BinaryTree type="DecisionTree" boostWeight="1.0000000000000000e+00" itree="7">
      <Node pos="s" depth="0" NCoef="0" IVar="6" Cut="1.6886535644531250e+01" cType="1" res="-5.5594299919903278e-04" rms="4.1024264693260193e-01" purity="4.9916180968284607e-01" nType="0">
        <Node pos="l" depth="1" NCoef="0" IVar="10" Cut="2.2303812026977539e+01" cType="1" res="3.8281896710395813e-01" rms="1.6036486625671387e-01" purity="9.7269999980926514e-01" nType="0">
          <Node pos="l" depth="2" NCoef="0" IVar="18" Cut="1.0115192413330078e+02" cType="1" res="3.8677409291267395e-01" rms="1.4653922617435455e-01" purity="9.7801411151885986e-01" nType="0">
            <Node pos="l" depth="3" NCoef="0" IVar="-1" Cut="0.0000000000000000e+00" cType="1" res="2.4225184693932533e-02" rms="1.3451598584651947e-01" purity="9.8154109716415405e-01" nType="-99"/>
            <Node pos="r" depth="3" NCoef="0" IVar="-1" Cut="0.0000000000000000e+00" cType="1" res="2.3304983973503113e-02" rms="1.7926010489463806e-01" purity="9.6671259403228760e-01" nType="-99"/>
          </Node>
          <Node pos="r" depth="2" NCoef="0" IVar="-1" Cut="0.0000000000000000e+00" cType="1" res="1.1581437662243843e-02" rms="4.4008561968803406e-01" purity="7.1551227569580078e-01" nType="-99"/>
        </Node>
        <Node pos="r" depth="1" NCoef="0" IVar="0" Cut="5.7663314819335938e+01" cType="1" res="-4.0241053700447083e-01" rms="4.6967007219791412e-02" purity="2.7977819554507732e-03" nType="0">
          <Node pos="l" depth="2" NCoef="0" IVar="-1" Cut="0.0000000000000000e+00" cType="1" res="-2.1042259410023689e-02" rms="2.4534626305103302e-01" purity="8.1219062209129333e-02" nType="-99"/>
          <Node pos="r" depth="2" NCoef="0" IVar="10" Cut="4.9624275207519531e+01" cType="1" res="-4.0422219038009644e-01" rms="2.0245164632797241e-02" purity="5.2661140216514468e-04" nType="0">
            <Node pos="l" depth="3" NCoef="0" IVar="-1" Cut="0.0000000000000000e+00" cType="1" res="-2.4605045095086098e-02" rms="1.0385188460350037e-01" purity="1.4108103699982166e-02" nType="-99"/>
            <Node pos="r" depth="3" NCoef="0" IVar="-1" Cut="0.0000000000000000e+00" cType="1" res="-2.5191381573677063e-02" rms="2.1801099646836519e-03" purity="0.0000000000000000e+00" nType="-99"/>
          </Node>
        </Node>
      </Node>
    </BinaryTree>
    <BinaryTree type="DecisionTree" boostWeight="1.0000000000000000e+00" itree="8">
      <Node pos="s" depth="0" NCoef="0" IVar="6" Cut="1.5924798965454102e+01" cType="1" res="5.8519741287454963e-04" rms="3.9912828803062439e-01" purity="5.0060617923736572e-01" nType="0">
        <Node pos="l" depth="1" NCoef="0" IVar="10" Cut="2.0182939529418945e+01" cType="1" res="3.7116724252700806e-01" rms="1.6089722514152527e-01" purity="9.7247880697250366e-01" nType="0">
          <Node pos="l" depth="2" NCoef="0" IVar="5" Cut="9.4205680847167969e+01" cType="1" res="3.7558495998382568e-01" rms="1.4505892992019653e-01" purity="9.7847443819046021e-01" nType="0">
            <Node pos="l" depth="3" NCoef="0" IVar="-1" Cut="0.0000000000000000e+00" cType="1" res="2.3715769872069359e-02" rms="1.3472443819046021e-01" purity="9.8149073123931885e-01" nType="-99"/>
            <Node pos="r" depth="3" NCoef="0" IVar="-1" Cut="0.0000000000000000e+00" cType="1" res="2.3130927234888077e-02" rms="1.6517789661884308e-01" purity="9.7190243005752563e-01" nType="-99"/>
          </Node>
          <Node pos="r" depth="2" NCoef="0" IVar="-1" Cut="0.0000000000000000e+00" cType="1" res="1.1454219929873943e-02" rms="4.3803894519805908e-01" purity="7.2495102882385254e-01" nType="-99"/>
        </Node>
        <Node pos="r" depth="1" NCoef="0" IVar="18" Cut="1.3887014770507812e+02" cType="1" res="-3.8997760415077209e-01" rms="5.1355194300413132e-02" purity="3.2914585899561644e-03" nType="0">
          <Node pos="l" depth="2" NCoef="0" IVar="-1" Cut="0.0000000000000000e+00" cType="1" res="-1.7466418445110321e-02" rms="3.2781335711479187e-01" purity="1.4876908063888550e-01" nType="-99"/>
          <Node pos="r" depth="2" NCoef="0" IVar="6" Cut="3.1821910858154297e+01" cType="1" res="-3.9236187934875488e-01" rms="5.5945385247468948e-03" purity="3.5053493775194511e-05" nType="0">
            <Node pos="l" depth="3" NCoef="0" IVar="-1" Cut="0.0000000000000000e+00" cType="1" res="-2.4803731590509415e-02" rms="3.4945275634527206e-02" purity="1.5541971661150455e-03" nType="-99"/>
            <Node pos="r" depth="3" NCoef="0" IVar="-1" Cut="0.0000000000000000e+00" cType="1" res="-2.4682877585291862e-02" rms="1.8871859647333622e-03" purity="0.0000000000000000e+00" nType="-99"/>
          </Node>
        </Node>
      </Node>
    </BinaryTree>
    <BinaryTree type="DecisionTree" boostWeight="1.0000000000000000e+00" itree="9">
      <Node pos="s" depth="0" NCoef="0" IVar="6" Cut="1.6886535644531250e+01" cType="1" res="-1.2693410972133279e-03" rms="3.8854092359542847e-01" purity="4.9847882986068726e-01" nType="0">
        <Node pos="l" depth="1" NCoef="0" IVar="21" Cut="4.0243902206420898e+00" cType="1" res="3.5812950134277344e-01" rms="1.6674575209617615e-01" purity="9.7039943933486938e-01" nType="0">
          <Node pos="l" depth="2" NCoef="0" IVar="1" Cut="2.9975257873535156e+01" cType="1" res="3.6229935288429260e-01" rms="1.5293523669242859e-01" purity="9.7594857215881348e-01" nType="0">
            <Node pos="l" depth="3" NCoef="0" IVar="-1" Cut="0.0000000000000000e+00" cType="1" res="2.3896904662251472e-02" rms="9.4200335443019867e-02" purity="9.9101728200912476e-01" nType="-99"/>
            <Node pos="r" depth="3" NCoef="0" IVar="-1" Cut="0.0000000000000000e+00" cType="1" res="2.2822547703981400e-02" rms="1.5783853828907013e-01" purity="9.7433793544769287e-01" nType="-99"/>
          </Node>
          <Node pos="r" depth="2" NCoef="0" IVar="-1" Cut="0.0000000000000000e+00" cType="1" res="1.1916709132492542e-02" rms="4.1695758700370789e-01" purity="7.5217211246490479e-01" nType="-99"/>
        </Node>
        <Node pos="r" depth="1" NCoef="0" IVar="18" Cut="1.3959219360351562e+02" cType="1" res="-3.7877750396728516e-01" rms="4.6274334192276001e-02" purity="2.7792423497885466e-03" nType="0">
          <Node pos="l" depth="2" NCoef="0" IVar="-1" Cut="0.0000000000000000e+00" cType="1" res="-1.8059290945529938e-02" rms="3.0663502216339111e-01" purity="1.3242141902446747e-01" nType="-99"/>
          <Node pos="r" depth="2" NCoef="0" IVar="6" Cut="3.3719024658203125e+01" cType="1" res="-3.8064804673194885e-01" rms="2.1947335917502642e-03" purity="0.0000000000000000e+00" nType="0">
            <Node pos="l" depth="3" NCoef="0" IVar="-1" Cut="0.0000000000000000e+00" cType="1" res="-2.4307804182171822e-02" rms="6.4134909771382809e-03" purity="0.0000000000000000e+00" nType="-99"/>
            <Node pos="r" depth="3" NCoef="0" IVar="-1" Cut="0.0000000000000000e+00" cType="1" res="-2.4215528741478920e-02" rms="1.7429267754778266e-03" purity="0.0000000000000000e+00" nType="-99"/>
          </Node>
        </Node>
      </Node>
    </BinaryTree>
    <BinaryTree type="DecisionTree" boostWeight="1.0000000000000000e+00" itree="10">
      <Node pos="s" depth="0" NCoef="0" IVar="10" Cut="3.9144210815429688e+01" cType="1" res="1.0523887613089755e-04" rms="3.7776771187782288e-01" purity="5.0014996528625488e-01" nType="0">
        <Node pos="l" depth="1" NCoef="0" IVar="10" Cut="1.8139045715332031e+01" cType="1" res="3.4980037808418274e-01" rms="1.5919971466064453e-01" purity="9.7326862812042236e-01" nType="0">
          <Node pos="l" depth="2" NCoef="0" IVar="1" Cut="2.9975257873535156e+01" cType="1" res="3.5315719246864319e-01" rms="1.4714293181896210e-01" purity="9.7782343626022339e-01" nType="0">
            <Node pos="l" depth="3" NCoef="0" IVar="-1" Cut="0.0000000000000000e+00" cType="1" res="2.3371513932943344e-02" rms="9.6035450696945190e-02" purity="9.9068695306777954e-01" nType="-99"/>
            <Node pos="r" depth="3" NCoef="0" IVar="-1" Cut="0.0000000000000000e+00" cType="1" res="2.2511526942253113e-02" rms="1.5166534483432770e-01" purity="9.7640752792358398e-01" nType="-99"/>
          </Node>
          <Node pos="r" depth="2" NCoef="0" IVar="-1" Cut="0.0000000000000000e+00" cType="1" res="1.1885172687470913e-02" rms="4.1483834385871887e-01" purity="7.6166278123855591e-01" nType="-99"/>
        </Node>
        <Node pos="r" depth="1" NCoef="0" IVar="0" Cut="5.5655467987060547e+01" cType="1" res="-3.6712345480918884e-01" rms="5.1787063479423523e-02" purity="3.3094296231865883e-03" nType="0">
          <Node pos="l" depth="2" NCoef="0" IVar="-1" Cut="0.0000000000000000e+00" cType="1" res="-1.6472913324832916e-02" rms="3.1357339024543762e-01" purity="1.3677325844764709e-01" nType="-99"/>
          <Node pos="r" depth="2" NCoef="0" IVar="18" Cut="1.4592272949218750e+02" cType="1" res="-3.6953568458557129e-01" rms="1.5752855688333511e-02" purity="2.7913978556171060e-04" nType="0">
            <Node pos="l" depth="3" NCoef="0" IVar="-1" Cut="0.0000000000000000e+00" cType="1" res="-2.3994766175746918e-02" rms="7.8579299151897430e-02" purity="7.1091740392148495e-03" nType="-99"/>
            <Node pos="r" depth="3" NCoef="0" IVar="-1" Cut="0.0000000000000000e+00" cType="1" res="-2.3779865354299545e-02" rms="1.7788537079468369e-03" purity="0.0000000000000000e+00" nType="-99"/>
          </Node>
        </Node>
      </Node>
    </BinaryTree>
    <BinaryTree type="DecisionTree" boostWeight="1.0000000000000000e+00" itree="11">
      <Node pos="s" depth="0" NCoef="0" IVar="10" Cut="3.6348194122314453e+01" cType="1" res="1.6606543213129044e-03" rms="3.6796182394027710e-01" purity="5.0239330530166626e-01" nType="0">
        <Node pos="l" depth="1" NCoef="0" IVar="10" Cut="1.5070658683776855e+01" cType="1" res="3.3905747532844543e-01" rms="1.6051869094371796e-01" purity="9.7297573089599609e-01" nType="0">
          <Node pos="l" depth="2" NCoef="0" IVar="20" Cut="7.4871635437011719e+01" cType="1" res="3.4177193045616150e-01" rms="1.4962166547775269e-01" purity="9.7708082199096680e-01" nType="0">
            <Node pos="l" depth="3" NCoef="0" IVar="-1" Cut="0.0000000000000000e+00" cType="1" res="2.2244747728109360e-02" rms="1.4382417500019073e-01" purity="9.7885966300964355e-01" nType="-99"/>
            <Node pos="r" depth="3" NCoef="0" IVar="-1" Cut="0.0000000000000000e+00" cType="1" res="2.1423649042844772e-02" rms="1.8056409060955048e-01" purity="9.6625369787216187e-01" nType="-99"/>
          </Node>
          <Node pos="r" depth="2" NCoef="0" IVar="-1" Cut="0.0000000000000000e+00" cType="1" res="1.4998286962509155e-02" rms="3.7012663483619690e-01" purity="8.2609295845031738e-01" nType="-99"/>
        </Node>
        <Node pos="r" depth="1" NCoef="0" IVar="18" Cut="1.3641351318359375e+02" cType="1" res="-3.5511356592178345e-01" rms="6.0493543744087219e-02" purity="4.7844150103628635e-03" nType="0">
          <Node pos="l" depth="2" NCoef="0" IVar="-1" Cut="0.0000000000000000e+00" cType="1" res="-1.2434327043592930e-02" rms="3.8667544722557068e-01" purity="2.2828565537929535e-01" nType="-99"/>
          <Node pos="r" depth="2" NCoef="0" IVar="18" Cut="1.4794819641113281e+02" cType="1" res="-3.5843849182128906e-01" rms="3.1038944143801928e-03" purity="0.0000000000000000e+00" nType="0">
            <Node pos="l" depth="3" NCoef="0" IVar="-1" Cut="0.0000000000000000e+00" cType="1" res="-2.3551179096102715e-02" rms="1.2078411877155304e-02" purity="0.0000000000000000e+00" nType="-99"/>
            <Node pos="r" depth="3" NCoef="0" IVar="-1" Cut="0.0000000000000000e+00" cType="1" res="-2.3373633623123169e-02" rms="1.5930982772260904e-03" purity="0.0000000000000000e+00" nType="-99"/>
          </Node>
        </Node>
      </Node>
    </BinaryTree>
    <BinaryTree type="DecisionTree" boostWeight="1.0000000000000000e+00" itree="12">
      <Node pos="s" depth="0" NCoef="0" IVar="6" Cut="1.7641170501708984e+01" cType="1" res="7.9434440704062581e-04" rms="3.5783436894416809e-01" purity="5.0097864866256714e-01" nType="0">
        <Node pos="l" depth="1" NCoef="0" IVar="21" Cut="5.1219511032104492e+00" cType="1" res="3.2855564355850220e-01" rms="1.6179625689983368e-01" purity="9.7160035371780396e-01" nType="0">
          <Node pos="l" depth="2" NCoef="0" IVar="6" Cut="6.4410328865051270e+00" cType="1" res="3.3229580521583557e-01" rms="1.4903455972671509e-01" purity="9.7702497243881226e-01" nType="0">
            <Node pos="l" depth="3" NCoef="0" IVar="-1" Cut="0.0000000000000000e+00" cType="1" res="2.1818637847900391e-02" rms="1.4616014063358307e-01" purity="9.7809523344039917e-01" nType="-99"/>
            <Node pos="r" depth="3" NCoef="0" IVar="-1" Cut="0.0000000000000000e+00" cType="1" res="1.9440816715359688e-02" rms="2.5036162137985229e-01" purity="9.2474508285522461e-01" nType="-99"/>
          </Node>
          <Node pos="r" depth="2" NCoef="0" IVar="-1" Cut="0.0000000000000000e+00" cType="1" res="8.7967356666922569e-03" rms="4.3402263522148132e-01" purity="7.0136016607284546e-01" nType="-99"/>
        </Node>
        <Node pos="r" depth="1" NCoef="0" IVar="6" Cut="3.2271411895751953e+01" cType="1" res="-3.4690922498703003e-01" rms="3.5345491021871567e-02" purity="1.7225113697350025e-03" nType="0">
          <Node pos="l" depth="2" NCoef="0" IVar="-1" Cut="0.0000000000000000e+00" cType="1" res="-2.0498229190707207e-02" rms="1.9329638779163361e-01" purity="5.3998049348592758e-02" nType="-99"/>
          <Node pos="r" depth="2" NCoef="0" IVar="1" Cut="1.5012228393554688e+02" cType="1" res="-3.4784403443336487e-01" rms="1.2304289266467094e-02" purity="1.7734254652168602e-04" nType="0">
            <Node pos="l" depth="3" NCoef="0" IVar="-1" Cut="0.0000000000000000e+00" cType="1" res="-2.3223059251904488e-02" rms="6.7901335656642914e-02" purity="5.6552859023213387e-03" nType="-99"/>
            <Node pos="r" depth="3" NCoef="0" IVar="-1" Cut="0.0000000000000000e+00" cType="1" res="-2.2990828379988670e-02" rms="2.0832968875765800e-03" purity="0.0000000000000000e+00" nType="-99"/>
          </Node>
        </Node>
      </Node>
    </BinaryTree>
    <BinaryTree type="DecisionTree" boostWeight="1.0000000000000000e+00" itree="13">
      <Node pos="s" depth="0" NCoef="0" IVar="10" Cut="3.6348194122314453e+01" cType="1" res="2.1841272246092558e-03" rms="3.4860050678253174e-01" purity="5.0316566228866577e-01" nType="0">
        <Node pos="l" depth="1" NCoef="0" IVar="10" Cut="1.8616695404052734e+01" cType="1" res="3.1999006867408752e-01" rms="1.5789464116096497e-01" purity="9.7377920150756836e-01" nType="0">
          <Node pos="l" depth="2" NCoef="0" IVar="1" Cut="3.2748607635498047e+01" cType="1" res="3.2229423522949219e-01" rms="1.4834903180599213e-01" purity="9.7743636369705200e-01" nType="0">
            <Node pos="l" depth="3" NCoef="0" IVar="-1" Cut="0.0000000000000000e+00" cType="1" res="2.2173358127474785e-02" rms="9.9782153964042664e-02" purity="9.8993617296218872e-01" nType="-99"/>
            <Node pos="r" depth="3" NCoef="0" IVar="-1" Cut="0.0000000000000000e+00" cType="1" res="2.1305005997419357e-02" rms="1.5331685543060303e-01" purity="9.7586423158645630e-01" nType="-99"/>
          </Node>
          <Node pos="r" depth="2" NCoef="0" IVar="-1" Cut="0.0000000000000000e+00" cType="1" res="1.3024249114096165e-02" rms="3.9074021577835083e-01" purity="7.9835838079452515e-01" nType="-99"/>
        </Node>
        <Node pos="r" depth="1" NCoef="0" IVar="6" Cut="3.0360204696655273e+01" cType="1" res="-3.3430019021034241e-01" rms="6.0270186513662338e-02" purity="4.8928400501608849e-03" nType="0">
          <Node pos="l" depth="2" NCoef="0" IVar="-1" Cut="0.0000000000000000e+00" cType="1" res="-1.3240733183920383e-02" rms="3.5698342323303223e-01" purity="1.9490644335746765e-01" nType="-99"/>
          <Node pos="r" depth="2" NCoef="0" IVar="1" Cut="1.4872581481933594e+02" cType="1" res="-3.3754113316535950e-01" rms="6.7946882918477058e-03" purity="3.5337467124918476e-05" nType="0">
            <Node pos="l" depth="3" NCoef="0" IVar="-1" Cut="0.0000000000000000e+00" cType="1" res="-2.3104000836610794e-02" rms="3.9624817669391632e-02" purity="1.3857011217623949e-03" nType="-99"/>
            <Node pos="r" depth="3" NCoef="0" IVar="-1" Cut="0.0000000000000000e+00" cType="1" res="-2.2630782797932625e-02" rms="1.1126106837764382e-03" purity="0.0000000000000000e+00" nType="-99"/>
          </Node>
        </Node>
      </Node>
    </BinaryTree>
    <BinaryTree type="DecisionTree" boostWeight="1.0000000000000000e+00" itree="14">
      <Node pos="s" depth="0" NCoef="0" IVar="10" Cut="4.1940223693847656e+01" cType="1" res="1.6236292431131005e-03" rms="3.3944514393806458e-01" purity="5.0230956077575684e-01" nType="0">
        <Node pos="l" depth="1" NCoef="0" IVar="10" Cut="1.8412322998046875e+01" cType="1" res="3.0931067466735840e-01" rms="1.6166777908802032e-01" purity="9.7196537256240845e-01" nType="0">
          <Node pos="l" depth="2" NCoef="0" IVar="0" Cut="3.7028717041015625e+01" cType="1" res="3.1283777952194214e-01" rms="1.4801339805126190e-01" purity="9.7757399082183838e-01" nType="0">
            <Node pos="l" depth="3" NCoef="0" IVar="-1" Cut="0.0000000000000000e+00" cType="1" res="2.1586930379271507e-02" rms="1.2035049498081207e-01" purity="9.8537105321884155e-01" nType="-99"/>
            <Node pos="r" depth="3" NCoef="0" IVar="-1" Cut="0.0000000000000000e+00" cType="1" res="2.0930409431457520e-02" rms="1.5402786433696747e-01" purity="9.7564715147018433e-01" nType="-99"/>
          </Node>
          <Node pos="r" depth="2" NCoef="0" IVar="-1" Cut="0.0000000000000000e+00" cType="1" res="1.0831670835614204e-02" rms="4.1164550185203552e-01" purity="7.5700306892395020e-01" nType="-99"/>
        </Node>
        <Node pos="r" depth="1" NCoef="0" IVar="6" Cut="2.9913904190063477e+01" cType="1" res="-3.2556602358818054e-01" rms="4.7235339879989624e-02" purity="2.8848689980804920e-03" nType="0">
          <Node pos="l" depth="2" NCoef="0" IVar="-1" Cut="0.0000000000000000e+00" cType="1" res="-1.5213483013212681e-02" rms="3.1247231364250183e-01" purity="1.3812617957592010e-01" nType="-99"/>
          <Node pos="r" depth="2" NCoef="0" IVar="18" Cut="1.4405700683593750e+02" cType="1" res="-3.2748305797576904e-01" rms="6.5319361165165901e-03" purity="3.5067369026364759e-05" nType="0">
            <Node pos="l" depth="3" NCoef="0" IVar="-1" Cut="0.0000000000000000e+00" cType="1" res="-2.2728171199560165e-02" rms="3.8600455969572067e-02" purity="1.3957468327134848e-03" nType="-99"/>
            <Node pos="r" depth="3" NCoef="0" IVar="-1" Cut="0.0000000000000000e+00" cType="1" res="-2.2292885929346085e-02" rms="7.8671332448720932e-04" purity="0.0000000000000000e+00" nType="-99"/>
          </Node>
        </Node>
      </Node>
    </BinaryTree>
    <BinaryTree type="DecisionTree" boostWeight="1.0000000000000000e+00" itree="15">
      <Node pos="s" depth="0" NCoef="0" IVar="10" Cut="3.3552177429199219e+01" cType="1" res="-3.9219335303641856e-04" rms="3.3082193136215210e-01" purity="4.9950233101844788e-01" nType="0">
        <Node pos="l" depth="1" NCoef="0" IVar="21" Cut="3.2926828861236572e+00" cType="1" res="3.0131077766418457e-01" rms="1.5763297677040100e-01" purity="9.7398769855499268e-01" nType="0">
          <Node pos="l" depth="2" NCoef="0" IVar="1" Cut="2.8634536743164062e+01" cType="1" res="3.0317595601081848e-01" rms="1.4947646856307983e-01" purity="9.7709423303604126e-01" nType="0">
            <Node pos="l" depth="3" NCoef="0" IVar="-1" Cut="0.0000000000000000e+00" cType="1" res="2.1650016307830811e-02" rms="8.8743433356285095e-02" purity="9.9205327033996582e-01" nType="-99"/>
            <Node pos="r" depth="3" NCoef="0" IVar="-1" Cut="0.0000000000000000e+00" cType="1" res="2.0605230703949928e-02" rms="1.5417729318141937e-01" purity="9.7559928894042969e-01" nType="-99"/>
          </Node>
          <Node pos="r" depth="2" NCoef="0" IVar="-1" Cut="0.0000000000000000e+00" cType="1" res="1.5425521880388260e-02" rms="3.2540956139564514e-01" purity="8.6834496259689331e-01" nType="-99"/>
        </Node>
        <Node pos="r" depth="1" NCoef="0" IVar="18" Cut="1.3547547912597656e+02" cType="1" res="-3.1403914093971252e-01" rms="6.6215544939041138e-02" purity="6.2327417545020580e-03" nType="0">
          <Node pos="l" depth="2" NCoef="0" IVar="-1" Cut="0.0000000000000000e+00" cType="1" res="-9.1306231915950775e-03" rms="4.0795159339904785e-01" purity="2.8058105707168579e-01" nType="-99"/>
          <Node pos="r" depth="2" NCoef="0" IVar="6" Cut="3.3773071289062500e+01" cType="1" res="-3.1790244579315186e-01" rms="5.5971792899072170e-03" purity="0.0000000000000000e+00" nType="0">
            <Node pos="l" depth="3" NCoef="0" IVar="-1" Cut="0.0000000000000000e+00" cType="1" res="-2.2327611222863197e-02" rms="2.3724146187305450e-02" purity="0.0000000000000000e+00" nType="-99"/>
            <Node pos="r" depth="3" NCoef="0" IVar="-1" Cut="0.0000000000000000e+00" cType="1" res="-2.1979138255119324e-02" rms="2.0619637798517942e-03" purity="0.0000000000000000e+00" nType="-99"/>
          </Node>
        </Node>
      </Node>
    </BinaryTree>
    <BinaryTree type="DecisionTree" boostWeight="1.0000000000000000e+00" itree="16">
      <Node pos="s" depth="0" NCoef="0" IVar="6" Cut="1.6886535644531250e+01" cType="1" res="8.9857092825695872e-04" rms="3.2202151417732239e-01" purity="5.0134152173995972e-01" nType="0">
        <Node pos="l" depth="1" NCoef="0" IVar="21" Cut="5.1219511032104492e+00" cType="1" res="2.9125934839248657e-01" rms="1.6167965531349182e-01" purity="9.7160011529922485e-01" nType="0">
          <Node pos="l" depth="2" NCoef="0" IVar="1" Cut="3.1609977722167969e+01" cType="1" res="2.9428812861442566e-01" rms="1.4991734921932220e-01" purity="9.7677731513977051e-01" nType="0">
            <Node pos="l" depth="3" NCoef="0" IVar="-1" Cut="0.0000000000000000e+00" cType="1" res="2.1242324262857437e-02" rms="1.0082676261663437e-01" purity="9.8960727453231812e-01" nType="-99"/>
            <Node pos="r" depth="3" NCoef="0" IVar="-1" Cut="0.0000000000000000e+00" cType="1" res="2.0277038216590881e-02" rms="1.5482571721076965e-01" purity="9.7519892454147339e-01" nType="-99"/>
          </Node>
          <Node pos="r" depth="2" NCoef="0" IVar="-1" Cut="0.0000000000000000e+00" cType="1" res="8.9223748072981834e-03" rms="4.2912918329238892e-01" purity="7.1623033285140991e-01" nType="-99"/>
        </Node>
        <Node pos="r" depth="1" NCoef="0" IVar="5" Cut="7.9175636291503906e+01" cType="1" res="-3.0703085660934448e-01" rms="4.1436307132244110e-02" purity="2.6293250266462564e-03" nType="0">
          <Node pos="l" depth="2" NCoef="0" IVar="-1" Cut="0.0000000000000000e+00" cType="1" res="-1.7142856493592262e-02" rms="2.4092511832714081e-01" purity="9.5156446099281311e-02" nType="-99"/>
          <Node pos="r" depth="2" NCoef="0" IVar="1" Cut="1.4889788818359375e+02" cType="1" res="-3.0843412876129150e-01" rms="1.2923079542815685e-02" purity="2.1023902809247375e-04" nType="0">
            <Node pos="l" depth="3" NCoef="0" IVar="-1" Cut="0.0000000000000000e+00" cType="1" res="-2.1907521411776543e-02" rms="8.3817563951015472e-02" purity="9.7004920244216919e-03" nType="-99"/>
            <Node pos="r" depth="3" NCoef="0" IVar="-1" Cut="0.0000000000000000e+00" cType="1" res="-2.1682482212781906e-02" rms="3.4051088150590658e-03" purity="0.0000000000000000e+00" nType="-99"/>
          </Node>
        </Node>
      </Node>
    </BinaryTree>
    <BinaryTree type="DecisionTree" boostWeight="1.0000000000000000e+00" itree="17">
      <Node pos="s" depth="0" NCoef="0" IVar="10" Cut="4.1773391723632812e+01" cType="1" res="-1.5278827631846070e-03" rms="3.1365478038787842e-01" purity="4.9734395742416382e-01" nType="0">
        <Node pos="l" depth="1" NCoef="0" IVar="10" Cut="1.7320644378662109e+01" cType="1" res="2.8280302882194519e-01" rms="1.6078904271125793e-01" purity="9.7228574752807617e-01" nType="0">
          <Node pos="l" depth="2" NCoef="0" IVar="20" Cut="1.0322982788085938e+02" cType="1" res="2.8561854362487793e-01" rms="1.4855632185935974e-01" purity="9.7740548849105835e-01" nType="0">
            <Node pos="l" depth="3" NCoef="0" IVar="-1" Cut="0.0000000000000000e+00" cType="1" res="2.0168244838714600e-02" rms="1.4531773328781128e-01" purity="9.7840130329132080e-01" nType="-99"/>
            <Node pos="r" depth="3" NCoef="0" IVar="-1" Cut="0.0000000000000000e+00" cType="1" res="1.8765736371278763e-02" rms="1.9989827275276184e-01" purity="9.5830196142196655e-01" nType="-99"/>
          </Node>
          <Node pos="r" depth="2" NCoef="0" IVar="-1" Cut="0.0000000000000000e+00" cType="1" res="1.1194565333425999e-02" rms="3.9588493108749390e-01" purity="7.7963179349899292e-01" nType="-99"/>
        </Node>
        <Node pos="r" depth="1" NCoef="0" IVar="5" Cut="7.8856796264648438e+01" cType="1" res="-2.9771983623504639e-01" rms="4.4551040977239609e-02" purity="2.5897000450640917e-03" nType="0">
          <Node pos="l" depth="2" NCoef="0" IVar="-1" Cut="0.0000000000000000e+00" cType="1" res="-1.5764417126774788e-02" rms="2.7316007018089294e-01" purity="1.0449337959289551e-01" nType="-99"/>
          <Node pos="r" depth="2" NCoef="0" IVar="18" Cut="1.4503956604003906e+02" cType="1" res="-2.9921942949295044e-01" rms="1.5371466986835003e-02" purity="2.7878189575858414e-04" nType="0">
            <Node pos="l" depth="3" NCoef="0" IVar="-1" Cut="0.0000000000000000e+00" cType="1" res="-2.1403133869171143e-02" rms="9.2432864010334015e-02" purity="1.0495249181985855e-02" nType="-99"/>
            <Node pos="r" depth="3" NCoef="0" IVar="-1" Cut="0.0000000000000000e+00" cType="1" res="-2.1397739648818970e-02" rms="2.6825224049389362e-03" purity="0.0000000000000000e+00" nType="-99"/>
          </Node>
        </Node>
      </Node>
    </BinaryTree>
    <BinaryTree type="DecisionTree" boostWeight="1.0000000000000000e+00" itree="18">
      <Node pos="s" depth="0" NCoef="0" IVar="6" Cut="1.8578931808471680e+01" cType="1" res="-1.7032303148880601e-03" rms="3.0570659041404724e-01" purity="4.9697479605674744e-01" nType="0">
        <Node pos="l" depth="1" NCoef="0" IVar="21" Cut="5.1219511032104492e+00" cType="1" res="2.7356636524200439e-01" rms="1.6299785673618317e-01" purity="9.7049361467361450e-01" nType="0">
          <Node pos="l" depth="2" NCoef="0" IVar="0" Cut="2.1159265518188477e+01" cType="1" res="2.7729097008705139e-01" rms="1.4971077442169189e-01" purity="9.7680920362472534e-01" nType="0">
            <Node pos="l" depth="3" NCoef="0" IVar="-1" Cut="0.0000000000000000e+00" cType="1" res="2.0796608179807663e-02" rms="9.9740065634250641e-02" purity="9.8999291658401489e-01" nType="-99"/>
            <Node pos="r" depth="3" NCoef="0" IVar="-1" Cut="0.0000000000000000e+00" cType="1" res="1.9721938297152519e-02" rms="1.5307253599166870e-01" purity="9.7571557760238647e-01" nType="-99"/>
          </Node>
          <Node pos="r" depth="2" NCoef="0" IVar="-1" Cut="0.0000000000000000e+00" cType="1" res="6.2923226505517960e-03" rms="4.3605059385299683e-01" purity="6.7458403110504150e-01" nType="-99"/>
        </Node>
        <Node pos="r" depth="1" NCoef="0" IVar="10" Cut="4.8474594116210938e+01" cType="1" res="-2.8933688998222351e-01" rms="3.7936199456453323e-02" purity="2.1872946526855230e-03" nType="0">
          <Node pos="l" depth="2" NCoef="0" IVar="-1" Cut="0.0000000000000000e+00" cType="1" res="-1.7608588561415672e-02" rms="2.1515055000782013e-01" purity="7.9893939197063446e-02" nType="-99"/>
          <Node pos="r" depth="2" NCoef="0" IVar="11" Cut="2.5579968094825745e-01" cType="1" res="-2.9021412134170532e-01" rms="1.9099043682217598e-02" purity="3.8466227124445140e-04" nType="0">
            <Node pos="l" depth="3" NCoef="0" IVar="-1" Cut="0.0000000000000000e+00" cType="1" res="-2.1322291344404221e-02" rms="8.1414524465799332e-03" purity="0.0000000000000000e+00" nType="-99"/>
            <Node pos="r" depth="3" NCoef="0" IVar="-1" Cut="0.0000000000000000e+00" cType="1" res="-2.1112266927957535e-02" rms="1.9309060648083687e-02" purity="3.9657487650401890e-04" nType="-99"/>
          </Node>
        </Node>
      </Node>
    </BinaryTree>
    <BinaryTree type="DecisionTree" boostWeight="1.0000000000000000e+00" itree="19">
      <Node pos="s" depth="0" NCoef="0" IVar="10" Cut="3.6203605651855469e+01" cType="1" res="1.5005806926637888e-04" rms="2.9770195484161377e-01" purity="5.0021517276763916e-01" nType="0">
        <Node pos="l" depth="1" NCoef="0" IVar="10" Cut="1.5893431663513184e+01" cType="1" res="2.6781699061393738e-01" rms="1.5493498742580414e-01" purity="9.7465288639068604e-01" nType="0">
          <Node pos="l" depth="2" NCoef="0" IVar="18" Cut="8.9972473144531250e+01" cType="1" res="2.6995381712913513e-01" rms="1.4502452313899994e-01" purity="9.7851812839508057e-01" nType="0">
            <Node pos="l" depth="3" NCoef="0" IVar="-1" Cut="0.0000000000000000e+00" cType="1" res="1.9848771393299103e-02" rms="1.3367517292499542e-01" purity="9.8185032606124878e-01" nType="-99"/>
            <Node pos="r" depth="3" NCoef="0" IVar="-1" Cut="0.0000000000000000e+00" cType="1" res="1.9174814224243164e-02" rms="1.6416764259338379e-01" purity="9.7223007678985596e-01" nType="-99"/>
          </Node>
          <Node pos="r" depth="2" NCoef="0" IVar="-1" Cut="0.0000000000000000e+00" cType="1" res="1.1511900462210178e-02" rms="3.7713944911956787e-01" purity="8.0988603830337524e-01" nType="-99"/>
        </Node>
        <Node pos="r" depth="1" NCoef="0" IVar="5" Cut="7.8004402160644531e+01" cType="1" res="-2.7931666374206543e-01" rms="5.6490372866392136e-02" purity="4.8623681068420410e-03" nType="0">
          <Node pos="l" depth="2" NCoef="0" IVar="-1" Cut="0.0000000000000000e+00" cType="1" res="-1.0317995212972164e-02" rms="3.3839270472526550e-01" purity="2.0736186206340790e-01" nType="-99"/>
          <Node pos="r" depth="2" NCoef="0" IVar="1" Cut="1.4794776916503906e+02" cType="1" res="-2.8207132220268250e-01" rms="2.0621532574295998e-02" purity="4.8295385204255581e-04" nType="0">
            <Node pos="l" depth="3" NCoef="0" IVar="-1" Cut="0.0000000000000000e+00" cType="1" res="-2.1281657740473747e-02" rms="1.3734470307826996e-01" purity="2.2811958566308022e-02" nType="-99"/>
            <Node pos="r" depth="3" NCoef="0" IVar="-1" Cut="0.0000000000000000e+00" cType="1" res="-2.0880365744233131e-02" rms="3.8177631795406342e-03" purity="0.0000000000000000e+00" nType="-99"/>
          </Node>
        </Node>
      </Node>
    </BinaryTree>
    <BinaryTree type="DecisionTree" boostWeight="1.0000000000000000e+00" itree="20">
      <Node pos="s" depth="0" NCoef="0" IVar="6" Cut="1.7513772964477539e+01" cType="1" res="4.9813865916803479e-04" rms="2.9029247164726257e-01" purity="5.0061863660812378e-01" nType="0">
        <Node pos="l" depth="1" NCoef="0" IVar="10" Cut="2.2368120193481445e+01" cType="1" res="2.5864487886428833e-01" rms="1.5977552533149719e-01" purity="9.7200369834899902e-01" nType="0">
          <Node pos="l" depth="2" NCoef="0" IVar="10" Cut="1.2001856803894043e+01" cType="1" res="2.6132744550704956e-01" rms="1.4707393944263458e-01" purity="9.7780716419219971e-01" nType="0">
            <Node pos="l" depth="3" NCoef="0" IVar="-1" Cut="0.0000000000000000e+00" cType="1" res="1.9365929067134857e-02" rms="1.4340700209140778e-01" purity="9.7899031639099121e-01" nType="-99"/>
            <Node pos="r" depth="3" NCoef="0" IVar="-1" Cut="0.0000000000000000e+00" cType="1" res="1.6460666432976723e-02" rms="2.6287692785263062e-01" purity="9.2423456907272339e-01" nType="-99"/>
          </Node>
          <Node pos="r" depth="2" NCoef="0" IVar="-1" Cut="0.0000000000000000e+00" cType="1" res="8.5482951253652573e-03" rms="4.3451222777366638e-01" purity="7.0585936307907104e-01" nType="-99"/>
        </Node>
        <Node pos="r" depth="1" NCoef="0" IVar="6" Cut="3.2038154602050781e+01" cType="1" res="-2.7224910259246826e-01" rms="3.9162244647741318e-02" purity="2.5725071318447590e-03" nType="0">
          <Node pos="l" depth="2" NCoef="0" IVar="-1" Cut="0.0000000000000000e+00" cType="1" res="-1.6827419400215149e-02" rms="2.1113462746143341e-01" purity="7.9241894185543060e-02" nType="-99"/>
          <Node pos="r" depth="2" NCoef="0" IVar="18" Cut="1.4568405151367188e+02" cType="1" res="-2.7333962917327881e-01" rms="1.5661602839827538e-02" purity="3.5293083055876195e-04" nType="0">
            <Node pos="l" depth="3" NCoef="0" IVar="-1" Cut="0.0000000000000000e+00" cType="1" res="-2.0615816116333008e-02" rms="8.4811523556709290e-02" purity="1.0819283314049244e-02" nType="-99"/>
            <Node pos="r" depth="3" NCoef="0" IVar="-1" Cut="0.0000000000000000e+00" cType="1" res="-2.0634423941373825e-02" rms="2.8398083522915840e-03" purity="0.0000000000000000e+00" nType="-99"/>
          </Node>
        </Node>
      </Node>
    </BinaryTree>
    <BinaryTree type="DecisionTree" boostWeight="1.0000000000000000e+00" itree="21">
      <Node pos="s" depth="0" NCoef="0" IVar="6" Cut="1.8578931808471680e+01" cType="1" res="9.2929886886849999e-04" rms="2.8345453739166260e-01" purity="5.0156790018081665e-01" nType="0">
        <Node pos="l" depth="1" NCoef="0" IVar="21" Cut="5.1219511032104492e+00" cType="1" res="2.5014463067054749e-01" rms="1.6224290430545807e-01" purity="9.7053992748260498e-01" nType="0">
          <Node pos="l" depth="2" NCoef="0" IVar="14" Cut="2.5287981033325195e+01" cType="1" res="2.5345519185066223e-01" rms="1.4976148307323456e-01" purity="9.7679322957992554e-01" nType="0">
            <Node pos="l" depth="3" NCoef="0" IVar="-1" Cut="0.0000000000000000e+00" cType="1" res="2.0031083375215530e-02" rms="1.0187997668981552e-01" purity="9.8957252502441406e-01" nType="-99"/>
            <Node pos="r" depth="3" NCoef="0" IVar="-1" Cut="0.0000000000000000e+00" cType="1" res="1.8927380442619324e-02" rms="1.5326061844825745e-01" purity="9.7565132379531860e-01" nType="-99"/>
          </Node>
          <Node pos="r" depth="2" NCoef="0" IVar="-1" Cut="0.0000000000000000e+00" cType="1" res="6.2298229895532131e-03" rms="4.2740583419799805e-01" purity="6.8090462684631348e-01" nType="-99"/>
        </Node>
        <Node pos="r" depth="1" NCoef="0" IVar="1" Cut="1.4610513305664062e+02" cType="1" res="-2.6462334394454956e-01" rms="3.4838762134313583e-02" purity="1.8523563630878925e-03" nType="0">
          <Node pos="l" depth="2" NCoef="0" IVar="-1" Cut="0.0000000000000000e+00" cType="1" res="-1.7031814903020859e-02" rms="2.2654408216476440e-01" purity="8.0218441784381866e-02" nType="-99"/>
          <Node pos="r" depth="2" NCoef="0" IVar="6" Cut="3.4044681549072266e+01" cType="1" res="-2.6518207788467407e-01" rms="3.9741713553667068e-03" purity="0.0000000000000000e+00" nType="0">
            <Node pos="l" depth="3" NCoef="0" IVar="-1" Cut="0.0000000000000000e+00" cType="1" res="-2.0539242774248123e-02" rms="1.0476398281753063e-02" purity="0.0000000000000000e+00" nType="-99"/>
            <Node pos="r" depth="3" NCoef="0" IVar="-1" Cut="0.0000000000000000e+00" cType="1" res="-2.0408766344189644e-02" rms="3.2196554820984602e-03" purity="0.0000000000000000e+00" nType="-99"/>
          </Node>
        </Node>
      </Node>
    </BinaryTree>
    <BinaryTree type="DecisionTree" boostWeight="1.0000000000000000e+00" itree="22">
      <Node pos="s" depth="0" NCoef="0" IVar="6" Cut="1.5121002197265625e+01" cType="1" res="1.2965442147105932e-03" rms="2.7603980898857117e-01" purity="5.0221675634384155e-01" nType="0">
        <Node pos="l" depth="1" NCoef="0" IVar="21" Cut="4.0243902206420898e+00" cType="1" res="2.4413643777370453e-01" rms="1.5797887742519379e-01" purity="9.7288948297500610e-01" nType="0">
          <Node pos="l" depth="2" NCoef="0" IVar="20" Cut="5.5032421112060547e+01" cType="1" res="2.4649684131145477e-01" rms="1.4624495804309845e-01" purity="9.7805821895599365e-01" nType="0">
            <Node pos="l" depth="3" NCoef="0" IVar="-1" Cut="0.0000000000000000e+00" cType="1" res="1.9068785011768341e-02" rms="1.3613639771938324e-01" purity="9.8100125789642334e-01" nType="-99"/>
            <Node pos="r" depth="3" NCoef="0" IVar="-1" Cut="0.0000000000000000e+00" cType="1" res="1.8313406035304070e-02" rms="1.6675382852554321e-01" purity="9.7137081623077393e-01" nType="-99"/>
          </Node>
          <Node pos="r" depth="2" NCoef="0" IVar="-1" Cut="0.0000000000000000e+00" cType="1" res="1.0059726424515247e-02" rms="3.9245003461837769e-01" purity="7.7373170852661133e-01" nType="-99"/>
        </Node>
        <Node pos="r" depth="1" NCoef="0" IVar="5" Cut="7.9840034484863281e+01" cType="1" res="-2.5611406564712524e-01" rms="4.1753452271223068e-02" purity="3.3030179329216480e-03" nType="0">
          <Node pos="l" depth="2" NCoef="0" IVar="-1" Cut="0.0000000000000000e+00" cType="1" res="-1.4659630134701729e-02" rms="2.3944905400276184e-01" purity="1.1916627734899521e-01" nType="-99"/>
          <Node pos="r" depth="2" NCoef="0" IVar="6" Cut="3.2333763122558594e+01" cType="1" res="-2.5757324695587158e-01" rms="1.3352116569876671e-02" purity="2.1194612781982869e-04" nType="0">
            <Node pos="l" depth="3" NCoef="0" IVar="-1" Cut="0.0000000000000000e+00" cType="1" res="-2.0515823736786842e-02" rms="7.5124084949493408e-02" purity="7.6185152865946293e-03" nType="-99"/>
            <Node pos="r" depth="3" NCoef="0" IVar="-1" Cut="0.0000000000000000e+00" cType="1" res="-2.0194586366415024e-02" rms="3.9860447868704796e-03" purity="0.0000000000000000e+00" nType="-99"/>
          </Node>
        </Node>
      </Node>
    </BinaryTree>
    <BinaryTree type="DecisionTree" boostWeight="1.0000000000000000e+00" itree="23">
      <Node pos="s" depth="0" NCoef="0" IVar="6" Cut="1.5118382453918457e+01" cType="1" res="1.1204762849956751e-03" rms="2.6868385076522827e-01" purity="5.0127005577087402e-01" nType="0">
        <Node pos="l" depth="1" NCoef="0" IVar="10" Cut="2.2705806732177734e+01" cType="1" res="2.3810188472270966e-01" rms="1.5409155189990997e-01" purity="9.7416692972183228e-01" nType="0">
          <Node pos="l" depth="2" NCoef="0" IVar="10" Cut="7.7523150444030762e+00" cType="1" res="2.4022296071052551e-01" rms="1.4206957817077637e-01" purity="9.7930830717086792e-01" nType="0">
            <Node pos="l" depth="3" NCoef="0" IVar="-1" Cut="0.0000000000000000e+00" cType="1" res="1.8815336748957634e-02" rms="1.3564914464950562e-01" purity="9.8124003410339355e-01" nType="-99"/>
            <Node pos="r" depth="3" NCoef="0" IVar="-1" Cut="0.0000000000000000e+00" cType="1" res="1.7746550962328911e-02" rms="1.8322217464447021e-01" purity="9.6469479799270630e-01" nType="-99"/>
          </Node>
          <Node pos="r" depth="2" NCoef="0" IVar="-1" Cut="0.0000000000000000e+00" cType="1" res="8.8840695098042488e-03" rms="4.2386049032211304e-01" purity="7.3461621999740601e-01" nType="-99"/>
        </Node>
        <Node pos="r" depth="1" NCoef="0" IVar="10" Cut="4.8200088500976562e+01" cType="1" res="-2.4849812686443329e-01" rms="4.1914980858564377e-02" purity="3.1556936446577311e-03" nType="0">
          <Node pos="l" depth="2" NCoef="0" IVar="-1" Cut="0.0000000000000000e+00" cType="1" res="-1.4156572520732880e-02" rms="2.4589148163795471e-01" purity="1.2354962527751923e-01" nType="-99"/>
          <Node pos="r" depth="2" NCoef="0" IVar="1" Cut="1.4886044311523438e+02" cType="1" res="-2.4989077448844910e-01" rms="1.6490617766976357e-02" purity="2.8096040477976203e-04" nType="0">
            <Node pos="l" depth="3" NCoef="0" IVar="-1" Cut="0.0000000000000000e+00" cType="1" res="-1.9858853891491890e-02" rms="9.5711477100849152e-02" purity="9.8002394661307335e-03" nType="-99"/>
            <Node pos="r" depth="3" NCoef="0" IVar="-1" Cut="0.0000000000000000e+00" cType="1" res="-1.9989509135484695e-02" rms="2.5000956375151873e-03" purity="0.0000000000000000e+00" nType="-99"/>
          </Node>
        </Node>
      </Node>
    </BinaryTree>
    <BinaryTree type="DecisionTree" boostWeight="1.0000000000000000e+00" itree="24">
      <Node pos="s" depth="0" NCoef="0" IVar="10" Cut="3.9144210815429688e+01" cType="1" res="-2.9390067793428898e-03" rms="2.6348978281021118e-01" purity="4.9451082944869995e-01" nType="0">
        <Node pos="l" depth="1" NCoef="0" IVar="10" Cut="1.5274985313415527e+01" cType="1" res="2.2827307879924774e-01" rms="1.6192439198493958e-01" purity="9.7182083129882812e-01" nType="0">
          <Node pos="l" depth="2" NCoef="0" IVar="20" Cut="4.6453422546386719e+01" cType="1" res="2.3104172945022583e-01" rms="1.4934226870536804e-01" purity="9.7721874713897705e-01" nType="0">
            <Node pos="l" depth="3" NCoef="0" IVar="-1" Cut="0.0000000000000000e+00" cType="1" res="1.8572432920336723e-02" rms="1.3865087926387787e-01" purity="9.8049664497375488e-01" nType="-99"/>
            <Node pos="r" depth="3" NCoef="0" IVar="-1" Cut="0.0000000000000000e+00" cType="1" res="1.7939670011401176e-02" rms="1.6308650374412537e-01" purity="9.7261071205139160e-01" nType="-99"/>
          </Node>
          <Node pos="r" depth="2" NCoef="0" IVar="-1" Cut="0.0000000000000000e+00" cType="1" res="8.6912950500845909e-03" rms="3.9470574259757996e-01" purity="7.7943658828735352e-01" nType="-99"/>
        </Node>
        <Node pos="r" depth="1" NCoef="0" IVar="0" Cut="5.5815795898437500e+01" cType="1" res="-2.4075487256050110e-01" rms="4.8228740692138672e-02" purity="3.5681165754795074e-03" nType="0">
          <Node pos="l" depth="2" NCoef="0" IVar="-1" Cut="0.0000000000000000e+00" cType="1" res="-1.0945741087198257e-02" rms="2.9955121874809265e-01" purity="1.5592269599437714e-01" nType="-99"/>
          <Node pos="r" depth="2" NCoef="0" IVar="1" Cut="1.4951612854003906e+02" cType="1" res="-2.4272257089614868e-01" rms="1.7011273652315140e-02" purity="3.4373876405879855e-04" nType="0">
            <Node pos="l" depth="3" NCoef="0" IVar="-1" Cut="0.0000000000000000e+00" cType="1" res="-1.9989771768450737e-02" rms="9.3426465988159180e-02" purity="1.1053966358304024e-02" nType="-99"/>
            <Node pos="r" depth="3" NCoef="0" IVar="-1" Cut="0.0000000000000000e+00" cType="1" res="-1.9793914631009102e-02" rms="2.8734023217111826e-03" purity="0.0000000000000000e+00" nType="-99"/>
          </Node>
        </Node>
      </Node>
    </BinaryTree>
    <BinaryTree type="DecisionTree" boostWeight="1.0000000000000000e+00" itree="25">
      <Node pos="s" depth="0" NCoef="0" IVar="6" Cut="1.8578931808471680e+01" cType="1" res="-6.4361694967374206e-04" rms="2.5793382525444031e-01" purity="4.9997851252555847e-01" nType="0">
        <Node pos="l" depth="1" NCoef="0" IVar="21" Cut="5.1219511032104492e+00" cType="1" res="2.1966770291328430e-01" rms="1.6717274487018585e-01" purity="9.6882051229476929e-01" nType="0">
          <Node pos="l" depth="2" NCoef="0" IVar="0" Cut="2.6649034500122070e+01" cType="1" res="2.2233690321445465e-01" rms="1.5655045211315155e-01" purity="9.7457897663116455e-01" nType="0">
            <Node pos="l" depth="3" NCoef="0" IVar="-1" Cut="0.0000000000000000e+00" cType="1" res="1.8955420702695847e-02" rms="1.1207317560911179e-01" purity="9.8706418275833130e-01" nType="-99"/>
            <Node pos="r" depth="3" NCoef="0" IVar="-1" Cut="0.0000000000000000e+00" cType="1" res="1.7781022936105728e-02" rms="1.6126786172389984e-01" purity="9.7298955917358398e-01" nType="-99"/>
          </Node>
          <Node pos="r" depth="2" NCoef="0" IVar="-1" Cut="0.0000000000000000e+00" cType="1" res="5.7966746389865875e-03" rms="4.2338424921035767e-01" purity="6.8609350919723511e-01" nType="-99"/>
        </Node>
        <Node pos="r" depth="1" NCoef="0" IVar="5" Cut="8.0467536926269531e+01" cType="1" res="-2.3468108475208282e-01" rms="3.4383073449134827e-02" purity="1.9260178087279201e-03" nType="0">
          <Node pos="l" depth="2" NCoef="0" IVar="-1" Cut="0.0000000000000000e+00" cType="1" res="-1.6390826553106308e-02" rms="1.9098730385303497e-01" purity="6.2935292720794678e-02" nType="-99"/>
          <Node pos="r" depth="2" NCoef="0" IVar="6" Cut="3.1798456192016602e+01" cType="1" res="-2.3540310561656952e-01" rms="8.4356777369976044e-03" purity="3.5458953789202496e-05" nType="0">
            <Node pos="l" depth="3" NCoef="0" IVar="-1" Cut="0.0000000000000000e+00" cType="1" res="-2.0113494247198105e-02" rms="4.5580465346574783e-02" purity="1.5384439611807466e-03" nType="-99"/>
            <Node pos="r" depth="3" NCoef="0" IVar="-1" Cut="0.0000000000000000e+00" cType="1" res="-1.9610255956649780e-02" rms="4.1774800047278404e-03" purity="0.0000000000000000e+00" nType="-99"/>
          </Node>
        </Node>
      </Node>
    </BinaryTree>
    <BinaryTree type="DecisionTree" boostWeight="1.0000000000000000e+00" itree="26">
      <Node pos="s" depth="0" NCoef="0" IVar="10" Cut="3.7018264770507812e+01" cType="1" res="5.3788116201758385e-04" rms="2.5106516480445862e-01" purity="5.0166600942611694e-01" nType="0">
        <Node pos="l" depth="1" NCoef="0" IVar="10" Cut="1.8958354949951172e+01" cType="1" res="2.1611596643924713e-01" rms="1.5789610147476196e-01" purity="9.7328758239746094e-01" nType="0">
          <Node pos="l" depth="2" NCoef="0" IVar="20" Cut="5.1614913940429688e+01" cType="1" res="2.1809241175651550e-01" rms="1.4811441302299500e-01" purity="9.7753369808197021e-01" nType="0">
            <Node pos="l" depth="3" NCoef="0" IVar="-1" Cut="0.0000000000000000e+00" cType="1" res="1.8148930743336678e-02" rms="1.3902273774147034e-01" purity="9.8027378320693970e-01" nType="-99"/>
            <Node pos="r" depth="3" NCoef="0" IVar="-1" Cut="0.0000000000000000e+00" cType="1" res="1.7488969489932060e-02" rms="1.6370972990989685e-01" purity="9.7238886356353760e-01" nType="-99"/>
          </Node>
          <Node pos="r" depth="2" NCoef="0" IVar="-1" Cut="0.0000000000000000e+00" cType="1" res="8.1754010170698166e-03" rms="3.9765676856040955e-01" purity="7.7156865596771240e-01" nType="-99"/>
        </Node>
        <Node pos="r" depth="1" NCoef="0" IVar="0" Cut="5.5304489135742188e+01" cType="1" res="-2.2701570391654968e-01" rms="4.9159586429595947e-02" purity="3.8455829489976168e-03" nType="0">
          <Node pos="l" depth="2" NCoef="0" IVar="-1" Cut="0.0000000000000000e+00" cType="1" res="-1.1394490487873554e-02" rms="2.8799000382423401e-01" purity="1.4965960383415222e-01" nType="-99"/>
          <Node pos="r" depth="2" NCoef="0" IVar="1" Cut="1.4645787048339844e+02" cType="1" res="-2.2871686518192291e-01" rms="2.2131221368908882e-02" purity="5.9671001508831978e-04" nType="0">
            <Node pos="l" depth="3" NCoef="0" IVar="-1" Cut="0.0000000000000000e+00" cType="1" res="-1.9495518878102303e-02" rms="1.4595507085323334e-01" purity="2.8050059452652931e-02" nType="-99"/>
            <Node pos="r" depth="3" NCoef="0" IVar="-1" Cut="0.0000000000000000e+00" cType="1" res="-1.9435960799455643e-02" rms="4.6620713546872139e-03" purity="0.0000000000000000e+00" nType="-99"/>
          </Node>
        </Node>
      </Node>
    </BinaryTree>
    <BinaryTree type="DecisionTree" boostWeight="1.0000000000000000e+00" itree="27">
      <Node pos="s" depth="0" NCoef="0" IVar="6" Cut="1.5924798965454102e+01" cType="1" res="-5.8321907999925315e-05" rms="2.4608081579208374e-01" purity="5.0061279535293579e-01" nType="0">
        <Node pos="l" depth="1" NCoef="0" IVar="21" Cut="5.1219511032104492e+00" cType="1" res="2.0823208987712860e-01" rms="1.6375631093978882e-01" purity="9.7074741125106812e-01" nType="0">
          <Node pos="l" depth="2" NCoef="0" IVar="18" Cut="1.0121903228759766e+02" cType="1" res="2.1002082526683807e-01" rms="1.5377931296825409e-01" purity="9.7556960582733154e-01" nType="0">
            <Node pos="l" depth="3" NCoef="0" IVar="-1" Cut="0.0000000000000000e+00" cType="1" res="1.7803872004151344e-02" rms="1.4465090632438660e-01" purity="9.7844785451889038e-01" nType="-99"/>
            <Node pos="r" depth="3" NCoef="0" IVar="-1" Cut="0.0000000000000000e+00" cType="1" res="1.6813319176435471e-02" rms="1.7971000075340271e-01" purity="9.6633344888687134e-01" nType="-99"/>
          </Node>
          <Node pos="r" depth="2" NCoef="0" IVar="-1" Cut="0.0000000000000000e+00" cType="1" res="8.1164129078388214e-03" rms="4.1257527470588684e-01" purity="7.4120211601257324e-01" nType="-99"/>
        </Node>
        <Node pos="r" depth="1" NCoef="0" IVar="1" Cut="1.4526438903808594e+02" cType="1" res="-2.2039200365543365e-01" rms="4.2495783418416977e-02" purity="3.2951184548437595e-03" nType="0">
          <Node pos="l" depth="2" NCoef="0" IVar="-1" Cut="0.0000000000000000e+00" cType="1" res="-1.2896401807665825e-02" rms="2.6852673292160034e-01" purity="1.3773606717586517e-01" nType="-99"/>
          <Node pos="r" depth="2" NCoef="0" IVar="0" Cut="5.9952548980712891e+01" cType="1" res="-2.2155833244323730e-01" rms="5.0965263508260250e-03" purity="0.0000000000000000e+00" nType="0">
            <Node pos="l" depth="3" NCoef="0" IVar="-1" Cut="0.0000000000000000e+00" cType="1" res="-1.9447574391961098e-02" rms="1.3866165652871132e-02" purity="0.0000000000000000e+00" nType="-99"/>
            <Node pos="r" depth="3" NCoef="0" IVar="-1" Cut="0.0000000000000000e+00" cType="1" res="-1.9266484305262566e-02" rms="4.4034146703779697e-03" purity="0.0000000000000000e+00" nType="-99"/>
          </Node>
        </Node>
      </Node>
    </BinaryTree>
    <BinaryTree type="DecisionTree" boostWeight="1.0000000000000000e+00" itree="28">
      <Node pos="s" depth="0" NCoef="0" IVar="10" Cut="3.6203605651855469e+01" cType="1" res="1.6085278475657105e-03" rms="2.3929224908351898e-01" purity="5.0296437740325928e-01" nType="0">
        <Node pos="l" depth="1" NCoef="0" IVar="10" Cut="1.6777191162109375e+01" cType="1" res="2.0495407283306122e-01" rms="1.5415218472480774e-01" purity="9.7478091716766357e-01" nType="0">
          <Node pos="l" depth="2" NCoef="0" IVar="5" Cut="1.3276190185546875e+02" cType="1" res="2.0642970502376556e-01" rms="1.4468489587306976e-01" purity="9.7863608598709106e-01" nType="0">
            <Node pos="l" depth="3" NCoef="0" IVar="-1" Cut="0.0000000000000000e+00" cType="1" res="1.7563037574291229e-02" rms="1.4675860106945038e-01" purity="9.7800987958908081e-01" nType="-99"/>
            <Node pos="r" depth="3" NCoef="0" IVar="-1" Cut="0.0000000000000000e+00" cType="1" res="1.9035346806049347e-02" rms="6.8345271050930023e-02" purity="9.9516272544860840e-01" nType="-99"/>
          </Node>
          <Node pos="r" depth="2" NCoef="0" IVar="-1" Cut="0.0000000000000000e+00" cType="1" res="1.0077903978526592e-02" rms="3.6632564663887024e-01" purity="8.1935977935791016e-01" nType="-99"/>
        </Node>
        <Node pos="r" depth="1" NCoef="0" IVar="1" Cut="1.4192547607421875e+02" cType="1" res="-2.1305298805236816e-01" rms="5.3784392774105072e-02" purity="4.8918183892965317e-03" nType="0">
          <Node pos="l" depth="2" NCoef="0" IVar="-1" Cut="0.0000000000000000e+00" cType="1" res="-8.7258117273449898e-03" rms="3.5151478648185730e-01" purity="2.2481633722782135e-01" nType="-99"/>
          <Node pos="r" depth="2" NCoef="0" IVar="6" Cut="3.3017787933349609e+01" cType="1" res="-2.1504360437393188e-01" rms="6.6687120124697685e-03" purity="3.4963988582603633e-05" nType="0">
            <Node pos="l" depth="3" NCoef="0" IVar="-1" Cut="0.0000000000000000e+00" cType="1" res="-1.9341060891747475e-02" rms="3.3530384302139282e-02" purity="1.0927972616627812e-03" nType="-99"/>
            <Node pos="r" depth="3" NCoef="0" IVar="-1" Cut="0.0000000000000000e+00" cType="1" res="-1.9103281199932098e-02" rms="2.5208371225744486e-03" purity="0.0000000000000000e+00" nType="-99"/>
          </Node>
        </Node>
      </Node>
    </BinaryTree>
    <BinaryTree type="DecisionTree" boostWeight="1.0000000000000000e+00" itree="29">
      <Node pos="s" depth="0" NCoef="0" IVar="10" Cut="3.4525932312011719e+01" cType="1" res="6.1771640321239829e-04" rms="2.3423518240451813e-01" purity="5.0148814916610718e-01" nType="0">
        <Node pos="l" depth="1" NCoef="0" IVar="10" Cut="1.5153147697448730e+01" cType="1" res="1.9860255718231201e-01" rms="1.5481615066528320e-01" purity="9.7469311952590942e-01" nType="0">
          <Node pos="l" depth="2" NCoef="0" IVar="16" Cut="6.3414633274078369e-01" cType="1" res="1.9993335008621216e-01" rms="1.4602103829383850e-01" purity="9.7828626632690430e-01" nType="0">
            <Node pos="l" depth="3" NCoef="0" IVar="-1" Cut="0.0000000000000000e+00" cType="1" res="1.7331918701529503e-02" rms="1.4788812398910522e-01" purity="9.7766780853271484e-01" nType="-99"/>
            <Node pos="r" depth="3" NCoef="0" IVar="-1" Cut="0.0000000000000000e+00" cType="1" res="1.8320271745324135e-02" rms="1.1597384512424469e-01" purity="9.8698699474334717e-01" nType="-99"/>
          </Node>
          <Node pos="r" depth="2" NCoef="0" IVar="-1" Cut="0.0000000000000000e+00" cType="1" res="1.0088845156133175e-02" rms="3.6161983013153076e-01" purity="8.2540631294250488e-01" nType="-99"/>
        </Node>
        <Node pos="r" depth="1" NCoef="0" IVar="14" Cut="7.7721633911132812e+01" cType="1" res="-2.0697368681430817e-01" rms="5.5401071906089783e-02" purity="5.3224954754114151e-03" nType="0">
          <Node pos="l" depth="2" NCoef="0" IVar="-1" Cut="0.0000000000000000e+00" cType="1" res="-7.9310620203614235e-03" rms="3.2764855027198792e-01" purity="2.1553066372871399e-01" nType="-99"/>
          <Node pos="r" depth="2" NCoef="0" IVar="18" Cut="1.4377003479003906e+02" cType="1" res="-2.0913252234458923e-01" rms="2.4865141138434410e-02" purity="8.3101453492417932e-04" nType="0">
            <Node pos="l" depth="3" NCoef="0" IVar="-1" Cut="0.0000000000000000e+00" cType="1" res="-1.9059080630540848e-02" rms="1.4991275966167450e-01" purity="3.2293960452079773e-02" nType="-99"/>
            <Node pos="r" depth="3" NCoef="0" IVar="-1" Cut="0.0000000000000000e+00" cType="1" res="-1.8953246995806694e-02" rms="4.8690526746213436e-03" purity="0.0000000000000000e+00" nType="-99"/>
          </Node>
        </Node>
      </Node>
    </BinaryTree>
    <BinaryTree type="DecisionTree" boostWeight="1.0000000000000000e+00" itree="30">
      <Node pos="s" depth="0" NCoef="0" IVar="6" Cut="1.9700958251953125e+01" cType="1" res="3.1501470948569477e-04" rms="2.2904540598392487e-01" purity="5.0060331821441650e-01" nType="0">
        <Node pos="l" depth="1" NCoef="0" IVar="6" Cut="8.1661415100097656e+00" cType="1" res="1.9089122116565704e-01" rms="1.6122202575206757e-01" purity="9.7027218341827393e-01" nType="0">
          <Node pos="l" depth="2" NCoef="0" IVar="6" Cut="5.1777000427246094e+00" cType="1" res="1.9328761100769043e-01" rms="1.5426619350910187e-01" purity="9.7518271207809448e-01" nType="0">
            <Node pos="l" depth="3" NCoef="0" IVar="-1" Cut="0.0000000000000000e+00" cType="1" res="1.7167165875434875e-02" rms="1.4929550886154175e-01" purity="9.7714430093765259e-01" nType="-99"/>
            <Node pos="r" depth="3" NCoef="0" IVar="-1" Cut="0.0000000000000000e+00" cType="1" res="1.2651504948735237e-02" rms="2.9618093371391296e-01" purity="8.9053732156753540e-01" nType="-99"/>
          </Node>
          <Node pos="r" depth="2" NCoef="0" IVar="-1" Cut="0.0000000000000000e+00" cType="1" res="5.3955283947288990e-03" rms="3.4836897253990173e-01" purity="7.2387140989303589e-01" nType="-99"/>
        </Node>
        <Node pos="r" depth="1" NCoef="0" IVar="22" Cut="2.2682926654815674e+00" cType="1" res="-2.0206025242805481e-01" rms="3.2344650477170944e-02" purity="1.8559807213023305e-03" nType="0">
          <Node pos="l" depth="2" NCoef="0" IVar="-1" Cut="0.0000000000000000e+00" cType="1" res="-1.6585431993007660e-02" rms="1.2382041662931442e-01" purity="3.4828335046768188e-02" nType="-99"/>
          <Node pos="r" depth="2" NCoef="0" IVar="1" Cut="1.4705892944335938e+02" cType="1" res="-2.0259758830070496e-01" rms="2.5095520541071892e-02" purity="9.1901409905403852e-04" nType="0">
            <Node pos="l" depth="3" NCoef="0" IVar="-1" Cut="0.0000000000000000e+00" cType="1" res="-1.7509341239929199e-02" rms="1.5736076235771179e-01" purity="3.7346635013818741e-02" nType="-99"/>
            <Node pos="r" depth="3" NCoef="0" IVar="-1" Cut="0.0000000000000000e+00" cType="1" res="-1.8806634470820427e-02" rms="4.2242412455379963e-03" purity="0.0000000000000000e+00" nType="-99"/>
          </Node>
        </Node>
      </Node>
    </BinaryTree>
    <BinaryTree type="DecisionTree" boostWeight="1.0000000000000000e+00" itree="31">
      <Node pos="s" depth="0" NCoef="0" IVar="6" Cut="1.7638113021850586e+01" cType="1" res="-6.6765683004632592e-04" rms="2.2446207702159882e-01" purity="4.9874848127365112e-01" nType="0">
        <Node pos="l" depth="1" NCoef="0" IVar="6" Cut="7.3130421638488770e+00" cType="1" res="1.8501286208629608e-01" rms="1.6233612596988678e-01" purity="9.7089529037475586e-01" nType="0">
          <Node pos="l" depth="2" NCoef="0" IVar="1" Cut="2.9975257873535156e+01" cType="1" res="1.8697391450405121e-01" rms="1.5521596372127533e-01" purity="9.7507339715957642e-01" nType="0">
            <Node pos="l" depth="3" NCoef="0" IVar="-1" Cut="0.0000000000000000e+00" cType="1" res="1.8156679347157478e-02" rms="1.0718525201082230e-01" purity="9.8867064714431763e-01" nType="-99"/>
            <Node pos="r" depth="3" NCoef="0" IVar="-1" Cut="0.0000000000000000e+00" cType="1" res="1.6699325293302536e-02" rms="1.5938389301300049e-01" purity="9.7363591194152832e-01" nType="-99"/>
          </Node>
          <Node pos="r" depth="2" NCoef="0" IVar="-1" Cut="0.0000000000000000e+00" cType="1" res="6.9495858624577522e-03" rms="3.5383656620979309e-01" purity="7.7175599336624146e-01" nType="-99"/>
        </Node>
        <Node pos="r" depth="1" NCoef="0" IVar="6" Cut="3.2272331237792969e+01" cType="1" res="-1.9597461819648743e-01" rms="3.5351905971765518e-02" purity="2.1237097680568695e-03" nType="0">
          <Node pos="l" depth="2" NCoef="0" IVar="-1" Cut="0.0000000000000000e+00" cType="1" res="-1.4915386214852333e-02" rms="1.9123655557632446e-01" purity="6.6588319838047028e-02" nType="-99"/>
          <Node pos="r" depth="2" NCoef="0" IVar="1" Cut="1.4962101745605469e+02" cType="1" res="-1.9662053883075714e-01" rms="1.5018087811768055e-02" purity="2.8185645351186395e-04" nType="0">
            <Node pos="l" depth="3" NCoef="0" IVar="-1" Cut="0.0000000000000000e+00" cType="1" res="-1.8657734617590904e-02" rms="8.5058957338333130e-02" purity="9.8562976345419884e-03" nType="-99"/>
            <Node pos="r" depth="3" NCoef="0" IVar="-1" Cut="0.0000000000000000e+00" cType="1" res="-1.8662473186850548e-02" rms="3.5402809735387564e-03" purity="0.0000000000000000e+00" nType="-99"/>
          </Node>
        </Node>
      </Node>
    </BinaryTree>
    <BinaryTree type="DecisionTree" boostWeight="1.0000000000000000e+00" itree="32">
      <Node pos="s" depth="0" NCoef="0" IVar="6" Cut="2.0157842636108398e+01" cType="1" res="1.2824337463825941e-03" rms="2.1925565600395203e-01" purity="5.0268429517745972e-01" nType="0">
        <Node pos="l" depth="1" NCoef="0" IVar="21" Cut="5.1219511032104492e+00" cType="1" res="1.8012191355228424e-01" rms="1.6020715236663818e-01" purity="9.7050678730010986e-01" nType="0">
          <Node pos="l" depth="2" NCoef="0" IVar="20" Cut="7.5748100280761719e+01" cType="1" res="1.8244238197803497e-01" rms="1.4948587119579315e-01" purity="9.7678387165069580e-01" nType="0">
            <Node pos="l" depth="3" NCoef="0" IVar="-1" Cut="0.0000000000000000e+00" cType="1" res="1.6975034028291702e-02" rms="1.4300435781478882e-01" purity="9.7871029376983643e-01" nType="-99"/>
            <Node pos="r" depth="3" NCoef="0" IVar="-1" Cut="0.0000000000000000e+00" cType="1" res="1.5625448897480965e-02" rms="1.8436925113201141e-01" purity="9.6476078033447266e-01" nType="-99"/>
          </Node>
          <Node pos="r" depth="2" NCoef="0" IVar="-1" Cut="0.0000000000000000e+00" cType="1" res="4.8246369697153568e-03" rms="4.1261351108551025e-01" purity="6.7396986484527588e-01" nType="-99"/>
        </Node>
        <Node pos="r" depth="1" NCoef="0" IVar="0" Cut="5.7252647399902344e+01" cType="1" res="-1.9010165333747864e-01" rms="3.4591358155012131e-02" purity="2.0466388668864965e-03" nType="0">
          <Node pos="l" depth="2" NCoef="0" IVar="-1" Cut="0.0000000000000000e+00" cType="1" res="-1.4618063345551491e-02" rms="1.9072212278842926e-01" purity="6.5361939370632172e-02" nType="-99"/>
          <Node pos="r" depth="2" NCoef="0" IVar="18" Cut="1.4440223693847656e+02" cType="1" res="-1.9070540368556976e-01" rms="1.6793439164757729e-02" purity="4.2691439739428461e-04" nType="0">
            <Node pos="l" depth="3" NCoef="0" IVar="-1" Cut="0.0000000000000000e+00" cType="1" res="-1.8131284043192863e-02" rms="9.7329512238502502e-02" purity="1.5240643173456192e-02" nType="-99"/>
            <Node pos="r" depth="3" NCoef="0" IVar="-1" Cut="0.0000000000000000e+00" cType="1" res="-1.8528405576944351e-02" rms="3.6033613141626120e-03" purity="0.0000000000000000e+00" nType="-99"/>
          </Node>
        </Node>
      </Node>
    </BinaryTree>
    <BinaryTree type="DecisionTree" boostWeight="1.0000000000000000e+00" itree="33">
      <Node pos="s" depth="0" NCoef="0" IVar="10" Cut="3.9144210815429688e+01" cType="1" res="2.6528153102844954e-04" rms="2.1519842743873596e-01" purity="5.0120592117309570e-01" nType="0">
        <Node pos="l" depth="1" NCoef="0" IVar="10" Cut="1.5274327278137207e+01" cType="1" res="1.7471213638782501e-01" rms="1.5962365269660950e-01" purity="9.7246956825256348e-01" nType="0">
          <Node pos="l" depth="2" NCoef="0" IVar="0" Cut="2.6649034500122070e+01" cType="1" res="1.7670045793056488e-01" rms="1.4814808964729309e-01" purity="9.7761732339859009e-01" nType="0">
            <Node pos="l" depth="3" NCoef="0" IVar="-1" Cut="0.0000000000000000e+00" cType="1" res="1.7759796231985092e-02" rms="1.0066401958465576e-01" purity="9.9002951383590698e-01" nType="-99"/>
            <Node pos="r" depth="3" NCoef="0" IVar="-1" Cut="0.0000000000000000e+00" cType="1" res="1.6500368714332581e-02" rms="1.5297050774097443e-01" purity="9.7607707977294922e-01" nType="-99"/>
          </Node>
          <Node pos="r" depth="2" NCoef="0" IVar="-1" Cut="0.0000000000000000e+00" cType="1" res="7.6107010245323181e-03" rms="3.7787657976150513e-01" purity="7.9438894987106323e-01" nType="-99"/>
        </Node>
        <Node pos="r" depth="1" NCoef="0" IVar="20" Cut="2.5021570205688477e+01" cType="1" res="-1.8383741378784180e-01" rms="4.7792084515094757e-02" purity="3.8573604542762041e-03" nType="0">
          <Node pos="l" depth="2" NCoef="0" IVar="-1" Cut="0.0000000000000000e+00" cType="1" res="-9.9353855475783348e-03" rms="2.7672976255416870e-01" purity="1.4417444169521332e-01" nType="-99"/>
          <Node pos="r" depth="2" NCoef="0" IVar="11" Cut="2.5103700160980225e-01" cType="1" res="-1.8529573082923889e-01" rms="2.2687582299113274e-02" purity="6.9809023989364505e-04" nType="0">
            <Node pos="l" depth="3" NCoef="0" IVar="-1" Cut="0.0000000000000000e+00" cType="1" res="-1.8141835927963257e-02" rms="1.0816299915313721e-01" purity="1.7311906442046165e-02" nType="-99"/>
            <Node pos="r" depth="3" NCoef="0" IVar="-1" Cut="0.0000000000000000e+00" cType="1" res="-1.8388396129012108e-02" rms="1.4466277323663235e-02" purity="2.5090808048844337e-04" nType="-99"/>
          </Node>
        </Node>
      </Node>
    </BinaryTree>
    <BinaryTree type="DecisionTree" boostWeight="1.0000000000000000e+00" itree="34">
      <Node pos="s" depth="0" NCoef="0" IVar="10" Cut="3.8988498687744141e+01" cType="1" res="-6.4464379101991653e-04" rms="2.0995675027370453e-01" purity="4.9772956967353821e-01" nType="0">
        <Node pos="l" depth="1" NCoef="0" IVar="10" Cut="1.7116575241088867e+01" cType="1" res="1.7048496007919312e-01" rms="1.5713715553283691e-01" purity="9.7332590818405151e-01" nType="0">
          <Node pos="l" depth="2" NCoef="0" IVar="20" Cut="9.8068336486816406e+01" cType="1" res="1.7220009863376617e-01" rms="1.4635176956653595e-01" purity="9.7813516855239868e-01" nType="0">
            <Node pos="l" depth="3" NCoef="0" IVar="-1" Cut="0.0000000000000000e+00" cType="1" res="1.6635702922940254e-02" rms="1.4277017116546631e-01" purity="9.7922241687774658e-01" nType="-99"/>
            <Node pos="r" depth="3" NCoef="0" IVar="-1" Cut="0.0000000000000000e+00" cType="1" res="1.5120541676878929e-02" rms="1.8847101926803589e-01" purity="9.6311491727828979e-01" nType="-99"/>
          </Node>
          <Node pos="r" depth="2" NCoef="0" IVar="-1" Cut="0.0000000000000000e+00" cType="1" res="7.3557933792471886e-03" rms="3.8479554653167725e-01" purity="7.8527802228927612e-01" nType="-99"/>
        </Node>
        <Node pos="r" depth="1" NCoef="0" IVar="0" Cut="5.5515357971191406e+01" cType="1" res="-1.7840971052646637e-01" rms="4.6926908195018768e-02" purity="3.6922681611031294e-03" nType="0">
          <Node pos="l" depth="2" NCoef="0" IVar="-1" Cut="0.0000000000000000e+00" cType="1" res="-9.1791097074747086e-03" rms="2.8309547901153564e-01" purity="1.4918288588523865e-01" nType="-99"/>
          <Node pos="r" depth="2" NCoef="0" IVar="18" Cut="1.4201531982421875e+02" cType="1" res="-1.7995242774486542e-01" rms="1.8926618620753288e-02" purity="4.5433084596879780e-04" nType="0">
            <Node pos="l" depth="3" NCoef="0" IVar="-1" Cut="0.0000000000000000e+00" cType="1" res="-1.8041128292679787e-02" rms="1.2423504143953323e-01" purity="2.1581478416919708e-02" nType="-99"/>
            <Node pos="r" depth="3" NCoef="0" IVar="-1" Cut="0.0000000000000000e+00" cType="1" res="-1.8282216042280197e-02" rms="4.5153954997658730e-03" purity="0.0000000000000000e+00" nType="-99"/>
          </Node>
        </Node>
      </Node>
    </BinaryTree>
    <BinaryTree type="DecisionTree" boostWeight="1.0000000000000000e+00" itree="35">
      <Node pos="s" depth="0" NCoef="0" IVar="6" Cut="1.5924798965454102e+01" cType="1" res="3.6407473089639097e-05" rms="2.0602017641067505e-01" purity="5.0015282630920410e-01" nType="0">
        <Node pos="l" depth="1" NCoef="0" IVar="6" Cut="6.9907178878784180e+00" cType="1" res="1.6467750072479248e-01" rms="1.5992073714733124e-01" purity="9.7178065776824951e-01" nType="0">
          <Node pos="l" depth="2" NCoef="0" IVar="0" Cut="2.1319227218627930e+01" cType="1" res="1.6627249121665955e-01" rms="1.5385515987873077e-01" purity="9.7538745403289795e-01" nType="0">
            <Node pos="l" depth="3" NCoef="0" IVar="-1" Cut="0.0000000000000000e+00" cType="1" res="1.7711782827973366e-02" rms="1.0457665473222733e-01" purity="9.8919856548309326e-01" nType="-99"/>
            <Node pos="r" depth="3" NCoef="0" IVar="-1" Cut="0.0000000000000000e+00" cType="1" res="1.6075039282441139e-02" rms="1.5721310675144196e-01" purity="9.7423475980758667e-01" nType="-99"/>
          </Node>
          <Node pos="r" depth="2" NCoef="0" IVar="-1" Cut="0.0000000000000000e+00" cType="1" res="7.3062386363744736e-03" rms="3.2959404587745667e-01" purity="8.0367869138717651e-01" nType="-99"/>
        </Node>
        <Node pos="r" depth="1" NCoef="0" IVar="10" Cut="4.8181598663330078e+01" cType="1" res="-1.7338073253631592e-01" rms="3.9851177483797073e-02" purity="3.3853764180094004e-03" nType="0">
          <Node pos="l" depth="2" NCoef="0" IVar="-1" Cut="0.0000000000000000e+00" cType="1" res="-1.1453721672296524e-02" rms="2.2886282205581665e-01" purity="1.3092352449893951e-01" nType="-99"/>
          <Node pos="r" depth="2" NCoef="0" IVar="18" Cut="1.4465319824218750e+02" cType="1" res="-1.7441403865814209e-01" rms="1.8260091543197632e-02" purity="3.5009544808417559e-04" nType="0">
            <Node pos="l" depth="3" NCoef="0" IVar="-1" Cut="0.0000000000000000e+00" cType="1" res="-1.7647946253418922e-02" rms="1.0338254272937775e-01" purity="1.1564776301383972e-02" nType="-99"/>
            <Node pos="r" depth="3" NCoef="0" IVar="-1" Cut="0.0000000000000000e+00" cType="1" res="-1.8162362277507782e-02" rms="2.5454466231167316e-03" purity="0.0000000000000000e+00" nType="-99"/>
          </Node>
        </Node>
      </Node>
    </BinaryTree>
    <BinaryTree type="DecisionTree" boostWeight="1.0000000000000000e+00" itree="36">
      <Node pos="s" depth="0" NCoef="0" IVar="6" Cut="1.9700958251953125e+01" cType="1" res="3.2946775900200009e-04" rms="2.0270091295242310e-01" purity="5.0100332498550415e-01" nType="0">
        <Node pos="l" depth="1" NCoef="0" IVar="21" Cut="5.1219511032104492e+00" cType="1" res="1.5894760191440582e-01" rms="1.6291980445384979e-01" purity="9.6944582462310791e-01" nType="0">
          <Node pos="l" depth="2" NCoef="0" IVar="2" Cut="3.2195122241973877e+00" cType="1" res="1.6097714006900787e-01" rms="1.5210324525833130e-01" purity="9.7570914030075073e-01" nType="0">
            <Node pos="l" depth="3" NCoef="0" IVar="-1" Cut="0.0000000000000000e+00" cType="1" res="1.6146553680300713e-02" rms="1.4928659796714783e-01" purity="9.7712028026580811e-01" nType="-99"/>
            <Node pos="r" depth="3" NCoef="0" IVar="-1" Cut="0.0000000000000000e+00" cType="1" res="1.3352257199585438e-02" rms="2.1431870758533478e-01" purity="9.3693965673446655e-01" nType="-99"/>
          </Node>
          <Node pos="r" depth="2" NCoef="0" IVar="-1" Cut="0.0000000000000000e+00" cType="1" res="4.4461046345531940e-03" rms="4.2094892263412476e-01" purity="6.7548954486846924e-01" nType="-99"/>
        </Node>
        <Node pos="r" depth="1" NCoef="0" IVar="0" Cut="5.6756828308105469e+01" cType="1" res="-1.6858142614364624e-01" rms="3.5398423671722412e-02" purity="2.1634707227349281e-03" nType="0">
          <Node pos="l" depth="2" NCoef="0" IVar="-1" Cut="0.0000000000000000e+00" cType="1" res="-1.2953385710716248e-02" rms="2.0902222394943237e-01" purity="7.8107789158821106e-02" nType="-99"/>
          <Node pos="r" depth="2" NCoef="0" IVar="18" Cut="1.4338082885742188e+02" cType="1" res="-1.6928608715534210e-01" rms="1.4145823195576668e-02" purity="3.1658346415497363e-04" nType="0">
            <Node pos="l" depth="3" NCoef="0" IVar="-1" Cut="0.0000000000000000e+00" cType="1" res="-1.7841616645455360e-02" rms="8.6283244192600250e-02" purity="1.3157798908650875e-02" nType="-99"/>
            <Node pos="r" depth="3" NCoef="0" IVar="-1" Cut="0.0000000000000000e+00" cType="1" res="-1.8049547448754311e-02" rms="3.7797989789396524e-03" purity="0.0000000000000000e+00" nType="-99"/>
          </Node>
        </Node>
      </Node>
    </BinaryTree>
    <BinaryTree type="DecisionTree" boostWeight="1.0000000000000000e+00" itree="37">
      <Node pos="s" depth="0" NCoef="0" IVar="10" Cut="3.3552177429199219e+01" cType="1" res="-3.8344558561220765e-05" rms="1.9913634657859802e-01" purity="5.0084608793258667e-01" nType="0">
        <Node pos="l" depth="1" NCoef="0" IVar="21" Cut="3.2926828861236572e+00" cType="1" res="1.5515531599521637e-01" rms="1.5856127440929413e-01" purity="9.7345888614654541e-01" nType="0">
          <Node pos="l" depth="2" NCoef="0" IVar="1" Cut="1.3276190185546875e+02" cType="1" res="1.5617060661315918e-01" rms="1.5096211433410645e-01" purity="9.7667181491851807e-01" nType="0">
            <Node pos="l" depth="3" NCoef="0" IVar="-1" Cut="0.0000000000000000e+00" cType="1" res="1.5855463221669197e-02" rms="1.5318147838115692e-01" purity="9.7598254680633545e-01" nType="-99"/>
            <Node pos="r" depth="3" NCoef="0" IVar="-1" Cut="0.0000000000000000e+00" cType="1" res="1.7875207588076591e-02" rms="6.3584595918655396e-02" purity="9.9538689851760864e-01" nType="-99"/>
          </Node>
          <Node pos="r" depth="2" NCoef="0" IVar="-1" Cut="0.0000000000000000e+00" cType="1" res="9.9406633526086807e-03" rms="3.1846386194229126e-01" purity="8.6769378185272217e-01" nType="-99"/>
        </Node>
        <Node pos="r" depth="1" NCoef="0" IVar="5" Cut="7.7745429992675781e+01" cType="1" res="-1.6243609786033630e-01" rms="5.7153150439262390e-02" purity="6.2946281395852566e-03" nType="0">
          <Node pos="l" depth="2" NCoef="0" IVar="-1" Cut="0.0000000000000000e+00" cType="1" res="-4.4303103350102901e-03" rms="3.3557045459747314e-01" purity="2.5725206732749939e-01" nType="-99"/>
          <Node pos="r" depth="2" NCoef="0" IVar="18" Cut="1.4307708740234375e+02" cType="1" res="-1.6469301283359528e-01" rms="2.6969442144036293e-02" purity="1.0365345515310764e-03" nType="0">
            <Node pos="l" depth="3" NCoef="0" IVar="-1" Cut="0.0000000000000000e+00" cType="1" res="-1.7487589269876480e-02" rms="1.7788712680339813e-01" purity="4.8046972602605820e-02" nType="-99"/>
            <Node pos="r" depth="3" NCoef="0" IVar="-1" Cut="0.0000000000000000e+00" cType="1" res="-1.7947936430573463e-02" rms="7.2357454337179661e-03" purity="3.5287033824715763e-05" nType="-99"/>
          </Node>
        </Node>
      </Node>
    </BinaryTree>
    <BinaryTree type="DecisionTree" boostWeight="1.0000000000000000e+00" itree="38">
      <Node pos="s" depth="0" NCoef="0" IVar="6" Cut="1.4072113037109375e+01" cType="1" res="-6.7796436269418336e-06" rms="1.9429056346416473e-01" purity="5.0057250261306763e-01" nType="0">
        <Node pos="l" depth="1" NCoef="0" IVar="6" Cut="4.8030190467834473e+00" cType="1" res="1.5066742897033691e-01" rms="1.5936493873596191e-01" purity="9.7261917591094971e-01" nType="0">
          <Node pos="l" depth="2" NCoef="0" IVar="5" Cut="2.9975257873535156e+01" cType="1" res="1.5213486552238464e-01" rms="1.5061913430690765e-01" purity="9.7672516107559204e-01" nType="0">
            <Node pos="l" depth="3" NCoef="0" IVar="-1" Cut="0.0000000000000000e+00" cType="1" res="1.7177177593111992e-02" rms="1.0401277244091034e-01" purity="9.8937141895294189e-01" nType="-99"/>
            <Node pos="r" depth="3" NCoef="0" IVar="-1" Cut="0.0000000000000000e+00" cType="1" res="1.5658780932426453e-02" rms="1.5475493669509888e-01" purity="9.7536289691925049e-01" nType="-99"/>
          </Node>
          <Node pos="r" depth="2" NCoef="0" IVar="5" Cut="6.7006195068359375e+01" cType="1" res="1.1539348214864731e-01" rms="2.9877978563308716e-01" purity="8.7391948699951172e-01" nType="0">
            <Node pos="l" depth="3" NCoef="0" IVar="-1" Cut="0.0000000000000000e+00" cType="1" res="1.2768984772264957e-02" rms="2.7565032243728638e-01" purity="9.0252888202667236e-01" nType="-99"/>
            <Node pos="r" depth="3" NCoef="0" IVar="-1" Cut="0.0000000000000000e+00" cType="1" res="7.3821945115923882e-03" rms="3.1693652272224426e-01" purity="8.4557223320007324e-01" nType="-99"/>
          </Node>
        </Node>
        <Node pos="r" depth="1" NCoef="0" IVar="6" Cut="3.1371658325195312e+01" cType="1" res="-1.5840956568717957e-01" rms="4.2135063558816910e-02" purity="4.3129357509315014e-03" nType="0">
          <Node pos="l" depth="2" NCoef="0" IVar="-1" Cut="0.0000000000000000e+00" cType="1" res="-1.0754899121820927e-02" rms="2.3508815467357635e-01" purity="1.4610423147678375e-01" nType="-99"/>
          <Node pos="r" depth="2" NCoef="0" IVar="1" Cut="1.4879243469238281e+02" cType="1" res="-1.5958125889301300e-01" rms="1.3857923448085785e-02" purity="2.4647929240018129e-04" nType="0">
            <Node pos="l" depth="3" NCoef="0" IVar="-1" Cut="0.0000000000000000e+00" cType="1" res="-1.7861954867839813e-02" rms="7.9405315220355988e-02" purity="9.2819174751639366e-03" nType="-99"/>
            <Node pos="r" depth="3" NCoef="0" IVar="-1" Cut="0.0000000000000000e+00" cType="1" res="-1.7839798703789711e-02" rms="3.9920448325574398e-03" purity="0.0000000000000000e+00" nType="-99"/>
          </Node>
        </Node>
      </Node>
    </BinaryTree>
    <BinaryTree type="DecisionTree" boostWeight="1.0000000000000000e+00" itree="39">
      <Node pos="s" depth="0" NCoef="0" IVar="10" Cut="3.3418712615966797e+01" cType="1" res="1.3682976132258773e-03" rms="1.9083674252033234e-01" purity="5.0454455614089966e-01" nType="0">
        <Node pos="l" depth="1" NCoef="0" IVar="10" Cut="1.3856456756591797e+01" cType="1" res="1.4698410034179688e-01" rms="1.5521046519279480e-01" purity="9.7449392080307007e-01" nType="0">
